{"learner":{"attributes":{"scikit_learn":"{\"_estimator_type\": \"regressor\"}"},"feature_names":["surface_hard","surface_clay","surface_grass","surface_carpet","is_best_of_5","round_ordinal","is_atp","player_rank","opp_rank","rank_delta","rank_ratio","log_rank","log_opp_rank","days_rest","matches_L14D","is_b2b","h2h_win_rate","h2h_avg_games","career_win_pct_vs_top20","career_win_pct_vs_top50","career_win_pct_vs_top100","career_matches","is_early_career","opp_aces_hard_L10","opp_aces_clay_L10","opp_aces_grass_L10","opp_double_faults_hard_L10","opp_double_faults_clay_L10","opp_double_faults_grass_L10","opp_total_games_hard_L10","opp_total_games_clay_L10","opp_total_games_grass_L10","opp_games_won_hard_L10","opp_games_won_clay_L10","opp_games_won_grass_L10","opp_bp_won_hard_L10","opp_bp_won_clay_L10","opp_bp_won_grass_L10","total_games_L5","total_games_L20","total_games_Season","games_won_L5","games_won_L20","games_won_Season","total_sets_L5","total_sets_L20","total_sets_Season","aces_L5","aces_L20","aces_Season","bp_won_L5","bp_won_L20","bp_won_Season","total_tiebreaks_L5","total_tiebreaks_L20","total_tiebreaks_Season","double_faults_L5","double_faults_L20","double_faults_Season","won_match_L5","won_match_L20","won_match_Season","sets_won_L5","sets_won_L20","sets_won_Season","bp_faced_L5","bp_faced_L20","bp_faced_Season","svpt_L5","svpt_L20","svpt_Season","svc_games_L5","svc_games_L20","svc_games_Season","aces_hard_L10","aces_clay_L10","aces_grass_L10","double_faults_hard_L10","double_faults_clay_L10","double_faults_grass_L10","total_games_hard_L10","total_games_clay_L10","total_games_grass_L10","games_won_hard_L10","games_won_clay_L10","games_won_grass_L10","bp_won_hard_L10","bp_won_clay_L10","bp_won_grass_L10","opp_total_games_L5","opp_total_games_L20","opp_games_won_L5","opp_games_won_L20","opp_aces_L5","opp_aces_L20","opp_double_faults_L5","opp_double_faults_L20","opp_bp_won_L5","opp_bp_won_L20","opp_bp_faced_L5","opp_bp_faced_L20"],"feature_types":["int","int","int","int","int","float","int","float","float","float","float","float","float","float","int","int","float","float","float","float","float","int","int","float","float","float","float","float","float","float","float","float","float","float","float","float","float","float","float","float","float","float","float","float","float","float","float","float","float","float","float","float","float","float","float","float","float","float","float","float","float","float","float","float","float","float","float","float","float","float","float","float","float","float","float","float","float","float","float","float","float","float","float","float","float","float","float","float","float","float","float","float","float","float","float","float","float","float","float","float","float"],"gradient_booster":{"model":{"cats":{"enc":[],"feature_segments":[],"sorted_idx":[]},"gbtree_model_param":{"num_parallel_tree":"1","num_trees":"400"},"iteration_indptr":[0,1,2,3,4,5,6,7,8,9,10,11,12,13,14,15,16,17,18,19,20,21,22,23,24,25,26,27,28,29,30,31,32,33,34,35,36,37,38,39,40,41,42,43,44,45,46,47,48,49,50,51,52,53,54,55,56,57,58,59,60,61,62,63,64,65,66,67,68,69,70,71,72,73,74,75,76,77,78,79,80,81,82,83,84,85,86,87,88,89,90,91,92,93,94,95,96,97,98,99,100,101,102,103,104,105,106,107,108,109,110,111,112,113,114,115,116,117,118,119,120,121,122,123,124,125,126,127,128,129,130,131,132,133,134,135,136,137,138,139,140,141,142,143,144,145,146,147,148,149,150,151,152,153,154,155,156,157,158,159,160,161,162,163,164,165,166,167,168,169,170,171,172,173,174,175,176,177,178,179,180,181,182,183,184,185,186,187,188,189,190,191,192,193,194,195,196,197,198,199,200,201,202,203,204,205,206,207,208,209,210,211,212,213,214,215,216,217,218,219,220,221,222,223,224,225,226,227,228,229,230,231,232,233,234,235,236,237,238,239,240,241,242,243,244,245,246,247,248,249,250,251,252,253,254,255,256,257,258,259,260,261,262,263,264,265,266,267,268,269,270,271,272,273,274,275,276,277,278,279,280,281,282,283,284,285,286,287,288,289,290,291,292,293,294,295,296,297,298,299,300,301,302,303,304,305,306,307,308,309,310,311,312,313,314,315,316,317,318,319,320,321,322,323,324,325,326,327,328,329,330,331,332,333,334,335,336,337,338,339,340,341,342,343,344,345,346,347,348,349,350,351,352,353,354,355,356,357,358,359,360,361,362,363,364,365,366,367,368,369,370,371,372,373,374,375,376,377,378,379,380,381,382,383,384,385,386,387,388,389,390,391,392,393,394,395,396,397,398,399,400],"tree_info":[0,0,0,0,0,0,0,0,0,0,0,0,0,0,0,0,0,0,0,0,0,0,0,0,0,0,0,0,0,0,0,0,0,0,0,0,0,0,0,0,0,0,0,0,0,0,0,0,0,0,0,0,0,0,0,0,0,0,0,0,0,0,0,0,0,0,0,0,0,0,0,0,0,0,0,0,0,0,0,0,0,0,0,0,0,0,0,0,0,0,0,0,0,0,0,0,0,0,0,0,0,0,0,0,0,0,0,0,0,0,0,0,0,0,0,0,0,0,0,0,0,0,0,0,0,0,0,0,0,0,0,0,0,0,0,0,0,0,0,0,0,0,0,0,0,0,0,0,0,0,0,0,0,0,0,0,0,0,0,0,0,0,0,0,0,0,0,0,0,0,0,0,0,0,0,0,0,0,0,0,0,0,0,0,0,0,0,0,0,0,0,0,0,0,0,0,0,0,0,0,0,0,0,0,0,0,0,0,0,0,0,0,0,0,0,0,0,0,0,0,0,0,0,0,0,0,0,0,0,0,0,0,0,0,0,0,0,0,0,0,0,0,0,0,0,0,0,0,0,0,0,0,0,0,0,0,0,0,0,0,0,0,0,0,0,0,0,0,0,0,0,0,0,0,0,0,0,0,0,0,0,0,0,0,0,0,0,0,0,0,0,0,0,0,0,0,0,0,0,0,0,0,0,0,0,0,0,0,0,0,0,0,0,0,0,0,0,0,0,0,0,0,0,0,0,0,0,0,0,0,0,0,0,0,0,0,0,0,0,0,0,0,0,0,0,0,0,0,0,0,0,0,0,0,0,0,0,0,0,0,0,0,0,0,0,0,0,0,0,0,0,0,0,0,0,0,0,0,0,0,0,0,0,0,0,0,0,0,0,0,0,0,0,0,0,0,0,0,0,0],"trees":[{"base_weights":[3.5706948E-4,-3.4555638E-1,6.197612E-1,-7.6861244E-1,2.5773607E-2,4.3517858E-2,1.302331E0,8.5869856E-2,-9.276569E-1,1.4919816E0,-1.486335E-1,4.9533683E-1,-4.72845E-1,1.2840726E0,5.1023777E1,5.8361986E-3,2.5012827E0,-5.78213E-1,-1.1890382E0,1.6942579E0,1.19097464E-1,-4.6275407E-1,2.9154453E-1,4.3609697E-1,3.1086144E0,-1.3256001E0,-2.6860127E-1,1.679915E0,5.625945E-1,1.727779E-1,3.849744E0,1.4289944E-2,-2.1664783E-2,1.9307786E-1,6.5811805E-2,-4.3244805E-2,-1.3077313E-2,-7.5294435E-2,-5.175927E-2,7.0660286E-2,1.1830483E-1,1.9383354E-2,-1.1047428E-1,-4.5956154E-3,-3.9334532E-2,9.000152E-3,6.62076E-2,3.12544E-2,-6.7321546E-3,2.1187429E-1,1.2009262E-1,-7.1215145E-2,3.213029E-2,-4.4025358E-2,-3.9915703E-4,1.3928114E0,8.332797E-2,9.363046E-3,5.6470092E-2],"categories":[],"categories_nodes":[],"categories_segments":[],"categories_sizes":[],"default_left":[0,0,0,0,0,0,0,0,0,0,0,0,0,0,0,0,0,0,0,0,0,0,0,0,0,0,0,0,0,0,0,0,0,0,0,0,0,0,0,0,0,0,0,0,0,0,0,0,0,0,0,0,0,0,0,0,0,0,0],"id":0,"left_children":[1,3,5,7,9,11,13,15,17,19,21,23,25,27,29,31,33,35,37,39,41,43,45,47,49,51,53,55,57,-1,-1,-1,-1,-1,-1,-1,-1,-1,-1,-1,-1,-1,-1,-1,-1,-1,-1,-1,-1,-1,-1,-1,-1,-1,-1,-1,-1,-1,-1],"loss_changes":[1.7089677E5,8.039972E4,1.1241955E5,3.251236E4,6.969886E4,3.6157695E4,1.187083E5,7.257141E3,1.8421484E4,8.0460273E3,3.368067E4,1.2794436E4,1.2596319E4,3.735164E4,5.9025055E4,4.467645E3,1.9352339E3,7.8351406E3,5.623E3,4.7647812E3,2.328363E3,1.7075967E4,1.1683324E4,8.718408E3,1.4508086E3,2.7158828E3,9.305357E3,2.9475484E4,9.8576875E3,0E0,0E0,0E0,0E0,0E0,0E0,0E0,0E0,0E0,0E0,0E0,0E0,0E0,0E0,0E0,0E0,0E0,0E0,0E0,0E0,0E0,0E0,0E0,0E0,0E0,0E0,0E0,0E0,0E0,0E0],"parents":[2147483647,0,0,1,1,2,2,3,3,4,4,5,5,6,6,7,7,8,8,9,9,10,10,11,11,12,12,13,13,14,14,15,15,16,16,17,17,18,18,19,19,20,20,21,21,22,22,23,23,24,24,25,25,26,26,27,27,28,28],"right_children":[2,4,6,8,10,12,14,16,18,20,22,24,26,28,30,32,34,36,38,40,42,44,46,48,50,52,54,56,58,-1,-1,-1,-1,-1,-1,-1,-1,-1,-1,-1,-1,-1,-1,-1,-1,-1,-1,-1,-1,-1,-1,-1,-1,-1,-1,-1,-1,-1,-1],"split_conditions":[3.3076923E0,2.4E1,2.3857143E1,4.1304347E-1,1E0,1.2222222E0,1.68E1,1E0,4.15E0,4.75E0,6.25E0,1E0,1.675E1,5.55E0,5E0,4.75E0,1.557377E-1,7E0,4.5E0,3E1,3.375E0,1.7368422E0,3.9727272E1,4.75E0,7.51E1,3.6671224E-1,5.25E0,2E-1,1E0,1.727779E-1,3.849744E0,1.4289944E-2,-2.1664783E-2,1.9307786E-1,6.5811805E-2,-4.3244805E-2,-1.3077313E-2,-7.5294435E-2,-5.175927E-2,7.0660286E-2,1.1830483E-1,1.9383354E-2,-1.1047428E-1,-4.5956154E-3,-3.9334532E-2,9.000152E-3,6.62076E-2,3.12544E-2,-6.7321546E-3,2.1187429E-1,1.2009262E-1,-7.1215145E-2,3.213029E-2,-4.4025358E-2,-3.9915703E-4,1.3928114E0,8.332797E-2,9.363046E-3,5.6470092E-2],"split_indices":[51,17,17,10,6,10,97,4,94,94,99,4,17,94,5,93,10,99,99,17,79,10,17,93,69,18,99,62,4,0,0,0,0,0,0,0,0,0,0,0,0,0,0,0,0,0,0,0,0,0,0,0,0,0,0,0,0,0,0],"split_type":[0,0,0,0,0,0,0,0,0,0,0,0,0,0,0,0,0,0,0,0,0,0,0,0,0,0,0,0,0,0,0,0,0,0,0,0,0,0,0,0,0,0,0,0,0,0,0,0,0,0,0,0,0,0,0,0,0,0,0],"sum_hessian":[7.97611E5,5.11794E5,2.85817E5,2.39234E5,2.7256E5,1.5498E5,1.30837E5,3.7541E4,2.01693E5,2.8974E4,2.43586E5,8.2656E4,7.2324E4,1.3079E5,4.7E1,3.6338E4,1.203E3,8.6309E4,1.15384E5,2.5253E4,3.721E3,1.42147E5,1.01439E5,8.0825E4,1.831E3,1.3974E4,5.835E4,8.4453E4,4.6337E4,1.7E1,3E1,2.2191E4,1.4147E4,5.59E2,6.44E2,4.5298E4,4.1011E4,3.7711E4,7.7673E4,1.7807E4,7.446E3,3.337E3,3.84E2,6.6276E4,7.5871E4,9.1551E4,9.888E3,6.0719E4,2.0106E4,7.03E2,1.128E3,1.3307E4,6.67E2,1.7428E4,4.0922E4,4.2E1,8.4411E4,2.7878E4,1.8459E4],"tree_param":{"num_deleted":"0","num_feature":"101","num_nodes":"59","size_leaf_vector":"1"}},{"base_weights":[-8.848501E-4,-3.522853E-1,1.6863917E0,-9.164821E-1,1.2920079E-1,1.1678653E0,2.2412815E0,-5.229235E-1,-1.2794547E0,1.2741783E0,-2.334157E-1,2.1162438E0,9.780307E-1,2.2317443E0,4.0600295E0,-1.2472894E0,-1.5365937E-1,-1.4612273E0,-6.048143E-1,1.2610186E0,3.6488796E1,-3.4364763E-1,9.3421525E-1,2.599E0,1.7252259E0,8.1204355E-1,2.2030482E0,2.2245188E0,2.0609838E1,-8.611747E-2,-5.0934117E-2,-2.813755E-2,4.2036274E-3,-8.8040136E-2,-6.578051E-2,-3.461627E-2,3.1534236E-2,4.463274E-2,8.978283E-2,1.6262344E-1,3.1076512E0,-3.571378E-2,-3.932432E-3,5.710668E-2,-4.2774525E-2,1.2105637E-1,1.7401624E-1,1.09345345E-2,9.498563E-2,8.663051E-2,3.3797752E-2,7.6463155E-2,1.3325372E-1,1.2131786E-1,8.173946E-2,3.866457E0,1.7090707E-1],"categories":[],"categories_nodes":[],"categories_segments":[],"categories_sizes":[],"default_left":[0,0,0,0,0,0,0,0,0,0,0,0,0,0,0,0,0,0,0,0,0,0,0,0,0,0,0,0,0,0,0,0,0,0,0,0,0,0,0,0,0,0,0,0,0,0,0,0,0,0,0,0,0,0,0,0,0],"id":1,"left_children":[1,3,5,7,9,11,13,15,17,19,21,23,25,27,-1,29,31,33,35,37,39,41,43,45,47,49,51,53,55,-1,-1,-1,-1,-1,-1,-1,-1,-1,-1,-1,-1,-1,-1,-1,-1,-1,-1,-1,-1,-1,-1,-1,-1,-1,-1,-1,-1],"loss_changes":[4.734454E5,1.7952881E5,3.9598656E4,4.3468875E4,1.4804595E5,1.2807477E4,4.9877125E4,3.9052355E4,1.9411516E4,3.9695188E4,3.485628E4,2.2349844E3,1.2053156E4,8.779656E3,0E0,5.3517344E3,9.405057E3,5.4372188E3,3.633378E3,1.688289E4,2.708682E4,2.4303426E4,8.693928E3,8.2308203E2,1.7235371E3,6.539883E3,2.1976875E3,7.9056562E3,2.508023E4,0E0,0E0,0E0,0E0,0E0,0E0,0E0,0E0,0E0,0E0,0E0,0E0,0E0,0E0,0E0,0E0,0E0,0E0,0E0,0E0,0E0,0E0,0E0,0E0,0E0,0E0,0E0,0E0],"parents":[2147483647,0,0,1,1,2,2,3,3,4,4,5,5,6,6,7,7,8,8,9,9,10,10,11,11,12,12,13,13,15,15,16,16,17,17,18,18,19,19,20,20,21,21,22,22,23,23,24,24,25,25,26,26,27,27,28,28],"right_children":[2,4,6,8,10,12,14,16,18,20,22,24,26,28,-1,30,32,34,36,38,40,42,44,46,48,50,52,54,56,-1,-1,-1,-1,-1,-1,-1,-1,-1,-1,-1,-1,-1,-1,-1,-1,-1,-1,-1,-1,-1,-1,-1,-1,-1,-1,-1,-1],"split_conditions":[1E0,2.3153847E1,3.3333333E0,1E0,1E0,1E0,4.28E1,1.76E1,7.4626864E-3,2.36E1,3.9727272E1,3.1666667E0,1E0,1.68E1,4.0600295E0,1.5294118E1,1.909756E1,1.826087E1,1E0,2.8E1,5E0,5.2E0,1.1943182E1,2.995111E1,7E0,1.8E1,5.75E0,5.5E0,6E0,-8.611747E-2,-5.0934117E-2,-2.813755E-2,4.2036274E-3,-8.8040136E-2,-6.578051E-2,-3.461627E-2,3.1534236E-2,4.463274E-2,8.978283E-2,1.6262344E-1,3.1076512E0,-3.571378E-2,-3.932432E-3,5.710668E-2,-4.2774525E-2,1.2105637E-1,1.7401624E-1,1.09345345E-2,9.498563E-2,8.663051E-2,3.3797752E-2,7.6463155E-2,1.3325372E-1,1.2131786E-1,8.173946E-2,3.866457E0,1.7090707E-1],"split_indices":[16,17,50,6,6,6,99,17,16,97,17,49,4,97,0,17,17,17,4,17,5,99,49,17,71,17,99,94,5,0,0,0,0,0,0,0,0,0,0,0,0,0,0,0,0,0,0,0,0,0,0,0,0,0,0,0,0],"split_type":[0,0,0,0,0,0,0,0,0,0,0,0,0,0,0,0,0,0,0,0,0,0,0,0,0,0,0,0,0,0,0,0,0,0,0,0,0,0,0,0,0,0,0,0,0,0,0,0,0,0,0,0,0,0,0,0,0],"sum_hessian":[7.9851E5,6.60874E5,1.37636E5,3.043E5,3.56574E5,7.1151E4,6.6485E4,1.46E5,1.583E5,8.5765E4,2.70809E5,1.1865E4,5.9286E4,6.6478E4,7E0,4.9296E4,9.6704E4,1.247E5,3.36E4,8.5734E4,3.1E1,2.47449E5,2.336E4,5.307E3,6.558E3,5.2213E4,7.073E3,6.6453E4,2.5E1,1.6013E4,3.3283E4,3.5542E4,6.1162E4,4.0784E4,8.3916E4,3.1378E4,2.222E3,5.0762E4,3.4972E4,1.4E1,1.7E1,1.03163E5,1.44286E5,2.0929E4,2.431E3,4.419E3,8.88E2,6.81E2,5.877E3,6.723E3,4.549E4,2.879E3,4.194E3,4.9506E4,1.6947E4,5E0,2E1],"tree_param":{"num_deleted":"0","num_feature":"101","num_nodes":"57","size_leaf_vector":"1"}},{"base_weights":[-8.409198E-4,-3.3485645E-1,1.600212E0,-8.705628E-1,1.232835E-1,1.1141937E0,2.122553E0,-1.0670956E0,-2.0670584E-1,7.4524283E-1,-2.7065623E-1,1.3996141E0,5.737753E-1,2.11848E0,2.3417413E0,-8.05631E-1,-1.377762E0,9.021098E-2,-6.663655E-1,1.238506E0,1.8960698E-1,-4.824983E-1,3.6375493E-1,1.7548915E0,1.0244602E0,4.5911184E-1,1.5982249E0,2.6006234E0,1.875157E0,-6.766648E-2,-2.4342136E-2,-8.265105E-2,-6.2369067E-2,2.3245646E-2,-7.6218084E-3,-3.7543625E-2,3.3712357E-2,6.1090946E-2,8.425342E-1,1.8738998E-2,-2.4257319E-2,-2.871708E-2,2.3765925E-2,1.1240913E-2,7.429712E-2,8.385505E-2,1.5111123E-1,4.2279296E-2,1.0496732E-1,4.914182E-2,1.3145379E-2,8.528929E-2,-4.0261876E-2,1.2815495E-1,8.3412504E-1,7.852311E-2,1.3311131E-1],"categories":[],"categories_nodes":[],"categories_segments":[],"categories_sizes":[],"default_left":[0,0,0,0,0,0,0,0,0,0,0,0,0,0,0,0,0,0,0,0,0,0,0,0,0,0,0,0,0,0,0,0,0,0,0,0,0,0,0,0,0,0,0,0,0,0,0,0,0,0,0,0,0,0,0,0,0],"id":2,"left_children":[1,3,5,7,9,11,13,15,17,19,21,23,25,27,-1,29,31,33,35,37,39,41,43,45,47,49,51,53,55,-1,-1,-1,-1,-1,-1,-1,-1,-1,-1,-1,-1,-1,-1,-1,-1,-1,-1,-1,-1,-1,-1,-1,-1,-1,-1,-1,-1],"loss_changes":[4.269061E5,1.6210444E5,3.4978688E4,3.972417E4,8.723104E4,1.1009266E4,1.1991281E4,1.9081125E4,9.49235E3,3.7837562E4,2.9293855E4,6.2236094E3,2.897205E3,7.7855625E3,0E0,2.2272172E4,3.8505938E3,3.8420325E3,3.092796E3,1.903029E4,8.112295E3,1.4374781E4,8.506732E3,2.3594453E3,4.3666777E3,2.279795E3,6.4336475E2,1.1723641E4,1.0580625E4,0E0,0E0,0E0,0E0,0E0,0E0,0E0,0E0,0E0,0E0,0E0,0E0,0E0,0E0,0E0,0E0,0E0,0E0,0E0,0E0,0E0,0E0,0E0,0E0,0E0,0E0,0E0,0E0],"parents":[2147483647,0,0,1,1,2,2,3,3,4,4,5,5,6,6,7,7,8,8,9,9,10,10,11,11,12,12,13,13,15,15,16,16,17,17,18,18,19,19,20,20,21,21,22,22,23,23,24,24,25,25,26,26,27,27,28,28],"right_children":[2,4,6,8,10,12,14,16,18,20,22,24,26,28,-1,30,32,34,36,38,40,42,44,46,48,50,52,54,56,-1,-1,-1,-1,-1,-1,-1,-1,-1,-1,-1,-1,-1,-1,-1,-1,-1,-1,-1,-1,-1,-1,-1,-1,-1,-1,-1,-1],"split_conditions":[1E0,2.3153847E1,3.4E0,7.4626864E-3,4.25E0,5.6E0,2.0666666E1,2.4142857E1,2.4863636E1,2.4385593E1,3.3076923E0,5.1034484E0,1E0,3.3333333E0,2.3417413E0,1.7153847E1,1.8082474E1,2.95E0,1E0,1.1E1,8.892858E0,3.9727272E1,3.7056725E1,1E0,1E0,2.072E1,6E0,1.1E1,1E0,-6.766648E-2,-2.4342136E-2,-8.265105E-2,-6.2369067E-2,2.3245646E-2,-7.6218084E-3,-3.7543625E-2,3.3712357E-2,6.1090946E-2,8.425342E-1,1.8738998E-2,-2.4257319E-2,-2.871708E-2,2.3765925E-2,1.1240913E-2,7.429712E-2,8.385505E-2,1.5111123E-1,4.2279296E-2,1.0496732E-1,4.914182E-2,1.3145379E-2,8.528929E-2,-4.0261876E-2,1.2815495E-1,8.3412504E-1,7.852311E-2,1.3311131E-1],"split_indices":[16,17,50,16,93,94,36,40,40,40,51,49,4,49,0,17,17,94,4,95,49,17,17,4,4,17,5,95,4,0,0,0,0,0,0,0,0,0,0,0,0,0,0,0,0,0,0,0,0,0,0,0,0,0,0,0,0],"split_type":[0,0,0,0,0,0,0,0,0,0,0,0,0,0,0,0,0,0,0,0,0,0,0,0,0,0,0,0,0,0,0,0,0,0,0,0,0,0,0,0,0,0,0,0,0,0,0,0,0,0,0,0,0,0,0,0,0],"sum_hessian":[7.98287E5,6.60494E5,1.37793E5,3.04472E5,3.56022E5,7.138E4,6.6413E4,2.34923E5,6.9549E4,1.38056E5,2.17966E5,4.6709E4,2.4671E4,6.6408E4,5E0,1.27565E5,1.07358E5,4.2255E4,2.7294E4,7.3132E4,6.4924E4,1.63403E5,5.4563E4,2.3988E4,2.2721E4,2.2189E4,2.482E3,2.227E4,4.4138E4,4.6931E4,8.0634E4,3.4503E4,7.2855E4,1.6608E4,2.5647E4,2.5676E4,1.618E3,7.3055E4,7.7E1,5.0944E4,1.398E4,1.49106E5,1.4297E4,4.8553E4,6.01E3,2.2603E4,1.385E3,1.9481E4,3.24E3,6.046E3,1.6143E4,2.376E3,1.06E2,2.2212E4,5.8E1,3.1822E4,1.2316E4],"tree_param":{"num_deleted":"0","num_feature":"101","num_nodes":"57","size_leaf_vector":"1"}},{"base_weights":[-8.997636E-4,-3.1766838E-1,1.5176194E0,-8.247529E-1,1.16372846E-1,8.617556E-1,1.8729566E0,-4.6139982E-1,-1.1604221E0,1.1634856E0,-2.1468973E-1,6.579066E-1,1.9858412E0,1.8632555E0,3.1681078E1,-8.688957E-1,1.0076944E-1,-1.3276702E0,-5.3774357E-1,1.1518853E0,3.209494E1,-3.1524E-1,8.500075E-1,1.418624E0,4.9072772E-1,1.3726581E0,2.4622462E0,2.0846992E0,1.2359746E0,1.0893945E-1,3.9875195E0,-6.840342E-2,-3.150771E-2,-1.7391652E-2,1.5168239E-2,-8.00156E-2,-5.9912987E-2,-3.0055309E-2,4.980279E-2,3.6432732E-2,7.773666E-2,1.16254985E-1,2.9109898E0,-2.9561523E-2,2.3437303E-4,6.398618E-2,1.5488476E-3,9.736796E-2,5.6441844E-2,2.9412914E-2,-3.501939E-2,9.7690575E-2,4.9043886E-2,1.0866644E-1,1.6262348E-1,9.841859E-2,1.5637948E-1,4.2875443E-2,1.0999254E-1],"categories":[],"categories_nodes":[],"categories_segments":[],"categories_sizes":[],"default_left":[0,0,0,0,0,0,0,0,0,0,0,0,0,0,0,0,0,0,0,0,0,0,0,0,0,0,0,0,0,0,0,0,0,0,0,0,0,0,0,0,0,0,0,0,0,0,0,0,0,0,0,0,0,0,0,0,0,0,0],"id":3,"left_children":[1,3,5,7,9,11,13,15,17,19,21,23,25,27,29,31,33,35,37,39,41,43,45,47,49,51,53,55,57,-1,-1,-1,-1,-1,-1,-1,-1,-1,-1,-1,-1,-1,-1,-1,-1,-1,-1,-1,-1,-1,-1,-1,-1,-1,-1,-1,-1,-1,-1],"loss_changes":[3.8387872E5,1.453315E5,3.20995E4,3.7141875E4,1.2333499E5,1.1090133E4,2.5771719E4,3.350038E4,1.6484219E4,3.0626062E4,2.8939057E4,5.2102715E3,2.166713E3,1.24030625E4,4.094453E4,1.0102684E4,5.5855156E3,4.4003438E3,3.2579268E3,1.456493E4,2.4746023E4,2.1808602E4,8.20943E3,1.1285684E3,3.9031372E3,7.379922E2,9.467207E2,8.0010312E3,8.499336E3,0E0,0E0,0E0,0E0,0E0,0E0,0E0,0E0,0E0,0E0,0E0,0E0,0E0,0E0,0E0,0E0,0E0,0E0,0E0,0E0,0E0,0E0,0E0,0E0,0E0,0E0,0E0,0E0,0E0,0E0],"parents":[2147483647,0,0,1,1,2,2,3,3,4,4,5,5,6,6,7,7,8,8,9,9,10,10,11,11,12,12,13,13,14,14,15,15,16,16,17,17,18,18,19,19,20,20,21,21,22,22,23,23,24,24,25,25,26,26,27,27,28,28],"right_children":[2,4,6,8,10,12,14,16,18,20,22,24,26,28,30,32,34,36,38,40,42,44,46,48,50,52,54,56,58,-1,-1,-1,-1,-1,-1,-1,-1,-1,-1,-1,-1,-1,-1,-1,-1,-1,-1,-1,-1,-1,-1,-1,-1,-1,-1,-1,-1,-1,-1],"split_conditions":[1E0,2.3153847E1,2.9166667E0,1E0,1E0,1E0,1.68E1,1.909756E1,7.4626864E-3,1.74E1,3.9727272E1,1.8571428E1,2.4497354E0,5.5E0,4.962845E0,1.6105263E1,6E0,1.8082474E1,5.9400547E-1,3.4965076E0,5E0,6E0,7.3370786E0,1.675E1,1.5733334E1,3E0,7.45E0,1E0,1E0,1.0893945E-1,3.9875195E0,-6.840342E-2,-3.150771E-2,-1.7391652E-2,1.5168239E-2,-8.00156E-2,-5.9912987E-2,-3.0055309E-2,4.980279E-2,3.6432732E-2,7.773666E-2,1.16254985E-1,2.9109898E0,-2.9561523E-2,2.3437303E-4,6.398618E-2,1.5488476E-3,9.736796E-2,5.6441844E-2,2.9412914E-2,-3.501939E-2,9.7690575E-2,4.9043886E-2,1.0866644E-1,1.6262348E-1,9.841859E-2,1.5637948E-1,4.2875443E-2,1.0999254E-1],"split_indices":[16,17,52,6,6,4,97,17,16,97,17,17,52,94,12,17,99,17,20,12,5,99,49,17,49,5,100,4,4,0,0,0,0,0,0,0,0,0,0,0,0,0,0,0,0,0,0,0,0,0,0,0,0,0,0,0,0,0,0],"split_type":[0,0,0,0,0,0,0,0,0,0,0,0,0,0,0,0,0,0,0,0,0,0,0,0,0,0,0,0,0,0,0,0,0,0,0,0,0,0,0,0,0,0,0,0,0,0,0,0,0,0,0,0,0,0,0,0,0,0,0],"sum_hessian":[7.98051E5,6.60309E5,1.37742E5,3.0453E5,3.55779E5,4.8404E4,8.9338E4,1.46236E5,1.58294E5,8.5464E4,2.70315E5,4.0975E4,7.429E3,8.931E4,2.8E1,8.4781E4,6.1455E4,1.24778E5,3.3516E4,8.5433E4,3.1E1,2.4699E5,2.3325E4,7.381E3,3.3594E4,3.25E3,4.179E3,6.6006E4,2.3304E4,1.8E1,1E1,2.7428E4,5.7353E4,1.9119E4,4.2336E4,4.0159E4,8.4619E4,3.2187E4,1.329E3,4.1664E4,4.3769E4,1.5E1,1.6E1,1.326E5,1.1439E5,1.5298E4,8.027E3,2.611E3,4.77E3,3.1052E4,2.542E3,1.307E3,1.943E3,3.063E3,1.116E3,5.9385E4,6.621E3,1.6735E4,6.569E3],"tree_param":{"num_deleted":"0","num_feature":"101","num_nodes":"59","size_leaf_vector":"1"}},{"base_weights":[1.2625593E-3,-3.003406E-1,1.4469343E0,-7.8322804E-1,1.1203828E-1,8.182562E-1,1.7865536E0,-9.636201E-1,-1.7320772E-1,1.1046046E0,-2.0354638E-1,6.2434494E-1,1.8930023E0,1.7810457E0,3.5964267E0,-6.323503E-1,-1.2551559E0,-5.1469463E-1,2.3928624E-1,1.0935985E0,2.9729967E1,-2.9961434E-1,8.1830674E-1,1.3435775E0,4.6509916E-1,1.3132073E0,2.338756E0,1.9927521E0,1.1800538E0,-5.84674E-2,-1.318186E-2,-7.570991E-2,-5.6500573E-2,-5.0335374E-2,-1.658853E-2,4.6348507E-3,5.318414E-2,3.753648E-2,7.952083E-2,1.1125968E-1,2.7740018E0,-2.5256692E-2,5.4477435E-3,-2.9793069E-2,5.281618E-2,9.166605E-2,5.320349E-2,2.823556E-2,-2.9566422E-2,5.685356E-2,1.2890261E-1,1.2722139E-1,6.0228515E-2,9.926196E-2,1.0513026E0,4.111504E-2,1.0423475E-1],"categories":[],"categories_nodes":[],"categories_segments":[],"categories_sizes":[],"default_left":[0,0,0,0,0,0,0,0,0,0,0,0,0,0,0,0,0,0,0,0,0,0,0,0,0,0,0,0,0,0,0,0,0,0,0,0,0,0,0,0,0,0,0,0,0,0,0,0,0,0,0,0,0,0,0,0,0],"id":4,"left_children":[1,3,5,7,9,11,13,15,17,19,21,23,25,27,-1,29,31,33,35,37,39,41,43,45,47,49,51,53,55,-1,-1,-1,-1,-1,-1,-1,-1,-1,-1,-1,-1,-1,-1,-1,-1,-1,-1,-1,-1,-1,-1,-1,-1,-1,-1,-1,-1],"loss_changes":[3.4816928E5,1.3156366E5,2.9427562E4,3.3488516E4,1.1162574E5,1.0074133E4,3.443847E4,2.2682062E4,9.7838125E3,2.7049531E4,2.654366E4,4.6903096E3,1.9062188E3,1.138275E4,0E0,2.1768441E4,4.0478281E3,3.4194795E3,3.8014116E3,1.4637555E4,2.3243021E4,2.0753436E4,7.8218135E3,1.0140088E3,3.5293164E3,7.12728E2,9.706953E2,9.41825E3,7.542967E3,0E0,0E0,0E0,0E0,0E0,0E0,0E0,0E0,0E0,0E0,0E0,0E0,0E0,0E0,0E0,0E0,0E0,0E0,0E0,0E0,0E0,0E0,0E0,0E0,0E0,0E0,0E0,0E0],"parents":[2147483647,0,0,1,1,2,2,3,3,4,4,5,5,6,6,7,7,8,8,9,9,10,10,11,11,12,12,13,13,15,15,16,16,17,17,18,18,19,19,20,20,21,21,22,22,23,23,24,24,25,25,26,26,27,27,28,28],"right_children":[2,4,6,8,10,12,14,16,18,20,22,24,26,28,-1,30,32,34,36,38,40,42,44,46,48,50,52,54,56,-1,-1,-1,-1,-1,-1,-1,-1,-1,-1,-1,-1,-1,-1,-1,-1,-1,-1,-1,-1,-1,-1,-1,-1,-1,-1,-1,-1],"split_conditions":[1E0,2.3153847E1,2.9166667E0,7.4626864E-3,1E0,1E0,4.32E1,1E0,3.5426357E0,2.36E1,3.9727272E1,1.8571428E1,2.4497354E0,5.5E0,3.5964267E0,1.76E1,1.826087E1,4.6E0,8.55E0,2.8E1,5E0,4E-2,1E0,1.675E1,1.4375E1,7.7596154E0,1.4722773E1,1.68E1,1E0,-5.84674E-2,-1.318186E-2,-7.570991E-2,-5.6500573E-2,-5.0335374E-2,-1.658853E-2,4.6348507E-3,5.318414E-2,3.753648E-2,7.952083E-2,1.1125968E-1,2.7740018E0,-2.5256692E-2,5.4477435E-3,-2.9793069E-2,5.281618E-2,9.166605E-2,5.320349E-2,2.823556E-2,-2.9566422E-2,5.685356E-2,1.2890261E-1,1.2722139E-1,6.0228515E-2,9.926196E-2,1.0513026E0,4.111504E-2,1.0423475E-1],"split_indices":[16,17,52,16,6,4,99,6,52,97,17,17,52,94,0,17,17,99,100,17,5,16,4,17,49,67,43,97,4,0,0,0,0,0,0,0,0,0,0,0,0,0,0,0,0,0,0,0,0,0,0,0,0,0,0,0,0],"split_type":[0,0,0,0,0,0,0,0,0,0,0,0,0,0,0,0,0,0,0,0,0,0,0,0,0,0,0,0,0,0,0,0,0,0,0,0,0,0,0,0,0,0,0,0,0,0,0,0,0,0,0,0,0,0,0,0,0],"sum_hessian":[7.98516E5,6.60682E5,1.37834E5,3.04324E5,3.56358E5,4.8345E4,8.9489E4,2.34869E5,6.9455E4,8.5969E4,2.70389E5,4.0957E4,7.388E3,8.9483E4,6E0,1.09944E5,1.24925E5,3.7998E4,3.1457E4,8.5937E4,3.2E1,2.47154E5,2.3235E4,7.423E3,3.3534E4,3.213E3,4.175E3,6.6171E4,2.3312E4,4.4757E4,6.5187E4,4.0689E4,8.4236E4,1.0297E4,2.7701E4,2.6709E4,4.748E3,5.0848E4,3.5089E4,1.6E1,1.6E1,1.64438E5,8.2716E4,3.347E3,1.9888E4,2.695E3,4.728E3,3.0645E4,2.889E3,2.822E3,3.91E2,3.533E3,6.42E2,6.6146E4,2.5E1,1.6707E4,6.605E3],"tree_param":{"num_deleted":"0","num_feature":"101","num_nodes":"57","size_leaf_vector":"1"}},{"base_weights":[1.0399598E-3,-2.852342E-1,1.3709714E0,-7.44952E-1,1.0748105E-1,8.8229686E-1,1.7827612E0,-4.1575402E-1,-1.0488925E0,1.0587034E0,-1.9465534E-1,1.6847872E0,7.45513E-1,1.77648E0,3.4315255E0,-7.895232E-1,1.0161367E-1,-1.1741276E0,-3.7387455E-1,1.0458187E0,2.1871548E1,-5.5603904E-1,5.6182697E-2,1.8262036E0,-2.7987247E-2,6.2270004E-1,1.744074E0,1.7711447E0,2.2675613E1,-7.2352044E-2,-3.1824872E-2,-1.45320315E-2,1.545878E-2,-7.132173E-2,-5.2702952E-2,-2.1688174E-2,6.6273026E-2,3.205945E-2,7.156954E-2,1.3496482E-1,2.66829E0,-3.211012E-2,2.726881E-2,-2.3177096E-3,5.019815E-2,1.1175287E-1,7.242173E-2,-1.1692681E-1,7.848685E-2,6.356392E-2,2.4311299E-2,6.1221994E-2,1.0593124E-1,1.12157464E-1,7.736978E-2,3.448085E0,6.0594466E-2],"categories":[],"categories_nodes":[],"categories_segments":[],"categories_sizes":[],"default_left":[0,0,0,0,0,0,0,0,0,0,0,0,0,0,0,0,0,0,0,0,0,0,0,0,0,0,0,0,0,0,0,0,0,0,0,0,0,0,0,0,0,0,0,0,0,0,0,0,0,0,0,0,0,0,0,0,0],"id":5,"left_children":[1,3,5,7,9,11,13,15,17,19,21,23,25,27,-1,29,31,33,35,37,39,41,43,45,47,49,51,53,55,-1,-1,-1,-1,-1,-1,-1,-1,-1,-1,-1,-1,-1,-1,-1,-1,-1,-1,-1,-1,-1,-1,-1,-1,-1,-1,-1,-1],"loss_changes":[3.1274125E5,1.1908531E5,2.7735656E4,3.0404906E4,1.022367E5,6.9179297E3,3.1279781E4,2.8210236E4,1.335625E4,2.297114E4,2.4473262E4,2.2235176E3,6.603744E3,8.297297E3,0E0,8.520641E3,4.9818394E3,4.0357031E3,2.5170874E3,1.3369422E4,3.1852576E4,1.0497906E4,1.5487525E4,1.3059941E3,2.5915737E3,4.2445215E3,1.1449961E3,7.8936094E3,1.8785371E4,0E0,0E0,0E0,0E0,0E0,0E0,0E0,0E0,0E0,0E0,0E0,0E0,0E0,0E0,0E0,0E0,0E0,0E0,0E0,0E0,0E0,0E0,0E0,0E0,0E0,0E0,0E0,0E0],"parents":[2147483647,0,0,1,1,2,2,3,3,4,4,5,5,6,6,7,7,8,8,9,9,10,10,11,11,12,12,13,13,15,15,16,16,17,17,18,18,19,19,20,20,21,21,22,22,23,23,24,24,25,25,26,26,27,27,28,28],"right_children":[2,4,6,8,10,12,14,16,18,20,22,24,26,28,-1,30,32,34,36,38,40,42,44,46,48,50,52,54,56,-1,-1,-1,-1,-1,-1,-1,-1,-1,-1,-1,-1,-1,-1,-1,-1,-1,-1,-1,-1,-1,-1,-1,-1,-1,-1,-1,-1],"split_conditions":[1E0,2.3153847E1,3.2E0,1E0,1E0,1E0,4.28E1,1.909756E1,1.1111111E-1,4.2E1,5.2E0,1.25E1,1E0,4.2E1,3.4315255E0,1.5294118E1,6.2E0,1.8421053E1,6.6906476E-1,3.2E1,5E0,2.6666667E0,3.9727272E1,3.1666667E0,4.12E1,1.8082474E1,5.75E0,3.3333333E0,6E0,-7.2352044E-2,-3.1824872E-2,-1.45320315E-2,1.545878E-2,-7.132173E-2,-5.2702952E-2,-2.1688174E-2,6.6273026E-2,3.205945E-2,7.156954E-2,1.3496482E-1,2.66829E0,-3.211012E-2,2.726881E-2,-2.3177096E-3,5.019815E-2,1.1175287E-1,7.242173E-2,-1.1692681E-1,7.848685E-2,6.356392E-2,2.4311299E-2,6.1221994E-2,1.0593124E-1,1.12157464E-1,7.736978E-2,3.448085E0,6.0594466E-2],"split_indices":[16,17,50,6,6,6,99,17,16,99,99,34,4,99,0,17,99,17,20,8,5,62,17,49,68,17,99,49,5,0,0,0,0,0,0,0,0,0,0,0,0,0,0,0,0,0,0,0,0,0,0,0,0,0,0,0,0],"split_type":[0,0,0,0,0,0,0,0,0,0,0,0,0,0,0,0,0,0,0,0,0,0,0,0,0,0,0,0,0,0,0,0,0,0,0,0,0,0,0,0,0,0,0,0,0,0,0,0,0,0,0,0,0,0,0,0,0],"sum_hessian":[7.97449E5,6.59611E5,1.37838E5,3.03882E5,3.55729E5,6.3036E4,7.4802E4,1.45881E5,1.58001E5,8.5752E4,2.69977E5,9.178E3,5.3858E4,7.4796E4,6E0,8.4694E4,6.1187E4,1.33274E5,2.4727E4,8.57E4,5.2E1,1.10614E5,1.59363E5,8.478E3,7E2,4.7961E4,5.897E3,7.4778E4,1.8E1,1.5988E4,6.8706E4,2.1173E4,4.0014E4,4.2969E4,9.0305E4,2.3886E4,8.41E2,4.1818E4,4.3882E4,3.3E1,1.9E1,1.02589E5,8.025E3,1.43806E5,1.5557E4,4.069E3,4.409E3,2.86E2,4.14E2,8.336E3,3.9625E4,2.472E3,3.425E3,2.4045E4,5.0733E4,5E0,1.3E1],"tree_param":{"num_deleted":"0","num_feature":"101","num_nodes":"57","size_leaf_vector":"1"}},{"base_weights":[-1.0272316E-3,-2.7275178E-1,1.3011413E0,-7.100587E-1,1.01707704E-1,1.2938025E0,2.6536942E1,-8.7471735E-1,-1.5230487E-1,-2.9280448E-1,7.223175E-1,7.260898E-1,1.6001096E0,1.6914301E0,3.6275327E0,-6.412718E-1,-1.1491348E0,-4.716915E-1,2.3342676E-1,-5.1904637E-1,1.750505E-1,7.148875E-1,2.8452202E1,5.460879E-1,1.7243848E0,1.7963831E0,1.0466114E0,1.4151882E-1,6.1323762E-2,-5.5094313E-2,-1.9670175E-2,-6.798339E-2,-5.0325394E-2,-4.8969384E-2,-1.54395E-2,4.584111E-3,5.136315E-2,-1.2145564E-2,-3.4713313E-2,3.512698E-2,-3.1668388E-3,5.7637222E-2,1.3579651E-2,1.0003608E-1,2.541546E0,6.048006E-2,2.001296E-2,5.6991067E-2,1.0735726E-1,8.434024E-2,1.3928643E-1,3.560279E-2,9.531539E-2],"categories":[],"categories_nodes":[],"categories_segments":[],"categories_sizes":[],"default_left":[0,0,0,0,0,0,0,0,0,0,0,0,0,0,0,0,0,0,0,0,0,0,0,0,0,0,0,0,0,0,0,0,0,0,0,0,0,0,0,0,0,0,0,0,0,0,0,0,0,0,0,0,0],"id":6,"left_children":[1,3,5,7,9,11,13,15,17,19,21,23,25,27,-1,29,31,33,35,37,39,41,43,45,47,49,51,-1,-1,-1,-1,-1,-1,-1,-1,-1,-1,-1,-1,-1,-1,-1,-1,-1,-1,-1,-1,-1,-1,-1,-1,-1,-1],"loss_changes":[2.823745E5,1.08121805E5,2.5479281E4,2.7971719E4,8.708796E4,2.3950844E4,4.5599223E4,1.5063391E4,8.552875E3,2.3017916E4,2.8457984E4,8.673424E3,9.71725E3,1.0421013E1,0E0,1.4506648E4,3.2440938E3,3.1405205E3,3.5381602E3,7.091867E3,8.913285E3,2.6824102E4,2.1795176E4,3.9569072E3,1.8195625E3,7.1548594E3,6.735217E3,0E0,0E0,0E0,0E0,0E0,0E0,0E0,0E0,0E0,0E0,0E0,0E0,0E0,0E0,0E0,0E0,0E0,0E0,0E0,0E0,0E0,0E0,0E0,0E0,0E0,0E0],"parents":[2147483647,0,0,1,1,2,2,3,3,4,4,5,5,6,6,7,7,8,8,9,9,10,10,11,11,12,12,13,13,15,15,16,16,17,17,18,18,19,19,20,20,21,21,22,22,23,23,24,24,25,25,26,26],"right_children":[2,4,6,8,10,12,14,16,18,20,22,24,26,28,-1,30,32,34,36,38,40,42,44,46,48,50,52,-1,-1,-1,-1,-1,-1,-1,-1,-1,-1,-1,-1,-1,-1,-1,-1,-1,-1,-1,-1,-1,-1,-1,-1,-1,-1],"split_conditions":[1E0,2.3153847E1,1.68E1,7.4626864E-3,3.1818182E0,2.9166667E0,3.0051723E1,4.35E0,3.5426357E0,7E0,1.74E1,1E0,5.5E0,5E0,3.6275327E0,1.76E1,2.6666667E0,4.25E0,8.55E0,5.5E0,3.6E0,4.15E0,5E0,1.8571428E1,2.4402986E0,1E0,1E0,1.4151882E-1,6.1323762E-2,-5.5094313E-2,-1.9670175E-2,-6.798339E-2,-5.0325394E-2,-4.8969384E-2,-1.54395E-2,4.584111E-3,5.136315E-2,-1.2145564E-2,-3.4713313E-2,3.512698E-2,-3.1668388E-3,5.7637222E-2,1.3579651E-2,1.0003608E-1,2.541546E0,6.048006E-2,2.001296E-2,5.6991067E-2,1.0735726E-1,8.434024E-2,1.3928643E-1,3.560279E-2,9.531539E-2],"split_indices":[16,17,97,16,52,52,17,94,52,99,97,4,94,5,0,17,52,99,100,93,93,94,5,17,52,4,4,0,0,0,0,0,0,0,0,0,0,0,0,0,0,0,0,0,0,0,0,0,0,0,0,0,0],"split_type":[0,0,0,0,0,0,0,0,0,0,0,0,0,0,0,0,0,0,0,0,0,0,0,0,0,0,0,0,0,0,0,0,0,0,0,0,0,0,0,0,0,0,0,0,0,0,0,0,0,0,0,0,0],"sum_hessian":[7.98047E5,6.60269E5,1.37778E5,3.04575E5,3.55694E5,1.37739E5,3.9E1,2.35153E5,6.9422E4,2.17459E5,1.38235E5,4.8273E4,8.9466E4,2.6E1,1.3E1,1.27064E5,1.08089E5,3.7977E4,3.1445E4,1.46578E5,7.0881E4,1.38199E5,3.6E1,4.09E4,7.373E3,6.6044E4,2.3422E4,6E0,2E1,4.4453E4,8.2611E4,4.3649E4,6.444E4,9.224E3,2.8753E4,2.6682E4,4.763E3,5.6904E4,8.9674E4,2.2062E4,4.8819E4,6.9525E4,6.8674E4,1.7E1,1.9E1,7.368E3,3.3532E4,3.096E3,4.277E3,5.9461E4,6.583E3,1.6862E4,6.56E3],"tree_param":{"num_deleted":"0","num_feature":"101","num_nodes":"53","size_leaf_vector":"1"}},{"base_weights":[7.055517E-4,-2.5774595E-1,1.2377179E0,-6.510763E-1,1.18919335E-1,6.4713925E-1,1.5134544E0,-8.254886E-1,-1.1616273E-1,1.0182953E0,-1.5904592E-1,4.8823082E-1,1.5415527E0,1.5065423E0,2.5500834E1,-5.344468E-1,-1.0744386E0,-3.918619E-1,3.2122344E-1,1.0068125E0,2.8657537E1,-3.779326E-1,2.4154589E-1,1.1538082E0,3.4292942E-1,1.0850157E0,1.9730418E0,1.6569471E0,8.321424E-1,1.0237136E0,3.3499782E0,-4.0725093E-2,2.6730652E-4,-6.1094772E-2,-4.4237893E-2,-3.6659122E-3,-2.9828904E-2,1.3880501E-2,1.8942367E-1,4.1179296E-2,8.8431574E-2,9.4132E-2,2.414103E0,-2.6907204E-2,3.1009405E-3,4.5669717E-3,6.762563E-2,7.990631E-2,4.4101283E-2,3.0524448E-2,1.6267172E-3,6.4897425E-2,1.3580858E-2,1.3093056E-1,7.496569E-2,7.675786E-2,1.3010757E-1,2.443049E-2,8.046239E-2,5.9480906E-2,2.8938761E-2],"categories":[],"categories_nodes":[],"categories_segments":[],"categories_sizes":[],"default_left":[0,0,0,0,0,0,0,0,0,0,0,0,0,0,0,0,0,0,0,0,0,0,0,0,0,0,0,0,0,0,0,0,0,0,0,0,0,0,0,0,0,0,0,0,0,0,0,0,0,0,0,0,0,0,0,0,0,0,0,0,0],"id":7,"left_children":[1,3,5,7,9,11,13,15,17,19,21,23,25,27,29,31,33,35,37,39,41,43,45,47,49,51,53,55,57,59,-1,-1,-1,-1,-1,-1,-1,-1,-1,-1,-1,-1,-1,-1,-1,-1,-1,-1,-1,-1,-1,-1,-1,-1,-1,-1,-1,-1,-1,-1,-1],"loss_changes":[2.5497083E5,9.773474E4,2.2443453E4,3.0106547E4,8.424391E4,6.234424E3,1.5537547E4,1.7631516E4,9.568592E3,2.521886E4,2.257195E4,3.6022646E3,1.3012373E3,9.526266E3,2.7350383E4,1.6960799E4,3.66725E3,3.1737754E3,4.6377783E3,1.1099234E4,1.7243756E4,1.173341E4,1.5178289E4,8.0440234E2,2.5395588E3,5.568457E2,1.0357715E3,8.836891E3,4.5723135E3,4.633522E-1,0E0,0E0,0E0,0E0,0E0,0E0,0E0,0E0,0E0,0E0,0E0,0E0,0E0,0E0,0E0,0E0,0E0,0E0,0E0,0E0,0E0,0E0,0E0,0E0,0E0,0E0,0E0,0E0,0E0,0E0,0E0],"parents":[2147483647,0,0,1,1,2,2,3,3,4,4,5,5,6,6,7,7,8,8,9,9,10,10,11,11,12,12,13,13,14,14,15,15,16,16,17,17,18,18,19,19,20,20,21,21,22,22,23,23,24,24,25,25,26,26,27,27,28,28,29,29],"right_children":[2,4,6,8,10,12,14,16,18,20,22,24,26,28,30,32,34,36,38,40,42,44,46,48,50,52,54,56,58,60,-1,-1,-1,-1,-1,-1,-1,-1,-1,-1,-1,-1,-1,-1,-1,-1,-1,-1,-1,-1,-1,-1,-1,-1,-1,-1,-1,-1,-1,-1,-1],"split_conditions":[1E0,2.4E1,2.8243244E0,7.4626864E-3,1E0,1E0,1.68E1,1E0,3.6860466E0,2.36E1,2.9583333E0,1.8571428E1,2.4497354E0,6.8E0,1.42E2,1.975E1,2.0135593E1,4.3E0,1E0,3.0707693E1,8.8E1,6.8E0,2.8E0,1.7E1,1.3357142E1,7.65E0,4.25E0,1E0,1E0,4.1E0,3.3499782E0,-4.0725093E-2,2.6730652E-4,-6.1094772E-2,-4.4237893E-2,-3.6659122E-3,-2.9828904E-2,1.3880501E-2,1.8942367E-1,4.1179296E-2,8.8431574E-2,9.4132E-2,2.414103E0,-2.6907204E-2,3.1009405E-3,4.5669717E-3,6.762563E-2,7.990631E-2,4.4101283E-2,3.0524448E-2,1.6267172E-3,6.4897425E-2,1.3580858E-2,1.3093056E-1,7.496569E-2,7.675786E-2,1.3010757E-1,2.443049E-2,8.046239E-2,5.9480906E-2,2.8938761E-2],"split_indices":[16,17,52,16,6,4,97,6,52,97,52,17,52,94,8,17,17,94,4,17,7,100,62,17,43,94,94,4,4,36,0,0,0,0,0,0,0,0,0,0,0,0,0,0,0,0,0,0,0,0,0,0,0,0,0,0,0,0,0,0,0],"split_type":[0,0,0,0,0,0,0,0,0,0,0,0,0,0,0,0,0,0,0,0,0,0,0,0,0,0,0,0,0,0,0,0,0,0,0,0,0,0,0,0,0,0,0,0,0,0,0,0,0,0,0,0,0,0,0,0,0,0,0,0,0],"sum_hessian":[7.9751E5,6.59682E5,1.37828E5,3.22702E5,3.3698E5,4.387E4,9.3958E4,2.43354E5,7.9348E4,7.9559E4,2.57421E5,3.7253E4,6.617E3,9.3932E4,2.6E1,1.12194E5,1.3116E5,4.867E4,3.0678E4,7.9527E4,3.2E1,1.66464E5,9.0957E4,6.674E3,3.0579E4,3.217E3,3.4E3,7.6802E4,1.713E4,1.7E1,9E0,7.3869E4,3.8325E4,7.379E4,5.737E4,1.9042E4,2.9628E4,3.0298E4,3.8E2,6.411E4,1.5417E4,1.4E1,1.8E1,1.22027E5,4.4437E4,8.0125E4,1.0832E4,2.531E3,4.143E3,1.6422E4,1.4157E4,2.549E3,6.68E2,1.437E3,1.963E3,6.8038E4,8.764E3,1.188E4,5.25E3,1.1E1,6E0],"tree_param":{"num_deleted":"0","num_feature":"101","num_nodes":"61","size_leaf_vector":"1"}},{"base_weights":[5.9462746E-4,-3.26366E-1,8.9195275E-1,-5.997315E-1,1.9660774E-1,3.7036747E-1,1.1816401E0,-8.8550967E-1,-2.9901496E-1,1.3029923E0,-8.868317E-2,2.5209758E-1,2.0361812E0,6.6025555E-1,1.463357E0,-1.0218911E0,-5.9519196E-1,-7.423575E-1,2.9429914E-2,1.2776699E0,2.3220189E0,-2.1035169E-1,6.968311E-1,6.590715E-1,-9.4919965E-2,2.5973036E0,5.641135E-1,8.591118E-1,2.6503026E-1,1.4548558E0,2.8531258E1,-6.261875E-2,-4.5212146E-2,-4.583548E-2,-1.6550422E-2,-5.754594E-2,-2.7665395E-2,-1.7572587E-2,1.4449141E-2,6.347867E-2,2.821922E0,-2.0308025E-2,1.1137827E-2,4.4322077E-2,-4.421863E-2,8.817445E-3,4.464534E-2,3.0335227E-3,-2.1479402E-2,8.64596E-2,1.7851491E-1,-1.3634267E-2,1.6232535E-1,2.8897246E-2,5.891229E-2,1.7115727E-2,-3.1694535E-2,9.4837576E-2,6.1043467E-2,4.8092794E-2,3.2600987E0],"categories":[],"categories_nodes":[],"categories_segments":[],"categories_sizes":[],"default_left":[0,0,0,0,0,0,0,0,0,0,0,0,0,0,0,0,0,0,0,0,0,0,0,0,0,0,0,0,0,0,0,0,0,0,0,0,0,0,0,0,0,0,0,0,0,0,0,0,0,0,0,0,0,0,0,0,0,0,0,0,0],"id":8,"left_children":[1,3,5,7,9,11,13,15,17,19,21,23,25,27,29,31,33,35,37,39,-1,41,43,45,47,49,51,53,55,57,59,-1,-1,-1,-1,-1,-1,-1,-1,-1,-1,-1,-1,-1,-1,-1,-1,-1,-1,-1,-1,-1,-1,-1,-1,-1,-1,-1,-1,-1,-1],"loss_changes":[2.325069E5,8.344563E4,3.2349656E4,3.294147E4,6.324437E4,1.5061692E4,2.021739E4,7.7810625E3,2.7197795E4,4.6884188E4,1.5224105E4,1.0081757E4,4.1844375E3,3.7947578E3,2.0518828E4,3.6246406E3,5.3355664E3,6.1386367E3,1.0607065E4,1.8257055E4,0E0,1.1697457E4,6.4059814E3,3.708329E3,2.0064683E3,3.0923828E3,3.143656E3,2.881627E3,1.1232103E3,9.234609E3,2.8238377E4,0E0,0E0,0E0,0E0,0E0,0E0,0E0,0E0,0E0,0E0,0E0,0E0,0E0,0E0,0E0,0E0,0E0,0E0,0E0,0E0,0E0,0E0,0E0,0E0,0E0,0E0,0E0,0E0,0E0,0E0],"parents":[2147483647,0,0,1,1,2,2,3,3,4,4,5,5,6,6,7,7,8,8,9,9,10,10,11,11,12,12,13,13,14,14,15,15,16,16,17,17,18,18,19,19,21,21,22,22,23,23,24,24,25,25,26,26,27,27,28,28,29,29,30,30],"right_children":[2,4,6,8,10,12,14,16,18,20,22,24,26,28,30,32,34,36,38,40,-1,42,44,46,48,50,52,54,56,58,60,-1,-1,-1,-1,-1,-1,-1,-1,-1,-1,-1,-1,-1,-1,-1,-1,-1,-1,-1,-1,-1,-1,-1,-1,-1,-1,-1,-1,-1,-1],"split_conditions":[4.2857143E-1,2.6947369E1,1E0,3.1666667E0,1E0,2.6666667E0,2.9166667E0,7E0,1.909756E1,8.6E0,3.9727272E1,4.2E0,1.5575758E1,6.1E0,1.68E1,1.9865168E1,2.0135593E1,1.6105263E1,6.2E0,2.0166666E1,2.3220189E0,6.55E0,1.1943182E1,6E0,5.263158E-1,4.15E0,2.7E0,2.4705882E0,1.5733334E1,3.3516483E0,1.42E2,-6.261875E-2,-4.5212146E-2,-4.583548E-2,-1.6550422E-2,-5.754594E-2,-2.7665395E-2,-1.7572587E-2,1.4449141E-2,6.347867E-2,2.821922E0,-2.0308025E-2,1.1137827E-2,4.4322077E-2,-4.421863E-2,8.817445E-3,4.464534E-2,3.0335227E-3,-2.1479402E-2,8.64596E-2,1.7851491E-1,-1.3634267E-2,1.6232535E-1,2.8897246E-2,5.891229E-2,1.7115727E-2,-3.1694535E-2,9.4837576E-2,6.1043467E-2,4.8092794E-2,3.2600987E0],"split_indices":[16,17,16,52,6,62,52,99,17,97,17,94,43,94,97,17,17,17,99,36,0,100,49,99,54,51,58,52,49,49,8,0,0,0,0,0,0,0,0,0,0,0,0,0,0,0,0,0,0,0,0,0,0,0,0,0,0,0,0,0,0],"split_type":[0,0,0,0,0,0,0,0,0,0,0,0,0,0,0,0,0,0,0,0,0,0,0,0,0,0,0,0,0,0,0,0,0,0,0,0,0,0,0,0,0,0,0,0,0,0,0,0,0,0,0,0,0,0,0,0,0,0,0,0,0],"sum_hessian":[7.97787E5,5.83685E5,2.14102E5,3.83319E5,2.00366E5,7.6452E4,1.3765E5,1.9654E5,1.86779E5,4.1074E4,1.59292E5,7.1385E4,5.067E3,4.8287E4,8.9363E4,1.3372E5,6.282E4,7.9486E4,1.07293E5,4.1052E4,2.2E1,1.37929E5,2.1363E4,3.2854E4,3.8531E4,3.668E3,1.399E3,3.2123E4,1.6164E4,8.9336E4,2.7E1,4.5186E4,8.8534E4,2.8334E4,3.4486E4,2.5143E4,5.4343E4,4.3483E4,6.381E4,4.1047E4,5E0,9.4986E4,4.2943E4,1.9076E4,2.287E3,1.0722E4,2.2132E4,2.6303E4,1.2228E4,1.94E3,1.728E3,1.067E3,3.32E2,1.7079E4,1.5044E4,1.4885E4,1.279E3,3.0925E4,5.8411E4,1.6E1,1.1E1],"tree_param":{"num_deleted":"0","num_feature":"101","num_nodes":"61","size_leaf_vector":"1"}},{"base_weights":[-1.7775069E-3,-3.3264422E-1,3.7749484E-1,-5.576889E-1,2.0075656E-2,4.78841E-4,8.568929E-1,-3.249693E-1,-8.572962E-1,-1.948347E-1,5.222701E-1,3.0455098E-1,-3.297105E-1,1.281505E0,4.291362E-1,-1.09415814E-1,-5.586821E-1,-1.1000582E0,-6.990742E-1,-3.3060586E-1,2.5036654E-1,8.1631446E-1,1.7602305E-1,4.7448356E-2,5.276237E-1,-7.37275E-1,-1.319452E-1,1.2640435E0,1.9885433E1,2.804218E-1,1.0882363E0,-2.2726564E-2,1.987582E-3,-2.9785102E-2,2.035468E-2,-4.8042383E-2,-6.3484296E-2,-2.882861E-2,-4.9612533E-2,-2.0812234E-2,2.0265786E-2,5.889503E-2,4.3693087E-3,4.4205632E-2,-2.9009223E-2,2.6557138E-2,-5.7569672E-3,-4.051536E-3,2.5418153E-2,3.8505718E-2,1.4311424E-2,-6.331136E-2,-3.270825E-2,-2.908657E-2,3.591162E-3,5.3387742E-2,9.295534E-2,9.3083404E-2,2.6595063E0,3.5962486E-4,3.7400544E-2,5.0278753E-2,2.1479681E-1],"categories":[],"categories_nodes":[],"categories_segments":[],"categories_sizes":[],"default_left":[0,0,0,0,0,0,0,0,0,0,0,0,0,0,0,0,0,0,0,0,0,0,0,0,0,0,0,0,0,0,0,0,0,0,0,0,0,0,0,0,0,0,0,0,0,0,0,0,0,0,0,0,0,0,0,0,0,0,0,0,0,0,0],"id":9,"left_children":[1,3,5,7,9,11,13,15,17,19,21,23,25,27,29,31,33,35,37,39,41,43,45,47,49,51,53,55,57,59,61,-1,-1,-1,-1,-1,-1,-1,-1,-1,-1,-1,-1,-1,-1,-1,-1,-1,-1,-1,-1,-1,-1,-1,-1,-1,-1,-1,-1,-1,-1,-1,-1],"loss_changes":[1.0020465E5,3.385253E4,6.7243234E4,1.815293E4,1.79285E4,2.0909791E4,2.9747297E4,7.3821064E3,4.3709453E3,7.031896E3,5.0683643E3,6.2180293E3,8.047374E3,2.6673312E4,7.996919E3,3.9244824E3,2.5139453E3,1.0590586E3,2.4742266E3,5.6185225E3,4.109625E3,2.5494258E3,2.3641836E3,2.98283E3,3.397751E3,1.4329512E3,6.1614136E3,9.589344E3,4.611672E4,8.505094E3,3.9777402E3,0E0,0E0,0E0,0E0,0E0,0E0,0E0,0E0,0E0,0E0,0E0,0E0,0E0,0E0,0E0,0E0,0E0,0E0,0E0,0E0,0E0,0E0,0E0,0E0,0E0,0E0,0E0,0E0,0E0,0E0,0E0,0E0],"parents":[2147483647,0,0,1,1,2,2,3,3,4,4,5,5,6,6,7,7,8,8,9,9,10,10,11,11,12,12,13,13,14,14,15,15,16,16,17,17,18,18,19,19,20,20,21,21,22,22,23,23,24,24,25,25,26,26,27,27,28,28,29,29,30,30],"right_children":[2,4,6,8,10,12,14,16,18,20,22,24,26,28,30,32,34,36,38,40,42,44,46,48,50,52,54,56,58,60,62,-1,-1,-1,-1,-1,-1,-1,-1,-1,-1,-1,-1,-1,-1,-1,-1,-1,-1,-1,-1,-1,-1,-1,-1,-1,-1,-1,-1,-1,-1,-1,-1],"split_conditions":[3.1730769E0,2.6947369E1,2.4E1,2.1E0,6.8E0,1.277311E0,4.15E0,4.65E0,4.75E0,1E0,4.9E0,7E0,5.3333335E0,9E0,2.6E0,2.337143E0,4.3109372E-1,6.75E0,6.3228345E0,4.125688E1,1.7E0,1.325E1,2.5891565E1,7.8571427E-1,2.75E0,1.6E1,1.782653E1,3.0707693E1,2.7142857E1,6.6E0,1.8E1,-2.2726564E-2,1.987582E-3,-2.9785102E-2,2.035468E-2,-4.8042383E-2,-6.3484296E-2,-2.882861E-2,-4.9612533E-2,-2.0812234E-2,2.0265786E-2,5.889503E-2,4.3693087E-3,4.4205632E-2,-2.9009223E-2,2.6557138E-2,-5.7569672E-3,-4.051536E-3,2.5418153E-2,3.8505718E-2,1.4311424E-2,-6.331136E-2,-3.270825E-2,-2.908657E-2,3.591162E-3,5.3387742E-2,9.295534E-2,9.3083404E-2,2.6595063E0,3.5962486E-4,3.7400544E-2,5.0278753E-2,2.1479681E-1],"split_indices":[52,17,17,10,100,10,94,94,99,1,94,99,99,97,62,52,20,10,49,17,94,48,40,60,93,17,17,17,17,100,47,0,0,0,0,0,0,0,0,0,0,0,0,0,0,0,0,0,0,0,0,0,0,0,0,0,0,0,0,0,0,0,0],"split_type":[0,0,0,0,0,0,0,0,0,0,0,0,0,0,0,0,0,0,0,0,0,0,0,0,0,0,0,0,0,0,0,0,0,0,0,0,0,0,0,0,0,0,0,0,0,0,0,0,0,0,0,0,0,0,0,0,0,0,0,0,0,0,0],"sum_hessian":[7.98514E5,4.26472E5,3.72042E5,2.60357E5,1.66115E5,2.0826E5,1.63782E5,1.46537E5,1.1382E5,1.16332E5,4.9783E4,1.08418E5,9.9842E4,8.2192E4,8.159E4,7.6231E4,7.0306E4,4.4909E4,6.8911E4,8.9146E4,2.7186E4,2.692E4,2.2863E4,5.0368E4,5.805E4,3.2618E4,6.7224E4,8.2116E4,7.6E1,6.6571E4,1.5019E4,2.3005E4,5.3226E4,6.7711E4,2.595E3,2.467E4,2.0239E4,4.8605E4,2.0306E4,7.9854E4,9.292E3,4.062E3,2.3124E4,2.5674E4,1.246E3,1.03E4,1.2563E4,3.9389E4,1.0979E4,2.8958E4,2.9092E4,4.427E3,2.8191E4,2.0959E4,4.6265E4,6.175E4,2.0366E4,5E1,2.6E1,4.2019E4,2.4552E4,1.4643E4,3.76E2],"tree_param":{"num_deleted":"0","num_feature":"101","num_nodes":"63","size_leaf_vector":"1"}},{"base_weights":[7.3371595E-4,-3.0234006E-1,8.436241E-1,-5.653528E-1,1.4422853E-1,5.092355E-1,1.3058527E0,-2.4998875E-1,-8.15253E-1,1.1154695E0,-1.08160764E-1,-1.3632632E-3,7.928465E-1,1.3001964E0,2.1276924E1,-6.709238E-1,1.8534818E-1,-9.400136E-1,-5.2624E-1,1.0963175E0,2.632589E1,-2.1317296E-1,6.325698E-1,4.4788873E-1,-2.2873257E-1,1.4184942E0,6.4767545E-1,1.1179966E0,1.9236274E0,2.872872E0,4.3253303E-2,-6.243796E-2,-2.6888868E-2,2.1839917E-2,-6.905451E-3,-5.71746E-2,-4.0470686E-2,-3.262662E-2,4.799781E-3,3.205221E-2,7.052013E-2,8.4263235E-2,2.0747297E0,-1.7950034E-2,9.044587E-3,4.0748384E-2,-4.208392E-2,1.7902208E-2,7.187845E-2,-1.6003972E-2,3.0558879E-2,9.137504E-2,5.468743E-2,2.6006777E-2,7.8450836E-2,7.178296E-2,2.7839864E-2,1.2021186E-1,7.015802E-2],"categories":[],"categories_nodes":[],"categories_segments":[],"categories_sizes":[],"default_left":[0,0,0,0,0,0,0,0,0,0,0,0,0,0,0,0,0,0,0,0,0,0,0,0,0,0,0,0,0,0,0,0,0,0,0,0,0,0,0,0,0,0,0,0,0,0,0,0,0,0,0,0,0,0,0,0,0,0,0],"id":10,"left_children":[1,3,5,7,9,11,13,15,17,19,21,23,25,27,29,31,33,35,37,39,41,43,45,47,49,51,53,55,57,-1,-1,-1,-1,-1,-1,-1,-1,-1,-1,-1,-1,-1,-1,-1,-1,-1,-1,-1,-1,-1,-1,-1,-1,-1,-1,-1,-1,-1,-1],"loss_changes":[2.0375258E5,6.8904766E4,3.2603031E4,2.9096727E4,5.3303914E4,1.7724709E4,9.971953E3,2.9911105E4,7.426547E3,2.16242E4,1.3425834E4,4.464785E3,7.1459727E3,1.0052453E4,1.8407254E4,6.383824E3,6.5263604E3,3.8221953E3,4.8809473E3,6.4077617E3,1.2633811E4,8.687093E3,5.7634756E3,1.3053247E3,2.2268257E3,1.9660117E3,7.5044355E3,1.221118E4,5.003578E3,0E0,0E0,0E0,0E0,0E0,0E0,0E0,0E0,0E0,0E0,0E0,0E0,0E0,0E0,0E0,0E0,0E0,0E0,0E0,0E0,0E0,0E0,0E0,0E0,0E0,0E0,0E0,0E0,0E0,0E0],"parents":[2147483647,0,0,1,1,2,2,3,3,4,4,5,5,6,6,7,7,8,8,9,9,10,10,11,11,12,12,13,13,14,14,15,15,16,16,17,17,18,18,19,19,20,20,21,21,22,22,23,23,24,24,25,25,26,26,27,27,28,28],"right_children":[2,4,6,8,10,12,14,16,18,20,22,24,26,28,30,32,34,36,38,40,42,44,46,48,50,52,54,56,58,-1,-1,-1,-1,-1,-1,-1,-1,-1,-1,-1,-1,-1,-1,-1,-1,-1,-1,-1,-1,-1,-1,-1,-1,-1,-1,-1,-1,-1,-1],"split_conditions":[4.4680852E-1,2.606383E1,3.5E0,1E0,1E0,1E0,1.68E1,1.9363636E1,1E0,8.6E0,3.9727272E1,1.215E1,1E0,1E0,6E0,1.5294118E1,3.2E0,2.0135593E1,7.4626864E-3,2.7E1,5E0,1E0,1.1943182E1,1E0,1E0,3.1666667E0,1E0,4.05E0,6.25E0,2.872872E0,4.3253303E-2,-6.243796E-2,-2.6888868E-2,2.1839917E-2,-6.905451E-3,-5.71746E-2,-4.0470686E-2,-3.262662E-2,4.799781E-3,3.205221E-2,7.052013E-2,8.4263235E-2,2.0747297E0,-1.7950034E-2,9.044587E-3,4.0748384E-2,-4.208392E-2,1.7902208E-2,7.187845E-2,-1.6003972E-2,3.0558879E-2,9.137504E-2,5.468743E-2,2.6006777E-2,7.8450836E-2,7.178296E-2,2.7839864E-2,1.2021186E-1,7.015802E-2],"split_indices":[16,17,50,6,6,16,97,17,1,97,17,92,6,4,5,17,49,17,16,8,5,1,49,4,4,49,4,94,94,0,0,0,0,0,0,0,0,0,0,0,0,0,0,0,0,0,0,0,0,0,0,0,0,0,0,0,0,0,0],"split_type":[0,0,0,0,0,0,0,0,0,0,0,0,0,0,0,0,0,0,0,0,0,0,0,0,0,0,0,0,0,0,0,0,0,0,0,0,0,0,0,0,0,0,0,0,0,0,0,0,0,0,0,0,0,0,0,0,0,0,0],"sum_hessian":[7.97595E5,5.86655E5,2.1094E5,3.69206E5,2.17449E5,1.22397E5,8.8543E4,1.63225E5,2.05981E5,4.4851E4,1.72598E5,4.3708E4,7.8689E4,8.8519E4,2.4E1,8.2985E4,8.024E4,1.43872E5,6.2109E4,4.4818E4,3.3E1,1.51168E5,2.143E4,1.4687E4,2.9021E4,1.4818E4,6.3871E4,6.8502E4,2.0017E4,8E0,1.6E1,1.5539E4,6.7446E4,4.5145E4,3.5095E4,5.624E4,8.7632E4,5.163E4,1.0479E4,1.8298E4,2.652E4,1.3E1,2E1,1.10337E5,4.0831E4,1.9071E4,2.359E3,1.3466E4,1.221E3,2.6175E4,2.846E3,6.556E3,8.262E3,5.6106E4,7.765E3,4.3741E4,2.4761E4,1.0405E4,9.612E3],"tree_param":{"num_deleted":"0","num_feature":"101","num_nodes":"59","size_leaf_vector":"1"}},{"base_weights":[1.1115612E-3,-2.1882743E-1,1.0545659E0,-5.693421E-1,7.599202E-2,1.0483176E0,2.309387E1,-7.0254177E-1,-1.1289581E-1,7.879022E-1,-1.5079723E-1,7.093791E-1,1.4116654E0,1.1490531E0,2.9061153E0,-4.5588815E-1,-9.211298E-1,-2.4299687E-1,5.327474E-1,7.801869E-1,2.0406462E1,-5.145547E-1,4.0504336E-2,5.0916857E-1,1.1344817E0,1.7865859E0,1.2145029E0,9.494068E-2,8.616724E-1,-4.3099478E-2,-8.857585E-3,-5.1086016E-2,-3.4345362E-2,-2.4048142E-2,2.6165403E-3,1.0812269E-2,5.474866E-2,5.533665E-2,1.9108048E-2,8.285039E-2,1.952628E0,-1.3557102E-2,-4.0628966E-2,-7.6459623E-3,1.9755786E-2,6.1449595E-2,2.0162007E-2,4.37872E-2,7.5209014E-2,7.936876E-2,1.1324185E-1,3.9843082E-2,6.840399E-2,4.9270805E-2,1.9601714E-2],"categories":[],"categories_nodes":[],"categories_segments":[],"categories_sizes":[],"default_left":[0,0,0,0,0,0,0,0,0,0,0,0,0,0,0,0,0,0,0,0,0,0,0,0,0,0,0,0,0,0,0,0,0,0,0,0,0,0,0,0,0,0,0,0,0,0,0,0,0,0,0,0,0,0,0],"id":11,"left_children":[1,3,5,7,9,11,13,15,17,19,21,23,25,27,-1,29,31,33,35,37,39,41,43,45,47,49,51,-1,53,-1,-1,-1,-1,-1,-1,-1,-1,-1,-1,-1,-1,-1,-1,-1,-1,-1,-1,-1,-1,-1,-1,-1,-1,-1,-1],"loss_changes":[1.8483462E5,6.81995E4,1.8947562E4,1.833071E4,5.787483E4,1.6962797E4,2.9906305E4,1.2582953E4,5.721263E3,1.3090559E4,1.891788E4,6.065047E3,4.911672E3,3.4744644E0,0E0,1.2412625E4,2.9143828E3,3.983984E3,2.0323047E3,1.1251395E4,1.1817761E4,6.796658E3,1.2220251E4,3.693871E3,2.1810996E3,2.178625E3,2.7933438E3,0E0,6.3823414E-1,0E0,0E0,0E0,0E0,0E0,0E0,0E0,0E0,0E0,0E0,0E0,0E0,0E0,0E0,0E0,0E0,0E0,0E0,0E0,0E0,0E0,0E0,0E0,0E0,0E0,0E0],"parents":[2147483647,0,0,1,1,2,2,3,3,4,4,5,5,6,6,7,7,8,8,9,9,10,10,11,11,12,12,13,13,15,15,16,16,17,17,18,18,19,19,20,20,21,21,22,22,23,23,24,24,25,25,26,26,28,28],"right_children":[2,4,6,8,10,12,14,16,18,20,22,24,26,28,-1,30,32,34,36,38,40,42,44,46,48,50,52,-1,54,-1,-1,-1,-1,-1,-1,-1,-1,-1,-1,-1,-1,-1,-1,-1,-1,-1,-1,-1,-1,-1,-1,-1,-1,-1,-1],"split_conditions":[1E0,2.3054054E1,1.68E1,7.4626864E-3,1E0,3.4E0,6.51E2,1E0,8.15E0,2.36E1,4.6666665E0,7.1181817E0,3E0,5E0,2.9061153E0,1.76E1,1E0,2.8333333E0,4E0,3.1111112E0,5E0,2.3E1,2.9583333E0,1.76E1,3.2E0,2.6814816E1,2.5E0,9.494068E-2,2.857143E0,-4.3099478E-2,-8.857585E-3,-5.1086016E-2,-3.4345362E-2,-2.4048142E-2,2.6165403E-3,1.0812269E-2,5.474866E-2,5.533665E-2,1.9108048E-2,8.285039E-2,1.952628E0,-1.3557102E-2,-4.0628966E-2,-7.6459623E-3,1.9755786E-2,6.1449595E-2,2.0162007E-2,4.37872E-2,7.5209014E-2,7.936876E-2,1.1324185E-1,3.9843082E-2,6.840399E-2,4.9270805E-2,1.9601714E-2],"split_indices":[16,17,97,16,6,50,21,6,100,97,99,67,48,5,0,17,1,86,50,49,5,9,52,17,97,17,97,0,27,0,0,0,0,0,0,0,0,0,0,0,0,0,0,0,0,0,0,0,0,0,0,0,0,0,0],"split_type":[0,0,0,0,0,0,0,0,0,0,0,0,0,0,0,0,0,0,0,0,0,0,0,0,0,0,0,0,0,0,0,0,0,0,0,0,0,0,0,0,0,0,0,0,0,0,0,0,0,0,0,0,0,0,0],"sum_hessian":[7.97745E5,6.5996E5,1.37785E5,3.01501E5,3.58459E5,1.37747E5,3.8E1,2.33392E5,6.8109E4,8.6603E4,2.71856E5,7.1269E4,6.6478E4,2.4E1,1.4E1,1.09658E5,1.23734E5,5.6687E4,1.1422E4,8.657E4,3.3E1,9.3695E4,1.78161E5,4.8452E4,2.2817E4,2.2908E4,4.357E4,5E0,1.9E1,4.4631E4,6.5027E4,8.6557E4,3.7177E4,3.1392E4,2.5295E4,7.309E3,4.113E3,4.7554E4,3.9016E4,1.7E1,1.6E1,5.1574E4,4.2121E4,1.15281E5,6.288E4,6.214E3,4.2238E4,1.3425E4,9.392E3,1.6175E4,6.733E3,1.1716E4,3.1854E4,1.4E1,5E0],"tree_param":{"num_deleted":"0","num_feature":"101","num_nodes":"55","size_leaf_vector":"1"}},{"base_weights":[-7.649718E-4,-2.1019109E-1,1.0019326E0,-5.2341413E-1,8.9740515E-2,9.9639183E-1,2.1617863E1,-6.650787E-1,-8.818152E-2,7.992664E-1,-1.2937756E-1,1.4546984E0,7.638921E-1,1.118382E0,2.7604277E0,-4.326426E-1,-8.6344427E-1,1.01339236E-1,-4.7848916E-1,4.305092E-1,1.1341226E0,-4.018706E-1,1.1048055E-1,1.2838724E0,1.9647095E0,4.9766678E-1,1.6838889E0,5.2182424E-1,1.2391666E-1,-4.095917E-2,-8.814371E-3,-5.4071784E-2,-3.8399305E-2,-1.1995227E-2,1.5340112E-2,-2.7551858E-2,2.3044825E-2,-4.2483807E-3,3.226724E-2,5.5974495E-2,6.904497E-1,-2.8648132E-2,-3.336585E-3,-6.106034E-3,2.2384686E-2,8.236281E-2,5.5188514E-2,8.867234E-2,1.6891855E-1,1.5857836E-2,4.6822987E-2,1.1585313E-1,7.278612E-2,4.6400394E-2,-2.1427222E-2],"categories":[],"categories_nodes":[],"categories_segments":[],"categories_sizes":[],"default_left":[0,0,0,0,0,0,0,0,0,0,0,0,0,0,0,0,0,0,0,0,0,0,0,0,0,0,0,0,0,0,0,0,0,0,0,0,0,0,0,0,0,0,0,0,0,0,0,0,0,0,0,0,0,0,0],"id":12,"left_children":[1,3,5,7,9,11,13,15,17,19,21,23,25,27,-1,29,31,33,35,37,39,41,43,45,47,49,51,53,-1,-1,-1,-1,-1,-1,-1,-1,-1,-1,-1,-1,-1,-1,-1,-1,-1,-1,-1,-1,-1,-1,-1,-1,-1,-1,-1],"loss_changes":[1.6760764E5,6.2028734E4,1.5728641E4,1.991354E4,5.243832E4,1.4689344E4,2.5410518E4,1.1234195E4,5.8669053E3,9.826559E3,1.684352E4,4.039664E3,2.2402113E4,1.7877676E1,0E0,1.1117746E4,2.7346719E3,3.7433416E3,1.7669976E3,4.194713E3,7.7187227E3,6.917635E3,1.0750552E4,2.2728828E3,3.1407266E3,5.6186484E3,2.961914E3,7.3960752E0,0E0,0E0,0E0,0E0,0E0,0E0,0E0,0E0,0E0,0E0,0E0,0E0,0E0,0E0,0E0,0E0,0E0,0E0,0E0,0E0,0E0,0E0,0E0,0E0,0E0,0E0,0E0],"parents":[2147483647,0,0,1,1,2,2,3,3,4,4,5,5,6,6,7,7,8,8,9,9,10,10,11,11,12,12,13,13,15,15,16,16,17,17,18,18,19,19,20,20,21,21,22,22,23,23,24,24,25,25,26,26,27,27],"right_children":[2,4,6,8,10,12,14,16,18,20,22,24,26,28,-1,30,32,34,36,38,40,42,44,46,48,50,52,54,-1,-1,-1,-1,-1,-1,-1,-1,-1,-1,-1,-1,-1,-1,-1,-1,-1,-1,-1,-1,-1,-1,-1,-1,-1,-1,-1],"split_conditions":[1E0,2.4E1,4.2E1,7.4626864E-3,1E0,1E0,3.0051723E1,1E0,4.2735043E-1,3.2E1,5.6E0,1E0,1E0,1.42E2,2.7604277E0,1.76E1,1.8082474E1,6E0,1E0,5.75E0,4.2E1,4E-2,2.85E0,2.5E0,3E1,1E0,5.2E0,2.857143E0,1.2391666E-1,-4.095917E-2,-8.814371E-3,-5.4071784E-2,-3.8399305E-2,-1.1995227E-2,1.5340112E-2,-2.7551858E-2,2.3044825E-2,-4.2483807E-3,3.226724E-2,5.5974495E-2,6.904497E-1,-2.8648132E-2,-3.336585E-3,-6.106034E-3,2.2384686E-2,8.236281E-2,5.5188514E-2,8.867234E-2,1.6891855E-1,1.5857836E-2,4.6822987E-2,1.1585313E-1,7.278612E-2,4.6400394E-2,-2.1427222E-2],"split_indices":[16,17,99,16,6,6,17,6,55,8,99,1,4,8,0,17,17,99,4,99,99,16,51,48,17,1,47,27,0,0,0,0,0,0,0,0,0,0,0,0,0,0,0,0,0,0,0,0,0,0,0,0,0,0,0],"split_type":[0,0,0,0,0,0,0,0,0,0,0,0,0,0,0,0,0,0,0,0,0,0,0,0,0,0,0,0,0,0,0,0,0,0,0,0,0,0,0,0,0,0,0,0,0,0,0,0,0,0,0,0,0,0,0],"sum_hessian":[7.98164E5,6.60261E5,1.37903E5,3.22974E5,3.37287E5,1.37867E5,3.6E1,2.43663E5,7.9311E4,7.9584E4,2.57703E5,4.6399E4,9.1468E4,2.3E1,1.3E1,1.12198E5,1.31465E5,5.3388E4,2.5923E4,3.7876E4,4.1708E4,1.20644E5,1.37059E5,3.476E4,1.1639E4,7.0941E4,2.0527E4,1.7E1,6E0,4.4738E4,6.746E4,4.0033E4,9.1432E4,2.0064E4,3.3324E4,2.4065E4,1.858E3,1.1142E4,2.6734E4,4.1661E4,4.7E1,7.9869E4,4.0775E4,8.1111E4,5.5948E4,1.1516E4,2.3244E4,1.0254E4,1.385E3,5.0265E4,2.0676E4,5.435E3,1.5092E4,1.2E1,5E0],"tree_param":{"num_deleted":"0","num_feature":"101","num_nodes":"55","size_leaf_vector":"1"}},{"base_weights":[2.5400586E-4,-2.6789606E-1,7.138458E-1,-4.8937634E-1,1.5734044E-1,4.7555158E-1,1.2491226E0,-2.2042207E-1,-6.9388473E-1,1.0460719E0,-7.350702E-2,4.4400122E-2,7.3270655E-1,1.2442993E0,2.3657515E0,-5.982607E-1,1.4584571E-1,-9.142911E-1,-5.59468E-1,1.0322195E0,1.8210868E0,-1.8157251E-1,6.190746E-1,7.22421E-1,-8.620038E-2,9.5622474E-1,3.6717963E-1,1.0230587E0,1.737836E0,-5.525719E-2,-2.3918394E-2,1.9049358E-2,-7.7458993E-3,-5.7896085E-2,-4.261865E-2,-3.470523E-2,-1.1991163E-2,5.130127E-2,1.4539686E0,-1.8395892E-3,-2.9191528E-2,5.0023813E-2,-2.7882566E-3,-4.248598E-3,5.249479E-2,-9.315403E-3,3.9117675E-2,2.6138157E-2,5.6179535E-2,1.2708477E-2,5.9133627E-2,4.3218672E-2,7.45601E-2,8.460553E-2,2.925642E-1],"categories":[],"categories_nodes":[],"categories_segments":[],"categories_sizes":[],"default_left":[0,0,0,0,0,0,0,0,0,0,0,0,0,0,0,0,0,0,0,0,0,0,0,0,0,0,0,0,0,0,0,0,0,0,0,0,0,0,0,0,0,0,0,0,0,0,0,0,0,0,0,0,0,0,0],"id":13,"left_children":[1,3,5,7,9,11,13,15,17,19,21,23,25,27,-1,29,31,33,35,37,-1,39,41,43,45,47,49,51,53,-1,-1,-1,-1,-1,-1,-1,-1,-1,-1,-1,-1,-1,-1,-1,-1,-1,-1,-1,-1,-1,-1,-1,-1,-1,-1],"loss_changes":[1.5269327E5,5.462745E4,2.7800516E4,2.0977117E4,4.0753434E4,1.6721605E4,1.4854219E4,2.2798105E4,6.417789E3,2.002955E4,1.1801722E4,4.989734E3,7.7180625E3,7.3283438E3,0E0,4.927164E3,5.915978E3,1.2368438E3,5.791422E3,7.080082E3,0E0,7.9438022E3,5.4780737E3,2.406497E3,4.1082485E3,4.2521484E3,3.303454E3,3.4422148E3,3.8974648E3,0E0,0E0,0E0,0E0,0E0,0E0,0E0,0E0,0E0,0E0,0E0,0E0,0E0,0E0,0E0,0E0,0E0,0E0,0E0,0E0,0E0,0E0,0E0,0E0,0E0,0E0],"parents":[2147483647,0,0,1,1,2,2,3,3,4,4,5,5,6,6,7,7,8,8,9,9,10,10,11,11,12,12,13,13,15,15,16,16,17,17,18,18,19,19,21,21,22,22,23,23,24,24,25,25,26,26,27,27,28,28],"right_children":[2,4,6,8,10,12,14,16,18,20,22,24,26,28,-1,30,32,34,36,38,-1,40,42,44,46,48,50,52,54,-1,-1,-1,-1,-1,-1,-1,-1,-1,-1,-1,-1,-1,-1,-1,-1,-1,-1,-1,-1,-1,-1,-1,-1,-1,-1],"split_conditions":[4.0816328E-1,2.6947369E1,4E0,1E0,1E0,1E0,4.28E1,1.923077E1,2.0135593E1,8.6E0,3.9727272E1,1.95E0,5.05E0,1E0,2.3657515E0,1.5294118E1,3.2E0,1.6105263E1,1E0,1.8E1,1.8210868E0,9.4E0,7.3370786E0,2.3882353E0,1E0,2.5466666E0,1E0,1E0,3.8333333E0,-5.525719E-2,-2.3918394E-2,1.9049358E-2,-7.7458993E-3,-5.7896085E-2,-4.261865E-2,-3.470523E-2,-1.1991163E-2,5.130127E-2,1.4539686E0,-1.8395892E-3,-2.9191528E-2,5.0023813E-2,-2.7882566E-3,-4.248598E-3,5.249479E-2,-9.315403E-3,3.9117675E-2,2.6138157E-2,5.6179535E-2,1.2708477E-2,5.9133627E-2,4.3218672E-2,7.45601E-2,8.460553E-2,2.925642E-1],"split_indices":[16,17,50,6,6,16,99,17,17,97,17,94,94,1,0,17,49,17,1,36,0,93,49,52,4,52,4,4,88,0,0,0,0,0,0,0,0,0,0,0,0,0,0,0,0,0,0,0,0,0,0,0,0,0,0],"split_type":[0,0,0,0,0,0,0,0,0,0,0,0,0,0,0,0,0,0,0,0,0,0,0,0,0,0,0,0,0,0,0,0,0,0,0,0,0,0,0,0,0,0,0,0,0,0,0,0,0,0,0,0,0,0,0],"sum_hessian":[7.97978E5,5.80021E5,2.17957E5,3.81382E5,1.98639E5,1.50818E5,6.7139E4,1.64736E5,2.16646E5,4.0957E4,1.57682E5,5.6347E4,9.4471E4,6.7133E4,6E0,8.1087E4,8.3649E4,8.2069E4,1.34577E5,4.0942E4,1.5E1,1.364E5,2.1282E4,9.1E3,4.7247E4,5.8622E4,3.5849E4,4.6356E4,2.0777E4,1.5509E4,6.5578E4,4.6946E4,3.6703E4,1.6627E4,6.5442E4,9.4691E4,3.9886E4,4.0934E4,8E0,1.00301E5,3.6099E4,1.3597E4,7.685E3,2.626E3,6.474E3,4.2365E4,4.882E3,1.6331E4,4.2291E4,3.1487E4,4.362E3,3.4623E4,1.1733E4,2.055E4,2.27E2],"tree_param":{"num_deleted":"0","num_feature":"101","num_nodes":"55","size_leaf_vector":"1"}},{"base_weights":[-3.2735185E-4,-2.556535E-1,6.791029E-1,-4.6609455E-1,1.4831984E-1,3.925631E-1,1.0743284E0,-7.008577E-1,-2.4379176E-1,9.947498E-1,-7.044912E-2,-1.115399E-2,6.3642246E-1,1.0672437E0,2.4234058E1,-8.673108E-1,-5.3038657E-1,-5.1227707E-1,1.2692689E-2,9.811995E-1,2.351041E0,-2.4707896E-1,3.167746E-1,6.29108E-1,-1.3595536E-1,9.806277E-1,4.2439508E-1,8.964076E-1,1.6452441E0,2.5680332E0,6.728121E-1,-4.007166E-2,-5.4166615E-2,-3.9137475E-2,-1.8058492E-2,-4.418077E-2,-2.0014435E-2,1.9627677E-2,-1.5277266E-2,4.857431E-2,1.6970406E0,-1.7038845E-2,1.7626699E-2,1.0112592E-2,5.822922E-2,-2.0214864E-3,4.937903E-2,-1.11833075E-2,3.5411622E-2,3.1015757E-2,6.356015E-2,1.5496916E-2,6.1687913E-2,5.581838E-2,1.3046051E-2,1.05766535E-1,5.8854934E-2,3.9666772E-2,1.6152533E-2],"categories":[],"categories_nodes":[],"categories_segments":[],"categories_sizes":[],"default_left":[0,0,0,0,0,0,0,0,0,0,0,0,0,0,0,0,0,0,0,0,0,0,0,0,0,0,0,0,0,0,0,0,0,0,0,0,0,0,0,0,0,0,0,0,0,0,0,0,0,0,0,0,0,0,0,0,0,0,0],"id":14,"left_children":[1,3,5,7,9,11,13,15,17,19,21,23,25,27,29,31,33,35,37,39,-1,41,43,45,47,49,51,53,55,-1,57,-1,-1,-1,-1,-1,-1,-1,-1,-1,-1,-1,-1,-1,-1,-1,-1,-1,-1,-1,-1,-1,-1,-1,-1,-1,-1,-1,-1],"loss_changes":[1.386053E5,4.9370812E4,2.4714758E4,1.9927242E4,3.6832848E4,1.2455789E4,1.502168E4,5.269086E3,1.3505676E4,2.5427102E4,1.0810558E4,3.8070579E3,5.7558145E3,9.052742E3,1.7856066E4,1.3361172E3,3.9177832E3,3.984291E3,1.2125614E4,1.3038727E4,0E0,6.0985596E3,4.8070186E3,1.8654993E3,2.9524812E3,3.1467656E3,4.521172E3,9.8933125E3,4.600582E3,0E0,3.065443E-1,0E0,0E0,0E0,0E0,0E0,0E0,0E0,0E0,0E0,0E0,0E0,0E0,0E0,0E0,0E0,0E0,0E0,0E0,0E0,0E0,0E0,0E0,0E0,0E0,0E0,0E0,0E0,0E0],"parents":[2147483647,0,0,1,1,2,2,3,3,4,4,5,5,6,6,7,7,8,8,9,9,10,10,11,11,12,12,13,13,14,14,15,15,16,16,17,17,18,18,19,19,21,21,22,22,23,23,24,24,25,25,26,26,27,27,28,28,30,30],"right_children":[2,4,6,8,10,12,14,16,18,20,22,24,26,28,30,32,34,36,38,40,-1,42,44,46,48,50,52,54,56,-1,58,-1,-1,-1,-1,-1,-1,-1,-1,-1,-1,-1,-1,-1,-1,-1,-1,-1,-1,-1,-1,-1,-1,-1,-1,-1,-1,-1,-1],"split_conditions":[4.0816328E-1,2.6947369E1,3.5E0,6.2E0,1E0,1E0,1.68E1,3E0,2.0135593E1,2.0166666E1,6.55E0,1.95E0,4.25E0,1E0,6E0,5.925926E-1,1.909756E1,1.6105263E1,1E0,8.6E0,2.351041E0,3.9727272E1,4.033557E1,2.4213836E0,1E0,6.5E0,1E0,5.2E0,6.1E0,2.5680332E0,2.857143E0,-4.007166E-2,-5.4166615E-2,-3.9137475E-2,-1.8058492E-2,-4.418077E-2,-2.0014435E-2,1.9627677E-2,-1.5277266E-2,4.857431E-2,1.6970406E0,-1.7038845E-2,1.7626699E-2,1.0112592E-2,5.822922E-2,-2.0214864E-3,4.937903E-2,-1.11833075E-2,3.5411622E-2,3.1015757E-2,6.356015E-2,1.5496916E-2,6.1687913E-2,5.581838E-2,1.3046051E-2,1.05766535E-1,5.8854934E-2,3.9666772E-2,1.6152533E-2],"split_indices":[16,17,50,99,6,16,97,52,17,36,100,94,47,4,5,55,17,17,6,97,0,17,17,52,4,99,4,93,94,0,27,0,0,0,0,0,0,0,0,0,0,0,0,0,0,0,0,0,0,0,0,0,0,0,0,0,0,0,0],"split_type":[0,0,0,0,0,0,0,0,0,0,0,0,0,0,0,0,0,0,0,0,0,0,0,0,0,0,0,0,0,0,0,0,0,0,0,0,0,0,0,0,0,0,0,0,0,0,0,0,0,0,0,0,0,0,0,0,0,0,0],"sum_hessian":[7.98985E5,5.80745E5,2.1824E5,3.81836E5,1.98909E5,1.26517E5,9.1723E4,1.85712E5,1.96124E5,4.0851E4,1.58058E5,4.7643E4,7.8874E4,9.1696E4,2.7E1,9.3961E4,9.1751E4,9.582E4,1.00304E5,4.084E4,1.1E1,1.08546E5,4.9512E4,7.771E3,3.9872E4,3.0064E4,4.881E4,7.0779E4,2.0917E4,1.2E1,1.5E1,7.2007E4,2.1954E4,3.6826E4,5.4925E4,2.22E4,7.362E4,4.5725E4,5.4579E4,4.0829E4,1.1E1,9.3877E4,1.4669E4,4.3621E4,5.891E3,2.71E3,5.061E3,3.612E4,3.752E3,1.3423E4,1.6641E4,4.2764E4,6.046E3,5.2579E4,1.82E4,1.0435E4,1.0482E4,1E1,5E0],"tree_param":{"num_deleted":"0","num_feature":"101","num_nodes":"59","size_leaf_vector":"1"}},{"base_weights":[-4.720955E-4,-2.4768506E-1,6.35529E-1,-4.4829306E-1,1.3955364E-1,4.174359E-1,1.1240336E0,-1.996132E-1,-6.369886E-1,9.430137E-1,-7.03458E-2,2.815553E-2,6.649758E-1,1.1151366E0,2.1516886E1,-5.3989077E-1,1.349377E-1,-8.3519864E-1,-5.054481E-1,9.2785937E-1,1.6633343E0,-2.1393923E-1,3.932621E-1,6.7128253E-1,-9.009916E-2,8.723427E-1,3.0995813E-1,9.330399E-1,1.6212248E0,2.4310653E0,3.702676E-2,-5.020534E-2,-2.1434618E-2,1.7381564E-2,-6.95626E-3,-4.457041E-2,-2.7407993E-2,-3.0262118E-2,-6.9538876E-3,3.4681264E-2,7.1955614E-2,-2.679041E-2,-2.08239E-3,1.416419E-2,7.347844E-2,-3.7377619E-3,4.83889E-2,-9.072292E-3,3.5491638E-2,2.37931E-2,5.1856097E-2,1.0360156E-2,5.2518554E-2,5.6291282E-2,1.1046934E-2,1.054154E-1,5.7838082E-2],"categories":[],"categories_nodes":[],"categories_segments":[],"categories_sizes":[],"default_left":[0,0,0,0,0,0,0,0,0,0,0,0,0,0,0,0,0,0,0,0,0,0,0,0,0,0,0,0,0,0,0,0,0,0,0,0,0,0,0,0,0,0,0,0,0,0,0,0,0,0,0,0,0,0,0,0,0],"id":15,"left_children":[1,3,5,7,9,11,13,15,17,19,21,23,25,27,29,31,33,35,37,39,-1,41,43,45,47,49,51,53,55,-1,-1,-1,-1,-1,-1,-1,-1,-1,-1,-1,-1,-1,-1,-1,-1,-1,-1,-1,-1,-1,-1,-1,-1,-1,-1,-1,-1],"loss_changes":[1.2544897E5,4.4633195E4,2.3792625E4,1.7759969E4,3.306688E4,1.4878176E4,1.2480016E4,1.858896E4,5.610125E3,1.985982E4,1.0349201E4,4.5646553E3,6.94791E3,6.3479453E3,1.6852984E4,4.178176E3,4.799668E3,1.3843555E3,4.729242E3,4.86016E3,0E0,6.5822944E3,4.351177E3,2.0621582E3,3.704562E3,3.8918203E3,2.647509E3,6.9560195E3,4.1214414E3,0E0,0E0,0E0,0E0,0E0,0E0,0E0,0E0,0E0,0E0,0E0,0E0,0E0,0E0,0E0,0E0,0E0,0E0,0E0,0E0,0E0,0E0,0E0,0E0,0E0,0E0,0E0,0E0],"parents":[2147483647,0,0,1,1,2,2,3,3,4,4,5,5,6,6,7,7,8,8,9,9,10,10,11,11,12,12,13,13,14,14,15,15,16,16,17,17,18,18,19,19,21,21,22,22,23,23,24,24,25,25,26,26,27,27,28,28],"right_children":[2,4,6,8,10,12,14,16,18,20,22,24,26,28,30,32,34,36,38,40,-1,42,44,46,48,50,52,54,56,-1,-1,-1,-1,-1,-1,-1,-1,-1,-1,-1,-1,-1,-1,-1,-1,-1,-1,-1,-1,-1,-1,-1,-1,-1,-1,-1,-1],"split_conditions":[3.809524E-1,2.7E1,4E0,1E0,1E0,1E0,1.68E1,1.923077E1,2.5217392E0,8.6E0,7.6E0,1.95E0,5.15E0,1E0,6E0,1.5294118E1,3.2E0,7.45E0,7.4626864E-3,8.666667E0,1.6633343E0,2.3E0,4.4E1,2.3882353E0,1E0,2.580645E0,1E0,1.35E1,6.1E0,2.4310653E0,3.702676E-2,-5.020534E-2,-2.1434618E-2,1.7381564E-2,-6.95626E-3,-4.457041E-2,-2.7407993E-2,-3.0262118E-2,-6.9538876E-3,3.4681264E-2,7.1955614E-2,-2.679041E-2,-2.08239E-3,1.416419E-2,7.347844E-2,-3.7377619E-3,4.83889E-2,-9.072292E-3,3.5491638E-2,2.37931E-2,5.1856097E-2,1.0360156E-2,5.2518554E-2,5.6291282E-2,1.1046934E-2,1.054154E-1,5.7838082E-2],"split_indices":[16,17,50,6,6,16,97,17,52,97,99,94,94,4,5,17,49,100,16,99,0,51,17,52,4,52,4,42,94,0,0,0,0,0,0,0,0,0,0,0,0,0,0,0,0,0,0,0,0,0,0,0,0,0,0,0,0],"split_type":[0,0,0,0,0,0,0,0,0,0,0,0,0,0,0,0,0,0,0,0,0,0,0,0,0,0,0,0,0,0,0,0,0,0,0,0,0,0,0,0,0,0,0,0,0,0,0,0,0,0,0,0,0,0,0,0,0],"sum_hessian":[7.97879E5,5.74552E5,2.23327E5,3.78481E5,1.96071E5,1.54398E5,6.8929E4,1.63288E5,2.15193E5,4.0612E4,1.55459E5,6.0017E4,9.4381E4,6.89E4,2.9E1,8.0951E4,8.2337E4,8.584E4,1.29353E5,4.0594E4,1.8E1,1.18696E5,3.6763E4,9.321E3,5.0696E4,5.9579E4,3.4802E4,5.0671E4,1.8229E4,1.2E1,1.7E1,1.5642E4,6.5309E4,4.6359E4,3.5978E4,7.1781E4,1.4059E4,1.01661E5,2.7692E4,2.7841E4,1.2753E4,4.1383E4,7.7313E4,3.3356E4,3.407E3,2.651E3,6.67E3,4.5501E4,5.195E3,1.7493E4,4.2086E4,3.0562E4,4.24E3,3.9875E4,1.0796E4,8.896E3,9.333E3],"tree_param":{"num_deleted":"0","num_feature":"101","num_nodes":"57","size_leaf_vector":"1"}},{"base_weights":[-3.696657E-4,-1.7359073E-1,8.2931125E-1,-5.7433546E-1,-1.05520515E-2,5.2590454E-1,1.1392097E0,-7.7043587E-1,-4.0727854E-1,3.362425E-1,-2.9232088E-1,4.182064E-1,1.1935637E0,1.1305115E0,1.6695295E1,-8.1801766E-1,-4.5544472E-1,-7.952233E-1,-2.77431E-1,-4.5355067E-2,5.7336247E-1,-4.4545949E-1,-5.072126E-4,1.3023101E0,3.206473E-1,1.4469534E0,5.357765E-1,1.4345657E0,8.3120537E-1,9.6592677E-1,2.3431044E0,-4.2204138E-2,-1.2617144E-2,-1.4835864E-2,-3.903046E-2,-5.4350685E-2,-3.463624E-2,-8.786446E-3,-3.3884633E-2,2.3630385E-3,-3.763822E-2,2.0914547E-2,6.162802E-2,-2.7458696E-2,2.6501664E-3,-3.9544655E-3,5.657872E-2,6.681514E-2,-1.4103824E-1,4.525569E-2,1.00854635E-2,3.6293697E-2,8.408837E-2,3.6911275E-2,-2.941792E-2,5.994429E-2,8.736571E-2,3.1086747E-2,7.1746945E-2,7.945284E-2,3.237274E-2],"categories":[],"categories_nodes":[],"categories_segments":[],"categories_sizes":[],"default_left":[0,0,0,0,0,0,0,0,0,0,0,0,0,0,0,0,0,0,0,0,0,0,0,0,0,0,0,0,0,0,0,0,0,0,0,0,0,0,0,0,0,0,0,0,0,0,0,0,0,0,0,0,0,0,0,0,0,0,0,0,0],"id":16,"left_children":[1,3,5,7,9,11,13,15,17,19,21,23,25,27,29,31,33,35,37,39,41,43,45,47,49,51,53,55,57,59,-1,-1,-1,-1,-1,-1,-1,-1,-1,-1,-1,-1,-1,-1,-1,-1,-1,-1,-1,-1,-1,-1,-1,-1,-1,-1,-1,-1,-1,-1,-1],"loss_changes":[1.146119E5,4.3105094E4,1.2950281E4,6.2497344E3,4.582406E4,5.004043E3,9.19932E3,1.3148828E3,5.18942E3,1.902162E4,1.1562199E4,5.168956E3,1.6102891E3,6.1963047E3,1.7981125E4,1.1238438E3,5.942366E2,7.717451E2,3.1420435E3,5.278573E3,1.3252918E4,8.772418E3,7.9219033E3,8.383789E2,3.752143E3,1.1800498E3,6.126394E2,2.4876328E3,4.339412E3,3.9071922E0,0E0,0E0,0E0,0E0,0E0,0E0,0E0,0E0,0E0,0E0,0E0,0E0,0E0,0E0,0E0,0E0,0E0,0E0,0E0,0E0,0E0,0E0,0E0,0E0,0E0,0E0,0E0,0E0,0E0,0E0,0E0],"parents":[2147483647,0,0,1,1,2,2,3,3,4,4,5,5,6,6,7,7,8,8,9,9,10,10,11,11,12,12,13,13,14,14,15,15,16,16,17,17,18,18,19,19,20,20,21,21,22,22,23,23,24,24,25,25,26,26,27,27,28,28,29,29],"right_children":[2,4,6,8,10,12,14,16,18,20,22,24,26,28,30,32,34,36,38,40,42,44,46,48,50,52,54,56,58,60,-1,-1,-1,-1,-1,-1,-1,-1,-1,-1,-1,-1,-1,-1,-1,-1,-1,-1,-1,-1,-1,-1,-1,-1,-1,-1,-1,-1,-1,-1,-1],"split_conditions":[1E0,2.0135593E1,3E0,3.193133E0,4.6666665E0,1E0,1.68E1,8.15E0,1.6105263E1,2.9058824E0,3.139535E0,1.7E1,7.95E0,4.25E0,6.51E2,4.6666667E-1,4.3E0,1.4292683E1,5.25E0,9.878049E0,3E1,3.405E1,3E0,2.6E0,1E0,2.4402986E0,1.495E1,2.4E1,1E0,5E0,2.3431044E0,-4.2204138E-2,-1.2617144E-2,-1.4835864E-2,-3.903046E-2,-5.4350685E-2,-3.463624E-2,-8.786446E-3,-3.3884633E-2,2.3630385E-3,-3.763822E-2,2.0914547E-2,6.162802E-2,-2.7458696E-2,2.6501664E-3,-3.9544655E-3,5.657872E-2,6.681514E-2,-1.4103824E-1,4.525569E-2,1.00854635E-2,3.6293697E-2,8.408837E-2,3.6911275E-2,-2.941792E-2,5.994429E-2,8.736571E-2,3.1086747E-2,7.1746945E-2,7.945284E-2,3.237274E-2],"split_indices":[16,17,97,52,93,4,97,100,17,52,52,17,94,47,21,16,74,17,94,49,17,17,62,63,6,52,94,17,4,5,0,0,0,0,0,0,0,0,0,0,0,0,0,0,0,0,0,0,0,0,0,0,0,0,0,0,0,0,0,0,0],"split_type":[0,0,0,0,0,0,0,0,0,0,0,0,0,0,0,0,0,0,0,0,0,0,0,0,0,0,0,0,0,0,0,0,0,0,0,0,0,0,0,0,0,0,0,0,0,0,0,0,0,0,0,0,0,0,0,0,0,0,0,0,0],"sum_hessian":[7.97475E5,6.59736E5,1.37739E5,1.90786E5,4.6895E5,6.96E4,6.8139E4,8.7762E4,1.03024E5,2.10218E5,2.58732E5,5.9934E4,9.666E3,6.8102E4,3.7E1,7.6243E4,1.1519E4,2.5834E4,7.719E4,8.0565E4,1.29653E5,1.69684E5,8.9048E4,5.955E3,5.3979E4,6.977E3,2.689E3,3.3781E4,3.4321E4,2.5E1,1.2E1,7.2884E4,3.359E3,7.742E3,3.777E3,6.713E3,1.9121E4,6.1552E4,1.5638E4,7.1239E4,9.326E3,1.04963E5,2.469E4,1.40459E5,2.9225E4,8.3269E4,5.779E3,5.907E3,4.8E1,9.126E3,4.4853E4,1.715E3,5.262E3,2.279E3,4.1E2,1.9267E4,1.4514E4,2.5482E4,8.839E3,7E0,1.8E1],"tree_param":{"num_deleted":"0","num_feature":"101","num_nodes":"61","size_leaf_vector":"1"}},{"base_weights":[-3.630787E-5,-2.2218858E-1,5.8856577E-1,-4.1656974E-1,1.11332834E-1,3.31948E-1,9.4217753E-1,-2.4231513E-1,-6.5744627E-1,8.0814E-1,-7.2747365E-2,-1.3134974E-2,5.431187E-1,9.360389E-1,2.0339792E1,-4.7577614E-1,3.6213234E-2,-7.2865045E-1,-3.548744E-1,7.956432E-1,1.93123E1,-2.4955522E-1,2.5957647E-1,3.6377627E-1,-1.925497E-1,9.861779E-1,4.0341094E-1,7.8320783E-1,1.4523976E0,2.2291625E0,2.9916832E-2,-4.70328E-2,-1.9569147E-2,1.5918009E-2,-1.2460037E-2,-4.1866574E-2,-2.9778877E-2,-2.138216E-2,3.8823016E-2,5.844113E-2,2.4266377E-2,4.06026E-2,1.5797565E0,-1.8789556E-2,7.3801847E-3,3.0707426E-3,3.255778E-2,1.4153885E-2,6.3716166E-2,-1.6146863E-2,1.4748012E-2,3.582751E-2,6.614287E-2,1.5733661E-2,5.3732306E-2,5.2090593E-2,1.6699182E-2,9.277485E-2,5.2274E-2],"categories":[],"categories_nodes":[],"categories_segments":[],"categories_sizes":[],"default_left":[0,0,0,0,0,0,0,0,0,0,0,0,0,0,0,0,0,0,0,0,0,0,0,0,0,0,0,0,0,0,0,0,0,0,0,0,0,0,0,0,0,0,0,0,0,0,0,0,0,0,0,0,0,0,0,0,0,0,0],"id":17,"left_children":[1,3,5,7,9,11,13,15,17,19,21,23,25,27,29,31,33,35,37,39,41,43,45,47,49,51,53,55,57,-1,-1,-1,-1,-1,-1,-1,-1,-1,-1,-1,-1,-1,-1,-1,-1,-1,-1,-1,-1,-1,-1,-1,-1,-1,-1,-1,-1,-1,-1],"loss_changes":[1.0421591E5,3.7512234E4,1.9816477E4,1.5343918E4,2.7328615E4,9.221939E3,1.0914141E4,1.3793143E4,3.3055781E3,1.027825E4,9.902752E3,3.2488853E3,4.8590156E3,7.2437266E3,1.3848237E4,4.526756E3,7.7891416E3,1.7958125E3,2.4070115E3,5.151826E3,6.788163E3,5.515407E3,4.5414253E3,1.1379805E3,2.0691462E3,1.707291E3,3.554831E3,8.22943E3,3.436789E3,0E0,0E0,0E0,0E0,0E0,0E0,0E0,0E0,0E0,0E0,0E0,0E0,0E0,0E0,0E0,0E0,0E0,0E0,0E0,0E0,0E0,0E0,0E0,0E0,0E0,0E0,0E0,0E0,0E0,0E0],"parents":[2147483647,0,0,1,1,2,2,3,3,4,4,5,5,6,6,7,7,8,8,9,9,10,10,11,11,12,12,13,13,14,14,15,15,16,16,17,17,18,18,19,19,20,20,21,21,22,22,23,23,24,24,25,25,26,26,27,27,28,28],"right_children":[2,4,6,8,10,12,14,16,18,20,22,24,26,28,30,32,34,36,38,40,42,44,46,48,50,52,54,56,58,-1,-1,-1,-1,-1,-1,-1,-1,-1,-1,-1,-1,-1,-1,-1,-1,-1,-1,-1,-1,-1,-1,-1,-1,-1,-1,-1,-1,-1,-1],"split_conditions":[4.0273038E-1,2.606383E1,3.5E0,5E0,1E0,1E0,1.68E1,2.0135593E1,7.4626864E-3,8.6E0,6.3636365E0,1.215E1,3.5808823E0,1E0,6E0,1.5294118E1,1E0,2.375E0,4.4E0,2.6666667E0,5E0,1E0,2.9285715E0,1E0,1E0,7.25E0,1E0,4.05E0,6.15E0,2.2291625E0,2.9916832E-2,-4.70328E-2,-1.9569147E-2,1.5918009E-2,-1.2460037E-2,-4.1866574E-2,-2.9778877E-2,-2.138216E-2,3.8823016E-2,5.844113E-2,2.4266377E-2,4.06026E-2,1.5797565E0,-1.8789556E-2,7.3801847E-3,3.0707426E-3,3.255778E-2,1.4153885E-2,6.3716166E-2,-1.6146863E-2,1.4748012E-2,3.582751E-2,6.614287E-2,1.5733661E-2,5.3732306E-2,5.2090593E-2,1.6699182E-2,9.277485E-2,5.2274E-2],"split_indices":[16,17,50,93,6,16,97,17,16,97,100,92,49,4,5,17,6,86,51,93,5,1,52,4,1,100,4,94,94,0,0,0,0,0,0,0,0,0,0,0,0,0,0,0,0,0,0,0,0,0,0,0,0,0,0,0,0,0,0],"split_type":[0,0,0,0,0,0,0,0,0,0,0,0,0,0,0,0,0,0,0,0,0,0,0,0,0,0,0,0,0,0,0,0,0,0,0,0,0,0,0,0,0,0,0,0,0,0,0,0,0,0,0,0,0,0,0,0,0,0,0],"sum_hessian":[7.97004E5,5.7862E5,2.18384E5,3.65564E5,2.13056E5,1.26549E5,9.1835E4,2.12117E5,1.53447E5,4.4522E4,1.68534E5,4.8042E4,7.8507E4,9.1807E4,2.8E1,1.15394E5,9.6723E4,1.24214E5,2.9233E4,4.4493E4,2.9E1,1.10007E5,5.8527E4,1.5493E4,3.2549E4,1.8819E4,5.9688E4,7.0842E4,2.0965E4,1.2E1,1.6E1,1.7728E4,9.7666E4,4.864E4,4.8083E4,6.837E4,5.5844E4,2.7467E4,1.766E3,2.0199E4,2.4294E4,1.2E1,1.7E1,8.3475E4,2.6532E4,3.8862E4,1.9665E4,1.4233E4,1.26E3,2.5681E4,6.868E3,1.0452E4,8.367E3,5.272E4,6.968E3,4.4959E4,2.5883E4,1.053E4,1.0435E4],"tree_param":{"num_deleted":"0","num_feature":"101","num_nodes":"59","size_leaf_vector":"1"}},{"base_weights":[1.0299062E-3,-2.1397544E-1,5.46306E-1,-3.837964E-1,1.3887486E-1,4.2372757E-1,1.230164E0,-5.961242E-1,-2.5560504E-1,4.533129E-1,-2.9141767E-2,8.6410457E-1,1.4308447E-1,1.5665582E0,8.3236897E-1,-6.652881E-1,-2.9616755E-1,-5.1056135E-1,-1.3518311E-1,4.454526E-1,1.5853441E1,-3.4268633E-1,1.10784255E-1,4.159751E-1,1.1358707E0,-1.61053E-1,3.4131196E-1,6.8008924E-1,1.7359494E0,5.747492E-1,1.3667275E0,-3.1503204E-2,-5.681926E-2,1.978147E-2,-1.9810798E-2,-2.1638114E-2,-4.0535744E-2,-1.0573416E-2,7.1973014E-3,2.2072924E-2,7.009652E-1,4.0867057E-2,1.4975551E0,-2.1658156E-2,-1.4720248E-3,1.7785401E-3,3.2516208E-2,4.841887E-2,9.858027E-3,5.6229956E-2,7.608043E-1,-1.5597047E-2,1.1687375E-2,9.393206E-3,3.5555404E-2,2.8446186E-2,1.0434937E-1,9.5397964E-2,3.1850092E-2,4.5496415E-2,1.1504303E-2,5.0967496E-2,1.1679371E-1],"categories":[],"categories_nodes":[],"categories_segments":[],"categories_sizes":[],"default_left":[0,0,0,0,0,0,0,0,0,0,0,0,0,0,0,0,0,0,0,0,0,0,0,0,0,0,0,0,0,0,0,0,0,0,0,0,0,0,0,0,0,0,0,0,0,0,0,0,0,0,0,0,0,0,0,0,0,0,0,0,0,0,0],"id":18,"left_children":[1,3,5,7,9,11,13,15,17,19,21,23,25,27,29,31,33,35,37,39,41,43,45,47,49,51,53,55,57,59,61,-1,-1,-1,-1,-1,-1,-1,-1,-1,-1,-1,-1,-1,-1,-1,-1,-1,-1,-1,-1,-1,-1,-1,-1,-1,-1,-1,-1,-1,-1,-1,-1],"loss_changes":[9.355117E4,3.42932E4,1.891571E4,1.0515824E4,9.823788E3,2.3650098E4,4.5883438E3,3.0171602E3,7.3963965E3,7.8301123E3,5.317079E3,9.070512E3,7.046582E3,2.789004E3,2.1627812E3,1.960375E3,1.8865618E3,1.8042363E3,3.4842368E3,3.5014844E3,6.96758E3,1.0597988E3,3.4004058E3,3.3986592E3,7.339707E3,2.7474785E3,4.0150684E3,4.650841E2,2.947582E3,1.2250386E3,1.7182881E3,0E0,0E0,0E0,0E0,0E0,0E0,0E0,0E0,0E0,0E0,0E0,0E0,0E0,0E0,0E0,0E0,0E0,0E0,0E0,0E0,0E0,0E0,0E0,0E0,0E0,0E0,0E0,0E0,0E0,0E0,0E0,0E0],"parents":[2147483647,0,0,1,1,2,2,3,3,4,4,5,5,6,6,7,7,8,8,9,9,10,10,11,11,12,12,13,13,14,14,15,15,16,16,17,17,18,18,19,19,20,20,21,21,22,22,23,23,24,24,25,25,26,26,27,27,28,28,29,29,30,30],"right_children":[2,4,6,8,10,12,14,16,18,20,22,24,26,28,30,32,34,36,38,40,42,44,46,48,50,52,54,56,58,60,62,-1,-1,-1,-1,-1,-1,-1,-1,-1,-1,-1,-1,-1,-1,-1,-1,-1,-1,-1,-1,-1,-1,-1,-1,-1,-1,-1,-1,-1,-1,-1,-1],"split_conditions":[3.6842105E-1,7.4E0,1E0,4.5E0,2.75E0,1E0,6.1E0,1E0,2.6086957E0,1.74E1,2.65E0,1E0,1E0,2.4144144E0,3.1111112E0,1.425E1,6.666667E-1,2.776923E1,7.4626864E-3,2.0166666E1,5E0,1E0,1E0,1.95E0,1.68E1,1E0,1E0,6.423E3,1.7166666E1,8.2E0,4.1E0,-3.1503204E-2,-5.681926E-2,1.978147E-2,-1.9810798E-2,-2.1638114E-2,-4.0535744E-2,-1.0573416E-2,7.1973014E-3,2.2072924E-2,7.009652E-1,4.0867057E-2,1.4975551E0,-2.1658156E-2,-1.4720248E-3,1.7785401E-3,3.2516208E-2,4.841887E-2,9.858027E-3,5.6229956E-2,7.608043E-1,-1.5597047E-2,1.1687375E-2,9.393206E-3,3.5555404E-2,2.8446186E-2,1.0434937E-1,9.5397964E-2,3.1850092E-2,4.5496415E-2,1.1504303E-2,5.0967496E-2,1.1679371E-1],"split_indices":[16,99,4,99,93,6,94,1,52,97,52,16,16,52,26,94,93,40,16,36,5,4,4,94,97,1,1,21,84,47,51,0,0,0,0,0,0,0,0,0,0,0,0,0,0,0,0,0,0,0,0,0,0,0,0,0,0,0,0,0,0,0,0],"split_type":[0,0,0,0,0,0,0,0,0,0,0,0,0,0,0,0,0,0,0,0,0,0,0,0,0,0,0,0,0,0,0,0,0,0,0,0,0,0,0,0,0,0,0,0,0,0,0,0,0,0,0,0,0,0,0,0,0,0,0,0,0,0,0],"sum_hessian":[7.97962E5,5.72301E5,2.25661E5,3.86355E5,1.85946E5,1.91362E5,3.4299E4,1.45445E5,2.4091E5,6.4756E4,1.2119E5,7.4483E4,1.16879E5,1.8582E4,1.5717E4,1.18191E5,2.7254E4,7.7283E4,1.63627E5,6.4724E4,3.2E1,3.7395E4,8.3795E4,2.8119E4,4.6364E4,4.6119E4,7.076E4,2.982E3,1.56E4,1.0606E4,5.111E3,1.09971E5,8.22E3,3.443E3,2.3811E4,6.1377E4,1.5906E4,1.28507E5,3.512E4,6.4706E4,1.8E1,1.6E1,1.6E1,2.9014E4,8.381E3,7.3544E4,1.0251E4,7.977E3,2.0142E4,4.6328E4,3.6E1,3.3367E4,1.2752E4,5.001E4,2.075E4,2.765E3,2.17E2,1.3488E4,2.112E3,5.376E3,5.23E3,3.764E3,1.347E3],"tree_param":{"num_deleted":"0","num_feature":"101","num_nodes":"63","size_leaf_vector":"1"}},{"base_weights":[1.8049389E-3,-2.0354007E-1,5.2235055E-1,-3.6428154E-1,1.3077012E-1,4.0381843E-1,1.1826817E0,-5.675387E-1,-2.4164274E-1,-3.233952E-2,4.2207146E-1,8.2404965E-1,1.3668588E-1,9.8613036E-1,1.7625562E0,-6.347214E-1,-2.7634072E-1,-4.7179034E-1,-1.2053988E-1,-3.0353907E-1,8.3470665E-2,4.1654918E-1,1.976908E1,3.9568675E-1,1.0834394E0,-1.4421022E-2,5.116951E-1,8.5567003E-1,1.72065E0,2.2977967E0,1.1962247E0,-3.2613274E-2,2.1008497E-2,2.1809807E-2,-1.8184924E-2,-2.0378206E-2,-4.074605E-2,-8.228906E-3,1.8170042E-2,-1.2641733E-2,-5.5983853E-2,1.3265258E-3,2.1091148E-2,2.0573938E-2,6.4554256E-1,2.2463834E0,6.704656E-2,3.148589E-2,2.8520324E-3,5.363064E-2,6.63691E-1,-1.5005919E-2,8.7270625E-3,2.8788274E-2,-1.6847862E-2,3.3870485E-2,6.57124E-2,9.414403E-2,-4.031992E-2,1.0600468E-1,2.0375259E-1,7.7622585E-2,-6.1644282E-2],"categories":[],"categories_nodes":[],"categories_segments":[],"categories_sizes":[],"default_left":[0,0,0,0,0,0,0,0,0,0,0,0,0,0,0,0,0,0,0,0,0,0,0,0,0,0,0,0,0,0,0,0,0,0,0,0,0,0,0,0,0,0,0,0,0,0,0,0,0,0,0,0,0,0,0,0,0,0,0,0,0,0,0],"id":19,"left_children":[1,3,5,7,9,11,13,15,17,19,21,23,25,27,29,31,33,35,37,39,41,43,45,47,49,51,53,55,57,59,61,-1,-1,-1,-1,-1,-1,-1,-1,-1,-1,-1,-1,-1,-1,-1,-1,-1,-1,-1,-1,-1,-1,-1,-1,-1,-1,-1,-1,-1,-1,-1,-1],"loss_changes":[8.527599E4,3.0743246E4,1.766359E4,9.6301875E3,8.826216E3,2.1478908E4,3.9124648E3,2.8439492E3,6.715753E3,3.7401357E3,7.1135977E3,8.261777E3,6.6288447E3,2.4564863E3,2.631955E3,2.1865234E3,1.6967175E3,1.830375E3,3.3648264E3,1.4742205E3,1.6076392E3,4.2163604E3,8.744025E3,2.2227236E3,6.0968555E3,4.501527E3,1.8270586E3,1.779835E3,1.5873711E3,1.4018418E3,3.6587651E3,0E0,0E0,0E0,0E0,0E0,0E0,0E0,0E0,0E0,0E0,0E0,0E0,0E0,0E0,0E0,0E0,0E0,0E0,0E0,0E0,0E0,0E0,0E0,0E0,0E0,0E0,0E0,0E0,0E0,0E0,0E0,0E0],"parents":[2147483647,0,0,1,1,2,2,3,3,4,4,5,5,6,6,7,7,8,8,9,9,10,10,11,11,12,12,13,13,14,14,15,15,16,16,17,17,18,18,19,19,20,20,21,21,22,22,23,23,24,24,25,25,26,26,27,27,28,28,29,29,30,30],"right_children":[2,4,6,8,10,12,14,16,18,20,22,24,26,28,30,32,34,36,38,40,42,44,46,48,50,52,54,56,58,60,62,-1,-1,-1,-1,-1,-1,-1,-1,-1,-1,-1,-1,-1,-1,-1,-1,-1,-1,-1,-1,-1,-1,-1,-1,-1,-1,-1,-1,-1,-1,-1,-1],"split_conditions":[3.6842105E-1,7.4E0,1E0,4.5E0,4.2E0,1E0,1E0,1E0,2.6666667E0,2.6086957E0,1.8E1,1E0,1E0,4.1E0,5.357143E0,2.1333334E0,2E-1,9.981818E0,5.2E0,1.3333333E1,9E0,1.74E1,1E0,1.1627907E0,1.68E1,1E0,1E0,6.85E0,5.4E0,1.532E1,1.58E1,-3.2613274E-2,2.1008497E-2,2.1809807E-2,-1.8184924E-2,-2.0378206E-2,-4.074605E-2,-8.228906E-3,1.8170042E-2,-1.2641733E-2,-5.5983853E-2,1.3265258E-3,2.1091148E-2,2.0573938E-2,6.4554256E-1,2.2463834E0,6.704656E-2,3.148589E-2,2.8520324E-3,5.363064E-2,6.63691E-1,-1.5005919E-2,8.7270625E-3,2.8788274E-2,-1.6847862E-2,3.3870485E-2,6.57124E-2,9.414403E-2,-4.031992E-2,1.0600468E-1,2.0375259E-1,7.7622585E-2,-6.1644282E-2],"split_indices":[16,99,4,99,97,6,1,1,52,52,36,16,1,86,49,63,99,49,50,49,100,97,14,10,97,16,13,100,86,43,42,0,0,0,0,0,0,0,0,0,0,0,0,0,0,0,0,0,0,0,0,0,0,0,0,0,0,0,0,0,0,0,0],"split_type":[0,0,0,0,0,0,0,0,0,0,0,0,0,0,0,0,0,0,0,0,0,0,0,0,0,0,0,0,0,0,0,0,0,0,0,0,0,0,0,0,0,0,0,0,0,0,0,0,0,0,0,0,0,0,0,0,0,0,0,0,0,0,0],"sum_hessian":[7.97779E5,5.72098E5,2.25681E5,3.8634E5,1.85758E5,1.91337E5,3.4344E4,1.45383E5,2.40957E5,1.19081E5,6.6677E4,7.4359E4,1.16978E5,2.5652E4,8.692E3,1.18128E5,2.7255E4,8.3075E4,1.57882E5,3.5634E4,8.3447E4,6.6659E4,1.8E1,2.8046E4,4.6313E4,8.3381E4,3.3597E4,2.1785E4,3.867E3,4.467E3,4.225E3,1.16196E5,1.932E3,2.976E3,2.4279E4,6.9979E4,1.3096E4,1.44714E5,1.3168E4,3.3551E4,2.083E3,7.1428E4,1.2019E4,6.6633E4,2.6E1,7E0,1.1E1,1.6584E4,1.1462E4,4.6273E4,4E1,3.3194E4,5.0187E4,3.1239E4,2.358E3,1.5689E4,6.096E3,3.634E3,2.33E2,4.063E3,4.04E2,3.685E3,5.4E2],"tree_param":{"num_deleted":"0","num_feature":"101","num_nodes":"63","size_leaf_vector":"1"}},{"base_weights":[1.5942102E-3,-1.9440913E-1,4.9160984E-1,-3.7176448E-1,1.4778766E-1,3.11992E-1,8.927142E-1,-5.622496E-1,-1.916693E-1,5.158466E-1,-1.6376518E-1,5.2008605E-1,6.1476612E-3,8.8576657E-1,1.527457E1,-4.5605087E-1,-7.1608365E-1,-4.662949E-1,-1.5458684E-2,8.956561E-1,1.4683832E-1,-9.911637E-2,-9.024219E-1,4.4634706E-1,1.2739344E0,-2.3626912E-1,2.1436706E-1,7.0376754E-1,1.2921281E0,2.060532E0,-3.705208E-2,-3.3174045E-2,-1.50431115E-2,-3.858718E-2,-2.6336232E-2,-4.290509E-2,-1.9434232E-2,1.4805013E-2,-1.3008389E-2,4.4301E-2,1.3655764E0,3.0646974E-3,5.6432214E-2,-1.04943765E-2,2.6034487E-2,-2.8699888E-2,-5.5638637E-2,6.88909E-3,3.1177402E-2,3.307552E-2,7.788481E-2,-3.4653623E-2,-7.5953575E-3,1.4262778E-2,-3.2420825E-2,2.8835038E-2,5.384463E-2,1.4285181E-1,6.112666E-2],"categories":[],"categories_nodes":[],"categories_segments":[],"categories_sizes":[],"default_left":[0,0,0,0,0,0,0,0,0,0,0,0,0,0,0,0,0,0,0,0,0,0,0,0,0,0,0,0,0,0,0,0,0,0,0,0,0,0,0,0,0,0,0,0,0,0,0,0,0,0,0,0,0,0,0,0,0,0,0],"id":20,"left_children":[1,3,5,7,9,11,13,15,17,19,21,23,25,27,29,31,33,35,37,39,41,43,45,47,49,51,53,55,57,-1,-1,-1,-1,-1,-1,-1,-1,-1,-1,-1,-1,-1,-1,-1,-1,-1,-1,-1,-1,-1,-1,-1,-1,-1,-1,-1,-1,-1,-1],"loss_changes":[7.6684805E4,3.4612312E4,1.6434621E4,1.2885871E4,2.2324266E4,1.0028011E4,7.034914E3,2.9818242E3,9.34351E3,1.2508127E4,5.0346777E3,5.2115254E3,3.220359E3,5.214664E3,1.4157574E4,3.476211E3,7.8521094E2,2.29433E3,8.967272E3,1.1167871E4,3.801863E3,6.656408E3,5.853721E2,4.6700566E3,1.4505273E3,1.1358373E3,2.09927E3,2.3086895E3,2.3718516E3,0E0,0E0,0E0,0E0,0E0,0E0,0E0,0E0,0E0,0E0,0E0,0E0,0E0,0E0,0E0,0E0,0E0,0E0,0E0,0E0,0E0,0E0,0E0,0E0,0E0,0E0,0E0,0E0,0E0,0E0],"parents":[2147483647,0,0,1,1,2,2,3,3,4,4,5,5,6,6,7,7,8,8,9,9,10,10,11,11,12,12,13,13,14,14,15,15,16,16,17,17,18,18,19,19,20,20,21,21,22,22,23,23,24,24,25,25,26,26,27,27,28,28],"right_children":[2,4,6,8,10,12,14,16,18,20,22,24,26,28,30,32,34,36,38,40,42,44,46,48,50,52,54,56,58,-1,-1,-1,-1,-1,-1,-1,-1,-1,-1,-1,-1,-1,-1,-1,-1,-1,-1,-1,-1,-1,-1,-1,-1,-1,-1,-1,-1,-1,-1],"split_conditions":[3.5714287E-1,2.7E1,4E0,6.2E0,4.8E0,5.2E0,1.68E1,4.9E0,1.909756E1,4.6E0,1.3333333E1,1E0,1E0,1E0,6E0,1.909756E1,3E0,1.5294118E1,3.5E0,9E0,4.125688E1,3.9E1,8.333333E-1,1E0,2.4144144E0,1.8E0,1.425E1,1E0,5E-1,2.060532E0,-3.705208E-2,-3.3174045E-2,-1.50431115E-2,-3.858718E-2,-2.6336232E-2,-4.290509E-2,-1.9434232E-2,1.4805013E-2,-1.3008389E-2,4.4301E-2,1.3655764E0,3.0646974E-3,5.6432214E-2,-1.04943765E-2,2.6034487E-2,-2.8699888E-2,-5.5638637E-2,6.88909E-3,3.1177402E-2,3.307552E-2,7.788481E-2,-3.4653623E-2,-7.5953575E-3,1.4262778E-2,-3.2420825E-2,2.8835038E-2,5.384463E-2,1.4285181E-1,6.112666E-2],"split_indices":[16,17,50,99,49,94,97,49,17,93,49,4,16,1,5,17,86,17,93,97,17,17,55,16,52,50,94,4,47,0,0,0,0,0,0,0,0,0,0,0,0,0,0,0,0,0,0,0,0,0,0,0,0,0,0,0,0,0,0],"split_type":[0,0,0,0,0,0,0,0,0,0,0,0,0,0,0,0,0,0,0,0,0,0,0,0,0,0,0,0,0,0,0,0,0,0,0,0,0,0,0,0,0,0,0,0,0,0,0,0,0,0,0,0,0,0,0,0,0,0,0],"sum_hessian":[7.98426E5,5.70307E5,2.28119E5,3.75626E5,1.94681E5,1.57563E5,7.0556E4,1.82546E5,1.9308E5,8.9247E4,1.05434E5,9.3765E4,6.3798E4,7.0523E4,3.3E1,1.07996E5,7.455E4,7.5465E4,1.17615E5,4.3979E4,4.5268E4,9.695E4,8.484E3,8.5412E4,8.353E3,2.9478E4,3.432E4,4.871E4,2.1813E4,1.2E1,2.1E1,4.6217E4,6.1779E4,5.7612E4,1.6938E4,1.2475E4,6.299E4,5.174E4,6.5875E4,4.3964E4,1.5E1,4.1641E4,3.627E3,8.2251E4,1.4699E4,3.314E3,5.17E3,3.1158E4,5.4254E4,2.646E3,5.707E3,4.594E3,2.4884E4,3.1715E4,2.605E3,3.6338E4,1.2372E4,9.27E2,2.0886E4],"tree_param":{"num_deleted":"0","num_feature":"101","num_nodes":"59","size_leaf_vector":"1"}},{"base_weights":[4.4334567E-5,-1.8260287E-1,3.0297846E-1,3.5190493E-2,-3.4241244E-1,5.0374128E-2,5.692085E-1,-9.239265E-2,6.851071E-1,-5.5057544E-1,-2.2260208E-1,2.5338402E-1,-1.8223129E-1,1.0939081E0,3.711101E-1,1.3804254E-2,-4.9526766E-1,1.8373425E-1,9.2400616E-1,-5.80371E-1,-1.0874243E-3,-3.53353E-1,9.2028035E-3,1.10377446E-1,5.429319E-1,-3.897714E-1,3.748246E-3,1.0796423E0,1.532274E1,1.2987728E-1,5.9060216E-1,6.9700377E-3,-1.26487715E-2,-2.1600401E-2,-4.9499854E-2,-4.9744036E-2,1.5312157E-2,4.1775163E-2,1.5353362E-1,-2.6322676E-2,-4.2842504E-2,-2.6157377E-3,1.6785961E-1,-9.420893E-3,-2.311049E-2,1.0935317E-2,-1.5934277E-2,-9.174581E-3,1.3071217E-2,2.528043E-2,1.14487685E-1,-2.16256E-2,1.1640417E-2,-5.754879E-3,1.3364273E-2,8.9799754E-2,4.4819415E-2,2.1204882E0,3.532023E-2,9.441653E-3,-3.996782E-2,2.7510796E-2,1.1678684E-1],"categories":[],"categories_nodes":[],"categories_segments":[],"categories_sizes":[],"default_left":[0,0,0,0,0,0,0,0,0,0,0,0,0,0,0,0,0,0,0,0,0,0,0,0,0,0,0,0,0,0,0,0,0,0,0,0,0,0,0,0,0,0,0,0,0,0,0,0,0,0,0,0,0,0,0,0,0,0,0,0,0,0,0],"id":21,"left_children":[1,3,5,7,9,11,13,15,17,19,21,23,25,27,29,31,33,35,37,39,41,43,45,47,49,51,53,55,57,59,61,-1,-1,-1,-1,-1,-1,-1,-1,-1,-1,-1,-1,-1,-1,-1,-1,-1,-1,-1,-1,-1,-1,-1,-1,-1,-1,-1,-1,-1,-1,-1,-1],"loss_changes":[4.4117223E4,1.7313361E4,2.0169451E4,1.7456436E4,7.1553086E3,7.267254E3,1.5176973E4,7.5291543E3,4.1375537E3,1.7158945E3,5.519282E3,3.4025981E3,2.7683423E3,8.1051055E3,5.612465E3,4.6664546E3,1.1483525E3,1.6101929E3,4.4421504E3,1.4814258E3,9.2746173E2,2.090251E3,4.5113853E3,2.4418396E3,1.7698403E3,9.020737E2,1.1847677E3,5.2464805E3,1.5802249E4,2.7667212E3,3.9101094E3,0E0,0E0,0E0,0E0,0E0,0E0,0E0,0E0,0E0,0E0,0E0,0E0,0E0,0E0,0E0,0E0,0E0,0E0,0E0,0E0,0E0,0E0,0E0,0E0,0E0,0E0,0E0,0E0,0E0,0E0,0E0,0E0],"parents":[2147483647,0,0,1,1,2,2,3,3,4,4,5,5,6,6,7,7,8,8,9,9,10,10,11,11,12,12,13,13,14,14,15,15,16,16,17,17,18,18,19,19,20,20,21,21,22,22,23,23,24,24,25,25,26,26,27,27,28,28,29,29,30,30],"right_children":[2,4,6,8,10,12,14,16,18,20,22,24,26,28,30,32,34,36,38,40,42,44,46,48,50,52,54,56,58,60,62,-1,-1,-1,-1,-1,-1,-1,-1,-1,-1,-1,-1,-1,-1,-1,-1,-1,-1,-1,-1,-1,-1,-1,-1,-1,-1,-1,-1,-1,-1,-1,-1],"split_conditions":[7.2E0,5E0,2.4E1,1E0,4.4E0,3.35E0,2.6E0,7.75E0,2.8125E0,3.676091E1,2.606383E1,2.332696E-1,2.4285715E0,2.0166666E1,2.8888888E0,2.56E1,1.675E1,3.6266668E0,1.5666667E1,2.1666667E0,1.0728E4,4.2E0,6.181818E0,1.8E1,1E0,4.8E0,6.1290324E-1,1.7142857E0,2.857143E0,1.3333333E1,6.2E0,6.9700377E-3,-1.26487715E-2,-2.1600401E-2,-4.9499854E-2,-4.9744036E-2,1.5312157E-2,4.1775163E-2,1.5353362E-1,-2.6322676E-2,-4.2842504E-2,-2.6157377E-3,1.6785961E-1,-9.420893E-3,-2.311049E-2,1.0935317E-2,-1.5934277E-2,-9.174581E-3,1.3071217E-2,2.528043E-2,1.14487685E-1,-2.16256E-2,1.1640417E-2,-5.754879E-3,1.3364273E-2,8.9799754E-2,4.4819415E-2,2.1204882E0,3.532023E-2,9.441653E-3,-3.996782E-2,2.7510796E-2,1.1678684E-1],"split_indices":[99,9,17,4,99,94,93,93,51,17,17,20,86,36,51,39,93,67,47,25,21,93,49,17,4,87,61,49,78,49,50,0,0,0,0,0,0,0,0,0,0,0,0,0,0,0,0,0,0,0,0,0,0,0,0,0,0,0,0,0,0,0,0],"split_type":[0,0,0,0,0,0,0,0,0,0,0,0,0,0,0,0,0,0,0,0,0,0,0,0,0,0,0,0,0,0,0,0,0,0,0,0,0,0,0,0,0,0,0,0,0,0,0,0,0,0,0,0,0,0,0,0,0,0,0,0,0,0,0],"sum_hessian":[7.97344E5,4.9743E5,2.99914E5,2.10523E5,2.86907E5,1.53896E5,1.46018E5,1.75978E5,3.4545E4,1.04807E5,1.821E5,8.2176E4,7.172E4,4.0018E4,1.06E5,1.39268E5,3.671E4,1.1149E4,2.3396E4,9.9416E4,5.391E3,1.16428E5,6.5672E4,5.5009E4,2.7167E4,3.3895E4,3.7825E4,3.9979E4,3.9E1,5.05E4,5.55E4,9.469E4,4.4578E4,3.255E4,4.16E3,1.049E3,1.01E4,2.2471E4,9.25E2,8.3195E4,1.6221E4,5.311E3,8E1,4.6292E4,7.0136E4,4.007E4,2.5602E4,1.8675E4,3.6334E4,2.66E4,5.67E2,3.1718E4,2.177E3,2.6069E4,1.1756E4,8.142E3,3.1837E4,1.3E1,2.6E1,4.7488E4,3.012E3,5.4246E4,1.254E3],"tree_param":{"num_deleted":"0","num_feature":"101","num_nodes":"63","size_leaf_vector":"1"}},{"base_weights":[3.469471E-4,-1.3281061E-1,6.3687253E-1,-4.7440392E-1,5.9163654E-3,1.0721254E0,4.8128298E-1,-5.810908E-1,-2.601571E-1,2.7599743E-1,-2.3394845E-1,1.0606076E0,1.4975466E1,3.645525E-1,9.8991376E-1,-6.471228E-1,-3.5918853E-1,-6.629543E-1,-1.2730435E-1,4.459676E-1,-7.239349E-2,-2.809451E-1,5.622487E-1,7.45231E-1,1.3091772E0,1.9360796E0,-4.025035E-2,9.1881686E-1,2.543694E-1,1.2558905E0,5.730311E-1,-3.0531034E-2,-4.776469E-2,-4.1834943E-2,-1.4739843E-2,-5.0022155E-2,-2.6782071E-2,2.3259135E-2,-1.0279615E-2,1.6258992E-2,5.536973E-2,8.348167E-5,-3.3307847E-2,-2.0020455E-2,-2.328007E-3,2.5799894E-3,5.9646685E-2,2.8918544E-3,4.4066485E-2,1.2287945E0,6.430857E-2,4.7242697E-2,-8.6298764E-2,2.522575E-2,3.4726763E-3,6.856269E-2,1.6744182E-2,1.9758573E-2,8.9461625E-2],"categories":[],"categories_nodes":[],"categories_segments":[],"categories_sizes":[],"default_left":[0,0,0,0,0,0,0,0,0,0,0,0,0,0,0,0,0,0,0,0,0,0,0,0,0,0,0,0,0,0,0,0,0,0,0,0,0,0,0,0,0,0,0,0,0,0,0,0,0,0,0,0,0,0,0,0,0,0,0],"id":22,"left_children":[1,3,5,7,9,11,13,15,17,19,21,23,25,27,29,31,33,35,37,39,41,43,45,47,49,-1,-1,51,53,55,57,-1,-1,-1,-1,-1,-1,-1,-1,-1,-1,-1,-1,-1,-1,-1,-1,-1,-1,-1,-1,-1,-1,-1,-1,-1,-1,-1,-1],"loss_changes":[6.761819E4,3.1264844E4,9.34602E3,4.355297E3,3.0396682E4,5.802539E3,6.0362207E3,1.8635898E3,3.389707E3,1.3069234E4,9.298835E3,2.8456602E3,1.1276715E4,5.0500635E3,2.1033984E3,1.1020234E3,8.967046E2,6.7435986E2,2.2096926E3,1.1850318E4,3.1825652E3,6.57041E3,4.4606484E3,1.4975518E3,1.0835566E4,0E0,0E0,9.458662E2,3.1909165E3,1.2302773E3,1.5984944E3,0E0,0E0,0E0,0E0,0E0,0E0,0E0,0E0,0E0,0E0,0E0,0E0,0E0,0E0,0E0,0E0,0E0,0E0,0E0,0E0,0E0,0E0,0E0,0E0,0E0,0E0,0E0,0E0],"parents":[2147483647,0,0,1,1,2,2,3,3,4,4,5,5,6,6,7,7,8,8,9,9,10,10,11,11,12,12,13,13,14,14,15,15,16,16,17,17,18,18,19,19,20,20,21,21,22,22,23,23,24,24,27,27,28,28,29,29,30,30],"right_children":[2,4,6,8,10,12,14,16,18,20,22,24,26,28,30,32,34,36,38,40,42,44,46,48,50,-1,-1,52,54,56,58,-1,-1,-1,-1,-1,-1,-1,-1,-1,-1,-1,-1,-1,-1,-1,-1,-1,-1,-1,-1,-1,-1,-1,-1,-1,-1,-1,-1],"split_conditions":[1E0,2.0135593E1,3.3516483E0,3.7184114E0,5E0,8.6E0,1E0,7.7E0,1.6105263E1,5.2E0,4.125688E1,3.2E0,6E0,1.8E1,6.45E0,1.4082569E1,1.5294118E1,1.4292683E1,1E0,3.0924875E1,7.777778E-1,1.4084507E-2,2.85E0,4.2E0,7.2E0,1.9360796E0,-4.025035E-2,2.6E0,4E0,1.7166666E1,1.765E1,-3.0531034E-2,-4.776469E-2,-4.1834943E-2,-1.4739843E-2,-5.0022155E-2,-2.6782071E-2,2.3259135E-2,-1.0279615E-2,1.6258992E-2,5.536973E-2,8.348167E-5,-3.3307847E-2,-2.0020455E-2,-2.328007E-3,2.5799894E-3,5.9646685E-2,2.8918544E-3,4.4066485E-2,1.2287945E0,6.430857E-2,4.7242697E-2,-8.6298764E-2,2.522575E-2,3.4726763E-3,6.856269E-2,1.6744182E-2,1.9758573E-2,8.9461625E-2],"split_indices":[16,17,49,52,93,97,4,100,17,49,17,97,5,17,94,43,17,17,49,17,54,16,51,65,91,0,0,63,93,84,42,0,0,0,0,0,0,0,0,0,0,0,0,0,0,0,0,0,0,0,0,0,0,0,0,0,0,0,0],"split_type":[0,0,0,0,0,0,0,0,0,0,0,0,0,0,0,0,0,0,0,0,0,0,0,0,0,0,0,0,0,0,0,0,0,0,0,0,0,0,0,0,0,0,0,0,0,0,0,0,0,0,0,0,0,0,0,0,0,0,0],"sum_hessian":[7.97775E5,6.59758E5,1.38017E5,1.90552E5,4.69206E5,3.6343E4,1.01674E5,1.27206E5,6.3346E4,2.20702E5,2.48504E5,3.6314E4,2.9E1,8.2697E4,1.8977E4,9.8032E4,2.9174E4,1.571E4,4.7636E4,1.48334E5,7.2368E4,2.34654E5,1.385E4,1.6008E4,2.0306E4,1.1E1,1.8E1,1.3712E4,6.8985E4,1.1584E4,7.393E3,8.7653E4,1.0379E4,3.465E3,2.5709E4,4.301E3,1.1409E4,5.559E3,4.2077E4,1.2543E5,2.2904E4,6.4343E4,8.025E3,1.55431E5,7.9223E4,7.654E3,6.196E3,2.646E3,1.3362E4,1.9E1,2.0287E4,1.3579E4,1.33E2,2.932E4,3.9665E4,1.0294E4,1.29E3,6.451E3,9.42E2],"tree_param":{"num_deleted":"0","num_feature":"101","num_nodes":"59","size_leaf_vector":"1"}},{"base_weights":[-3.3879295E-4,-2.0393737E-1,3.7450644E-1,-3.6886978E-1,1.1759961E-1,7.830103E-2,5.708942E-1,-1.7794937E-1,-5.111333E-1,7.695789E-1,-6.293585E-2,-1.7971043E-1,2.9499933E-1,3.4789833E-1,8.0259454E-1,-3.676683E-1,1.736253E-1,-5.945949E-1,-3.220146E-1,7.578798E-1,3.7773396E1,-1.9996956E-1,3.2476193E-1,-9.852386E-2,-8.871602E-1,5.4566056E-1,9.970195E-2,2.6589045E-1,1.0687076E0,7.9994255E-1,1.603474E0,-3.976208E-2,-1.4243744E-2,-4.04742E-3,2.389079E-2,-3.5047006E-2,-2.3121435E-2,-3.449398E-2,-1.23471785E-2,3.7494402E-2,1.3003255E0,2.3772092E0,1.0030959E0,-1.4367628E-2,1.7324213E-2,3.2882076E-3,4.2007674E-2,6.12842E-3,-1.4695083E-2,-9.213983E-2,-2.0541413E-2,2.9724304E-2,-2.5236582E-2,-7.7349856E-3,1.6856745E-2,8.610661E-3,4.1670106E-2,1.0187868E-1,2.4693945E-2,5.6363847E-2,3.205162E-2],"categories":[],"categories_nodes":[],"categories_segments":[],"categories_sizes":[],"default_left":[0,0,0,0,0,0,0,0,0,0,0,0,0,0,0,0,0,0,0,0,0,0,0,0,0,0,0,0,0,0,0,0,0,0,0,0,0,0,0,0,0,0,0,0,0,0,0,0,0,0,0,0,0,0,0,0,0,0,0,0,0],"id":23,"left_children":[1,3,5,7,9,11,13,15,17,19,21,23,25,27,29,31,33,35,37,39,41,43,45,47,49,51,53,55,57,59,-1,-1,-1,-1,-1,-1,-1,-1,-1,-1,-1,-1,-1,-1,-1,-1,-1,-1,-1,-1,-1,-1,-1,-1,-1,-1,-1,-1,-1,-1,-1],"loss_changes":[6.0934457E4,2.743881E4,1.6347598E4,9.288418E3,2.0647998E4,6.2644053E3,8.730859E3,9.739807E3,3.0927969E3,1.643585E4,7.2987305E3,2.9374062E3,2.981001E3,5.0898994E3,6.8431094E3,3.3571318E3,3.963401E3,1.9104805E3,1.6568066E3,7.651623E3,1.1160723E3,4.846989E3,4.7889043E3,1.9819957E3,2.395646E3,1.3680024E3,2.0676765E3,4.1102065E3,4.8975127E3,4.309676E3,0E0,0E0,0E0,0E0,0E0,0E0,0E0,0E0,0E0,0E0,0E0,0E0,0E0,0E0,0E0,0E0,0E0,0E0,0E0,0E0,0E0,0E0,0E0,0E0,0E0,0E0,0E0,0E0,0E0,0E0,0E0],"parents":[2147483647,0,0,1,1,2,2,3,3,4,4,5,5,6,6,7,7,8,8,9,9,10,10,11,11,12,12,13,13,14,14,15,15,16,16,17,17,18,18,19,19,20,20,21,21,22,22,23,23,24,24,25,25,26,26,27,27,28,28,29,29],"right_children":[2,4,6,8,10,12,14,16,18,20,22,24,26,28,30,32,34,36,38,40,42,44,46,48,50,52,54,56,58,60,-1,-1,-1,-1,-1,-1,-1,-1,-1,-1,-1,-1,-1,-1,-1,-1,-1,-1,-1,-1,-1,-1,-1,-1,-1,-1,-1,-1,-1,-1,-1],"split_conditions":[1.3636364E-1,2.7E1,3E0,1E0,1E0,5.8E0,1E0,2.1E1,1E0,2.0166666E1,1E0,2.7777777E0,3.8181818E0,2.8E0,4.32E1,1.5294118E1,3.3E1,2.2857144E0,1.8E1,8.6E0,2.5E1,4.033557E1,3.3E1,5.4E0,8.2E0,1.325E1,1E0,8.35E0,5.55E0,3E0,1.603474E0,-3.976208E-2,-1.4243744E-2,-4.04742E-3,2.389079E-2,-3.5047006E-2,-2.3121435E-2,-3.449398E-2,-1.23471785E-2,3.7494402E-2,1.3003255E0,2.3772092E0,1.0030959E0,-1.4367628E-2,1.7324213E-2,3.2882076E-3,4.2007674E-2,6.12842E-3,-1.4695083E-2,-9.213983E-2,-2.0541413E-2,2.9724304E-2,-2.5236582E-2,-7.7349856E-3,1.6856745E-2,8.610661E-3,4.1670106E-2,1.0187868E-1,2.4693945E-2,5.6363847E-2,3.205162E-2],"split_indices":[16,17,50,6,6,99,16,17,1,36,1,79,94,62,99,17,8,86,17,97,89,17,17,94,71,48,16,100,48,48,0,0,0,0,0,0,0,0,0,0,0,0,0,0,0,0,0,0,0,0,0,0,0,0,0,0,0,0,0,0,0],"split_type":[0,0,0,0,0,0,0,0,0,0,0,0,0,0,0,0,0,0,0,0,0,0,0,0,0,0,0,0,0,0,0,0,0,0,0,0,0,0,0,0,0,0,0,0,0,0,0,0,0,0,0,0,0,0,0,0,0,0,0,0,0],"sum_hessian":[7.98427E5,5.174E5,2.81027E5,3.41981E5,1.75419E5,1.12041E5,1.68986E5,1.46021E5,1.9596E5,3.804E4,1.37379E5,5.1145E4,6.0896E4,8.6112E4,8.2874E4,9.4842E4,5.1179E4,1.35957E5,6.0003E4,3.8029E4,1.1E1,1.01503E5,3.5876E4,4.5881E4,5.264E3,2.6667E4,3.4229E4,7.7317E4,8.795E3,8.2868E4,6E0,1.5384E4,7.9458E4,2.7862E4,2.3317E4,7.5335E4,6.0622E4,1.0168E4,4.9835E4,3.8018E4,1.1E1,6E0,5E0,8.751E4,1.3993E4,2.3878E4,1.1998E4,2.1524E4,2.4357E4,1.75E3,3.514E3,2.5483E4,1.184E3,1.6524E4,1.7705E4,6.6364E4,1.0953E4,3.274E3,5.521E3,2.708E4,5.5788E4],"tree_param":{"num_deleted":"0","num_feature":"101","num_nodes":"61","size_leaf_vector":"1"}},{"base_weights":[2.1669836E-4,-1.1990654E-1,5.75286E-1,-3.5415527E-1,4.8828706E-2,3.3455068E-1,8.200912E-1,-2.4474701E-1,-5.6857723E-1,-1.9716549E-1,3.015981E-1,1.047196E0,2.670505E-1,8.16483E-1,2.1303629E1,-5.151655E-1,-1.282768E-1,-6.3874876E-1,-3.1537217E-1,-4.6629462E-1,-6.033967E-2,1.4451943E-1,7.434997E-1,1.0771523E0,-2.5473323E0,1.7314827E-1,7.9152936E-1,1.0699024E0,5.6616765E-1,1.5600274E0,3.094977E-1,-3.7120104E-2,-1.9590875E-2,3.73829E-4,-1.94258E-2,-2.5789326E-2,-3.734338E-2,-1.8934878E-2,2.7792692E-2,-2.1025158E-2,-4.8514545E-2,1.03487065E-2,-9.7444095E-3,1.0814819E-2,-2.5516799E-2,3.6677293E-2,6.5335983E-1,5.6117572E-2,-5.6703646E-2,-1.5165958E-1,-1.4528841E-2,1.1398782E-2,-2.9602537E-2,6.5070696E-2,2.7327081E-2,4.3163892E-2,6.7185245E-2,2.0679062E-2,5.0457593E-2],"categories":[],"categories_nodes":[],"categories_segments":[],"categories_sizes":[],"default_left":[0,0,0,0,0,0,0,0,0,0,0,0,0,0,0,0,0,0,0,0,0,0,0,0,0,0,0,0,0,0,0,0,0,0,0,0,0,0,0,0,0,0,0,0,0,0,0,0,0,0,0,0,0,0,0,0,0,0,0],"id":24,"left_children":[1,3,5,7,9,11,13,15,17,19,21,23,25,27,29,31,33,35,37,39,41,43,45,47,49,51,53,55,57,-1,-1,-1,-1,-1,-1,-1,-1,-1,-1,-1,-1,-1,-1,-1,-1,-1,-1,-1,-1,-1,-1,-1,-1,-1,-1,-1,-1,-1,-1],"loss_changes":[5.5144574E4,2.6100812E4,8.128629E3,6.486246E3,2.3867725E4,3.3451045E3,5.034961E3,5.766167E3,1.6594824E3,7.163328E3,1.3140994E4,6.505E2,3.1287007E3,4.3367773E3,1.5980767E3,1.5444229E3,4.5209395E3,9.718887E2,1.1186682E3,1.5126318E3,4.6385537E3,6.565157E3,6.0791523E3,5.977466E2,5.3609528E1,2.2608232E3,1.2041636E3,1.9208438E3,2.3247861E3,0E0,0E0,0E0,0E0,0E0,0E0,0E0,0E0,0E0,0E0,0E0,0E0,0E0,0E0,0E0,0E0,0E0,0E0,0E0,0E0,0E0,0E0,0E0,0E0,0E0,0E0,0E0,0E0,0E0,0E0],"parents":[2147483647,0,0,1,1,2,2,3,3,4,4,5,5,6,6,7,7,8,8,9,9,10,10,11,11,12,12,13,13,14,14,15,15,16,16,17,17,18,18,19,19,20,20,21,21,22,22,23,23,24,24,25,25,26,26,27,27,28,28],"right_children":[2,4,6,8,10,12,14,16,18,20,22,24,26,28,30,32,34,36,38,40,42,44,46,48,50,52,54,56,58,-1,-1,-1,-1,-1,-1,-1,-1,-1,-1,-1,-1,-1,-1,-1,-1,-1,-1,-1,-1,-1,-1,-1,-1,-1,-1,-1,-1,-1,-1],"split_conditions":[1E0,2.26E1,3E0,5.25E0,2.9583333E0,1.7E1,4.32E1,1.7153847E1,7.4626864E-3,4.75E0,8.2E0,2.6E0,1E0,4.25E0,2E-1,1.5294118E1,4.4104047E0,4E0,5E0,1.425E1,4.15E0,1E1,2.36E1,5.142857E0,2E0,1.155E1,5.5E0,2.4E1,1E0,1.5600274E0,3.094977E-1,-3.7120104E-2,-1.9590875E-2,3.73829E-4,-1.94258E-2,-2.5789326E-2,-3.734338E-2,-1.8934878E-2,2.7792692E-2,-2.1025158E-2,-4.8514545E-2,1.03487065E-2,-9.7444095E-3,1.0814819E-2,-2.5516799E-2,3.6677293E-2,6.5335983E-1,5.6117572E-2,-5.6703646E-2,-1.5165958E-1,-1.4528841E-2,1.1398782E-2,-2.9602537E-2,6.5070696E-2,2.7327081E-2,4.3163892E-2,6.7185245E-2,2.0679062E-2,5.0457593E-2],"split_indices":[16,17,97,94,52,17,99,17,16,99,99,63,4,47,24,17,49,47,50,94,94,10,97,79,7,94,47,17,4,0,0,0,0,0,0,0,0,0,0,0,0,0,0,0,0,0,0,0,0,0,0,0,0,0,0,0,0,0,0],"split_type":[0,0,0,0,0,0,0,0,0,0,0,0,0,0,0,0,0,0,0,0,0,0,0,0,0,0,0,0,0,0,0,0,0,0,0,0,0,0,0,0,0,0,0,0,0,0,0,0,0,0,0,0,0,0,0,0,0,0,0],"sum_hessian":[7.98278E5,6.60343E5,1.37935E5,2.76495E5,3.83848E5,6.9547E4,6.8388E4,1.83081E5,9.3414E4,1.94531E5,1.89317E5,6.016E3,6.3531E4,6.8377E4,1.1E1,5.5114E4,1.27967E5,7.3142E4,2.0272E4,6.5565E4,1.28966E5,1.39671E5,4.9646E4,5.967E3,4.9E1,5.3885E4,9.646E3,3.3976E4,3.4401E4,6E0,5E0,1.9389E4,3.5725E4,8.4098E4,4.3869E4,3.4225E4,3.8917E4,1.8899E4,1.373E3,6.0106E4,5.459E3,4.3179E4,8.5787E4,1.25875E5,1.3796E4,4.9607E4,3.9E1,5.848E3,1.19E2,4E1,9E0,5.0283E4,3.602E3,3.129E3,6.517E3,1.9366E4,1.461E4,2.5589E4,8.812E3],"tree_param":{"num_deleted":"0","num_feature":"101","num_nodes":"59","size_leaf_vector":"1"}},{"base_weights":[2.9639E-4,-1.8695496E-1,3.3747733E-1,-3.2849345E-1,1.4027084E-1,6.52612E-2,5.1814044E-1,-1.2722813E-1,-4.5985737E-1,7.931737E-1,-2.6532449E-2,2.7024433E-1,-1.672723E-1,9.118026E-1,4.071957E-1,-3.4488276E-1,1.3573171E-1,-5.078196E-1,-2.0335954E-1,7.8040904E-1,1.2198285E0,1.19731605E-1,-3.8415736E-1,7.535206E-2,4.7327286E-1,-3.3688962E-1,5.0292756E-2,9.0380317E-1,1.2449009E1,2.513472E-1,6.1329514E-1,-3.6121365E-2,-1.32280635E-2,1.7421087E-2,-6.239069E-3,-2.2697126E-2,-3.4844737E-2,-2.0058963E-2,-4.2335034E-4,3.8703617E-2,1.0325265E0,3.4632997E-3,7.686784E-2,-2.9087437E-2,-1.7722874E-4,6.908881E-3,-5.8867186E-2,4.788628E-2,1.9817522E-2,-1.3389385E-2,-4.2905387E-2,-1.0254874E-2,1.3583042E-2,6.704273E-2,3.5770386E-2,-4.5165595E-2,1.6956526E0,8.123902E-3,4.6936978E-2,3.2999605E-2,-3.3669252E-2],"categories":[],"categories_nodes":[],"categories_segments":[],"categories_sizes":[],"default_left":[0,0,0,0,0,0,0,0,0,0,0,0,0,0,0,0,0,0,0,0,0,0,0,0,0,0,0,0,0,0,0,0,0,0,0,0,0,0,0,0,0,0,0,0,0,0,0,0,0,0,0,0,0,0,0,0,0,0,0,0,0],"id":25,"left_children":[1,3,5,7,9,11,13,15,17,19,21,23,25,27,29,31,33,35,37,39,-1,41,43,45,47,49,51,53,55,57,59,-1,-1,-1,-1,-1,-1,-1,-1,-1,-1,-1,-1,-1,-1,-1,-1,-1,-1,-1,-1,-1,-1,-1,-1,-1,-1,-1,-1,-1,-1],"loss_changes":[5.0378445E4,2.3760375E4,1.4011119E4,9.468109E3,1.6869691E4,5.4174233E3,7.478668E3,8.0947886E3,2.6655469E3,9.475389E3,6.4537925E3,2.3900957E3,1.9650833E3,3.4621797E3,4.290965E3,2.3463145E3,3.548983E3,1.859168E3,1.3160596E3,3.9487168E3,0E0,6.2643926E3,2.6933599E3,2.4257905E3,1.101978E3,1.0773638E3,1.3189166E3,3.0968164E3,7.4853994E3,4.647008E3,3.4567188E3,0E0,0E0,0E0,0E0,0E0,0E0,0E0,0E0,0E0,0E0,0E0,0E0,0E0,0E0,0E0,0E0,0E0,0E0,0E0,0E0,0E0,0E0,0E0,0E0,0E0,0E0,0E0,0E0,0E0,0E0],"parents":[2147483647,0,0,1,1,2,2,3,3,4,4,5,5,6,6,7,7,8,8,9,9,10,10,11,11,12,12,13,13,14,14,15,15,16,16,17,17,18,18,19,19,21,21,22,22,23,23,24,24,25,25,26,26,27,27,28,28,29,29,30,30],"right_children":[2,4,6,8,10,12,14,16,18,20,22,24,26,28,30,32,34,36,38,40,-1,42,44,46,48,50,52,54,56,58,60,-1,-1,-1,-1,-1,-1,-1,-1,-1,-1,-1,-1,-1,-1,-1,-1,-1,-1,-1,-1,-1,-1,-1,-1,-1,-1,-1,-1,-1,-1],"split_conditions":[1.25E-1,2.7698412E1,3E0,3.6E0,1E0,5.15E0,2.1E0,2.0135593E1,4.2E0,8.6E0,9.25E0,6E0,6.1E0,9E0,1E0,1.5294118E1,1E0,8.8E0,3.5E0,1.8E1,1.2198285E0,4.9E1,3.6E0,3.1E0,8.75E0,2.4444444E0,1E0,2.4E0,1.42E2,2.8E0,1.34E1,-3.6121365E-2,-1.32280635E-2,1.7421087E-2,-6.239069E-3,-2.2697126E-2,-3.4844737E-2,-2.0058963E-2,-4.2335034E-4,3.8703617E-2,1.0325265E0,3.4632997E-3,7.686784E-2,-2.9087437E-2,-1.7722874E-4,6.908881E-3,-5.8867186E-2,4.788628E-2,1.9817522E-2,-1.3389385E-2,-4.2905387E-2,-1.0254874E-2,1.3583042E-2,6.704273E-2,3.5770386E-2,-4.5165595E-2,1.6956526E0,8.123902E-3,4.6936978E-2,3.2999605E-2,-3.3669252E-2],"split_indices":[16,17,50,93,6,94,94,17,96,97,93,65,100,97,16,17,6,93,97,36,0,17,97,88,41,79,16,47,8,62,94,0,0,0,0,0,0,0,0,0,0,0,0,0,0,0,0,0,0,0,0,0,0,0,0,0,0,0,0,0,0],"split_type":[0,0,0,0,0,0,0,0,0,0,0,0,0,0,0,0,0,0,0,0,0,0,0,0,0,0,0,0,0,0,0,0,0,0,0,0,0,0,0,0,0,0,0,0,0,0,0,0,0,0,0,0,0,0,0,0,0,0,0,0,0],"sum_hessian":[7.97913E5,5.13014E5,2.84899E5,3.58115E5,1.54899E5,1.13653E5,1.71246E5,1.4143E5,2.16685E5,3.152E4,1.23379E5,6.0405E4,5.3248E4,3.7649E4,1.33597E5,7.7381E4,6.4049E4,1.82549E5,3.4136E4,3.1504E4,1.6E1,8.7566E4,3.5813E4,3.0821E4,2.9584E4,2.9921E4,2.3327E4,3.7624E4,2.5E1,7.6074E4,5.7523E4,1.3573E4,6.3808E4,3.5261E4,2.8788E4,1.4207E5,4.0479E4,1.694E4,1.7196E4,3.1495E4,9E0,8.4557E4,3.009E3,2.3574E4,1.2239E4,2.935E4,1.471E3,4.052E3,2.5532E4,2.642E4,3.501E3,1.0831E4,1.2496E4,1.1331E4,2.6293E4,1.6E1,9E0,6.7366E4,8.708E3,5.5509E4,2.014E3],"tree_param":{"num_deleted":"0","num_feature":"101","num_nodes":"61","size_leaf_vector":"1"}},{"base_weights":[-1.4502523E-4,-1.7657864E-1,3.2729226E-1,-3.0959713E-1,1.3108969E-1,2.2531958E-1,9.102751E-1,-4.03841E-1,-6.453561E-2,4.7008207E-1,-1.5340059E-1,4.3380985E-1,-6.2093686E-2,1.1309639E0,4.8993605E-1,-5.6559396E-1,-3.0388242E-1,-4.515476E-1,5.32945E-2,4.6501875E-1,3.328931E1,-2.798485E-1,2.037722E-1,2.5273302E-1,7.35537E-1,-2.2131498E-1,1.4201015E-1,1.2305683E0,-2.836056E-1,6.5012556E-1,-3.3707652E-2,-2.6368285E-2,-4.3227177E-2,-2.3781672E-2,-9.40983E-3,-1.7025387E-2,-3.5227235E-2,1.7322144E-2,-4.846398E-3,1.1847365E-2,5.156522E-2,2.1674364E0,8.8325065E-1,-3.0620393E-4,-2.2435972E-2,-1.8639283E-2,1.990325E-2,1.1395788E-3,2.3812992E-2,3.655938E-2,9.69946E-1,-5.4553645E-3,-2.7697379E-2,3.3188548E-2,2.2051379E-3,7.9509385E-2,4.654704E-2,5.6077777E-3,-9.1735154E-2,2.9904354E-2,1.6309592E-1,-1.50666535E-2,6.387466E-2],"categories":[],"categories_nodes":[],"categories_segments":[],"categories_sizes":[],"default_left":[0,0,0,0,0,0,0,0,0,0,0,0,0,0,0,0,0,0,0,0,0,0,0,0,0,0,0,0,0,0,0,0,0,0,0,0,0,0,0,0,0,0,0,0,0,0,0,0,0,0,0,0,0,0,0,0,0,0,0,0,0,0,0],"id":26,"left_children":[1,3,5,7,9,11,13,15,17,19,21,23,25,27,29,31,33,35,37,39,41,43,45,47,49,51,53,55,57,59,61,-1,-1,-1,-1,-1,-1,-1,-1,-1,-1,-1,-1,-1,-1,-1,-1,-1,-1,-1,-1,-1,-1,-1,-1,-1,-1,-1,-1,-1,-1,-1,-1],"loss_changes":[4.6100277E4,2.1222633E4,1.6610674E4,8.361441E3,1.5095477E4,1.4251039E4,3.858082E3,4.2275195E3,4.585767E3,1.1849636E4,3.8437249E3,7.530496E3,3.2493848E3,3.8435664E3,1.2015281E3,1.1407383E3,3.210959E3,6.59021E2,3.394907E3,9.222745E3,9.5702734E2,2.9053213E3,2.492843E3,4.4274727E3,4.1801504E3,2.0963584E3,2.238309E3,2.743996E3,1.1022642E3,1.4883652E3,1.1779436E3,0E0,0E0,0E0,0E0,0E0,0E0,0E0,0E0,0E0,0E0,0E0,0E0,0E0,0E0,0E0,0E0,0E0,0E0,0E0,0E0,0E0,0E0,0E0,0E0,0E0,0E0,0E0,0E0,0E0,0E0,0E0,0E0],"parents":[2147483647,0,0,1,1,2,