{"learner":{"attributes":{"scikit_learn":"{\"_estimator_type\": \"regressor\"}"},"feature_names":["surface_hard","surface_clay","surface_grass","surface_carpet","is_best_of_5","round_ordinal","is_atp","player_rank","opp_rank","rank_delta","rank_ratio","log_rank","log_opp_rank","days_rest","matches_L14D","is_b2b","h2h_win_rate","h2h_avg_games","career_win_pct_vs_top20","career_win_pct_vs_top50","career_win_pct_vs_top100","career_matches","is_early_career","opp_aces_hard_L10","opp_aces_clay_L10","opp_aces_grass_L10","opp_double_faults_hard_L10","opp_double_faults_clay_L10","opp_double_faults_grass_L10","opp_total_games_hard_L10","opp_total_games_clay_L10","opp_total_games_grass_L10","opp_games_won_hard_L10","opp_games_won_clay_L10","opp_games_won_grass_L10","opp_bp_won_hard_L10","opp_bp_won_clay_L10","opp_bp_won_grass_L10","total_games_L5","total_games_L20","total_games_Season","games_won_L5","games_won_L20","games_won_Season","total_sets_L5","total_sets_L20","total_sets_Season","aces_L5","aces_L20","aces_Season","bp_won_L5","bp_won_L20","bp_won_Season","total_tiebreaks_L5","total_tiebreaks_L20","total_tiebreaks_Season","double_faults_L5","double_faults_L20","double_faults_Season","won_match_L5","won_match_L20","won_match_Season","sets_won_L5","sets_won_L20","sets_won_Season","bp_faced_L5","bp_faced_L20","bp_faced_Season","svpt_L5","svpt_L20","svpt_Season","svc_games_L5","svc_games_L20","svc_games_Season","aces_hard_L10","aces_clay_L10","aces_grass_L10","double_faults_hard_L10","double_faults_clay_L10","double_faults_grass_L10","total_games_hard_L10","total_games_clay_L10","total_games_grass_L10","games_won_hard_L10","games_won_clay_L10","games_won_grass_L10","bp_won_hard_L10","bp_won_clay_L10","bp_won_grass_L10","opp_total_games_L5","opp_total_games_L20","opp_games_won_L5","opp_games_won_L20","opp_aces_L5","opp_aces_L20","opp_double_faults_L5","opp_double_faults_L20","opp_bp_won_L5","opp_bp_won_L20","opp_bp_faced_L5","opp_bp_faced_L20"],"feature_types":["int","int","int","int","int","float","int","float","float","float","float","float","float","float","int","int","float","float","float","float","float","int","int","float","float","float","float","float","float","float","float","float","float","float","float","float","float","float","float","float","float","float","float","float","float","float","float","float","float","float","float","float","float","float","float","float","float","float","float","float","float","float","float","float","float","float","float","float","float","float","float","float","float","float","float","float","float","float","float","float","float","float","float","float","float","float","float","float","float","float","float","float","float","float","float","float","float","float","float","float","float"],"gradient_booster":{"model":{"cats":{"enc":[],"feature_segments":[],"sorted_idx":[]},"gbtree_model_param":{"num_parallel_tree":"1","num_trees":"400"},"iteration_indptr":[0,1,2,3,4,5,6,7,8,9,10,11,12,13,14,15,16,17,18,19,20,21,22,23,24,25,26,27,28,29,30,31,32,33,34,35,36,37,38,39,40,41,42,43,44,45,46,47,48,49,50,51,52,53,54,55,56,57,58,59,60,61,62,63,64,65,66,67,68,69,70,71,72,73,74,75,76,77,78,79,80,81,82,83,84,85,86,87,88,89,90,91,92,93,94,95,96,97,98,99,100,101,102,103,104,105,106,107,108,109,110,111,112,113,114,115,116,117,118,119,120,121,122,123,124,125,126,127,128,129,130,131,132,133,134,135,136,137,138,139,140,141,142,143,144,145,146,147,148,149,150,151,152,153,154,155,156,157,158,159,160,161,162,163,164,165,166,167,168,169,170,171,172,173,174,175,176,177,178,179,180,181,182,183,184,185,186,187,188,189,190,191,192,193,194,195,196,197,198,199,200,201,202,203,204,205,206,207,208,209,210,211,212,213,214,215,216,217,218,219,220,221,222,223,224,225,226,227,228,229,230,231,232,233,234,235,236,237,238,239,240,241,242,243,244,245,246,247,248,249,250,251,252,253,254,255,256,257,258,259,260,261,262,263,264,265,266,267,268,269,270,271,272,273,274,275,276,277,278,279,280,281,282,283,284,285,286,287,288,289,290,291,292,293,294,295,296,297,298,299,300,301,302,303,304,305,306,307,308,309,310,311,312,313,314,315,316,317,318,319,320,321,322,323,324,325,326,327,328,329,330,331,332,333,334,335,336,337,338,339,340,341,342,343,344,345,346,347,348,349,350,351,352,353,354,355,356,357,358,359,360,361,362,363,364,365,366,367,368,369,370,371,372,373,374,375,376,377,378,379,380,381,382,383,384,385,386,387,388,389,390,391,392,393,394,395,396,397,398,399,400],"tree_info":[0,0,0,0,0,0,0,0,0,0,0,0,0,0,0,0,0,0,0,0,0,0,0,0,0,0,0,0,0,0,0,0,0,0,0,0,0,0,0,0,0,0,0,0,0,0,0,0,0,0,0,0,0,0,0,0,0,0,0,0,0,0,0,0,0,0,0,0,0,0,0,0,0,0,0,0,0,0,0,0,0,0,0,0,0,0,0,0,0,0,0,0,0,0,0,0,0,0,0,0,0,0,0,0,0,0,0,0,0,0,0,0,0,0,0,0,0,0,0,0,0,0,0,0,0,0,0,0,0,0,0,0,0,0,0,0,0,0,0,0,0,0,0,0,0,0,0,0,0,0,0,0,0,0,0,0,0,0,0,0,0,0,0,0,0,0,0,0,0,0,0,0,0,0,0,0,0,0,0,0,0,0,0,0,0,0,0,0,0,0,0,0,0,0,0,0,0,0,0,0,0,0,0,0,0,0,0,0,0,0,0,0,0,0,0,0,0,0,0,0,0,0,0,0,0,0,0,0,0,0,0,0,0,0,0,0,0,0,0,0,0,0,0,0,0,0,0,0,0,0,0,0,0,0,0,0,0,0,0,0,0,0,0,0,0,0,0,0,0,0,0,0,0,0,0,0,0,0,0,0,0,0,0,0,0,0,0,0,0,0,0,0,0,0,0,0,0,0,0,0,0,0,0,0,0,0,0,0,0,0,0,0,0,0,0,0,0,0,0,0,0,0,0,0,0,0,0,0,0,0,0,0,0,0,0,0,0,0,0,0,0,0,0,0,0,0,0,0,0,0,0,0,0,0,0,0,0,0,0,0,0,0,0,0,0,0,0,0,0,0,0,0,0,0,0,0,0,0,0,0,0,0,0,0,0,0,0,0,0,0,0,0,0,0,0,0,0,0,0,0],"trees":[{"base_weights":[5.8843027E-4,-1.1500326E-1,4.8832846E-1,-3.2650372E-1,7.7450653E-3,3.183069E-1,6.6367835E-1,-3.6373308E-1,-1.8695392E-1,7.838291E-2,-5.76784E-2,2.7157354E-1,4.7499478E-1,8.6621153E-1,5.272213E-1,-3.8154033E-1,-3.1492397E-1,-1.9220549E-1,9.697042E-2,4.0982608E-2,2.4314481E-1,-8.385795E-2,2.8432723E-2,7.96901E-2,3.0502856E-1,5.076008E-1,3.9207745E-2,6.4759177E-1,1.0402977E0,3.75574E-1,9.646638E-1,-1.9141247E-2,-9.667094E-3,-1.3392113E-2,-1.7120196E-2,-9.885008E-3,1.5779244E-3,-5.4841447E-3,2.0915514E-2,9.721494E-4,1.67946E-2,1.0431294E-2,3.1747174E-2,-4.7795265E-3,4.70685E-3,3.8572034E-4,1.1227662E-2,-5.8535165E-3,1.0081391E-2,1.1579466E-2,1.9145444E-2,2.6102925E-2,-8.4028775E-3,1.4112233E-2,-1.2289348E-2,5.7404198E-2,2.8616155E-2,4.3415885E-2,6.418535E-2,1.0148621E-2,2.5599366E-2,8.274108E-2,4.2762704E-2],"categories":[],"categories_nodes":[],"categories_segments":[],"categories_sizes":[],"default_left":[0,0,0,0,0,0,0,0,0,0,0,0,0,0,0,0,0,0,0,0,0,0,0,0,0,0,0,0,0,0,0,0,0,0,0,0,0,0,0,0,0,0,0,0,0,0,0,0,0,0,0,0,0,0,0,0,0,0,0,0,0,0,0],"id":0,"left_children":[1,3,5,7,9,11,13,15,17,19,21,23,25,27,29,31,33,35,37,39,41,43,45,47,49,51,53,55,57,59,61,-1,-1,-1,-1,-1,-1,-1,-1,-1,-1,-1,-1,-1,-1,-1,-1,-1,-1,-1,-1,-1,-1,-1,-1,-1,-1,-1,-1,-1,-1,-1,-1],"loss_changes":[4.4968414E4,1.6739871E4,4.555574E3,1.2301055E3,1.8855544E3,5.6793945E2,2.078461E3,1.6227734E2,7.438818E1,1.2088881E3,4.7752667E2,3.8360303E2,2.5317725E2,1.1515742E3,2.9812188E3,3.2978516E1,6.450342E1,6.022693E1,6.0240532E1,1.01563586E3,4.9064014E2,3.39235E2,2.0063637E2,2.1296568E2,2.909253E2,1.62104E2,8.609919E1,5.0494678E2,7.042461E2,7.857383E2,8.719844E2,0E0,0E0,0E0,0E0,0E0,0E0,0E0,0E0,0E0,0E0,0E0,0E0,0E0,0E0,0E0,0E0,0E0,0E0,0E0,0E0,0E0,0E0,0E0,0E0,0E0,0E0,0E0,0E0,0E0,0E0,0E0,0E0],"parents":[2147483647,0,0,1,1,2,2,3,3,4,4,5,5,6,6,7,7,8,8,9,9,10,10,11,11,12,12,13,13,14,14,15,15,16,16,17,17,18,18,19,19,20,20,21,21,22,22,23,23,24,24,25,25,26,26,27,27,28,28,29,29,30,30],"right_children":[2,4,6,8,10,12,14,16,18,20,22,24,26,28,30,32,34,36,38,40,42,44,46,48,50,52,54,56,58,60,62,-1,-1,-1,-1,-1,-1,-1,-1,-1,-1,-1,-1,-1,-1,-1,-1,-1,-1,-1,-1,-1,-1,-1,-1,-1,-1,-1,-1,-1,-1,-1,-1],"split_conditions":[3.0051723E1,2.0135593E1,3.4E1,1.909756E1,3.2E0,8.2E0,1E0,1.8082474E1,3.34E1,9.4E0,6.15E0,5E0,4.75E0,3.1E1,4.5138462E1,1E0,1.9E1,8.5714287E-1,7E0,1.075E1,1.875E1,2.9194717E1,1.185E1,2.355E1,3.2E1,4.4E0,5.5445546E-1,7.214286E1,3.6E1,6.4E0,1.4E0,-1.9141247E-2,-9.667094E-3,-1.3392113E-2,-1.7120196E-2,-9.885008E-3,1.5779244E-3,-5.4841447E-3,2.0915514E-2,9.721494E-4,1.67946E-2,1.0431294E-2,3.1747174E-2,-4.7795265E-3,4.70685E-3,3.8572034E-4,1.1227662E-2,-5.8535165E-3,1.0081391E-2,1.1579466E-2,1.9145444E-2,2.6102925E-2,-8.4028775E-3,1.4112233E-2,-1.2289348E-2,5.7404198E-2,2.8616155E-2,4.3415885E-2,6.418535E-2,1.0148621E-2,2.5599366E-2,8.274108E-2,4.2762704E-2],"split_indices":[17,17,17,17,97,23,4,17,82,93,48,8,57,8,17,4,17,61,23,48,94,17,48,39,17,51,61,70,17,47,50,0,0,0,0,0,0,0,0,0,0,0,0,0,0,0,0,0,0,0,0,0,0,0,0,0,0,0,0,0,0,0,0],"split_type":[0,0,0,0,0,0,0,0,0,0,0,0,0,0,0,0,0,0,0,0,0,0,0,0,0,0,0,0,0,0,0,0,0,0,0,0,0,0,0,0,0,0,0,0,0,0,0,0,0,0,0,0,0,0,0,0,0,0,0,0,0,0,0],"sum_hessian":[7.97611E5,6.44798E5,1.52813E5,2.36793E5,4.08005E5,7.7587E4,7.5226E4,1.86923E5,4.987E4,1.96185E5,2.1182E5,5.9765E4,1.7822E4,3.0279E4,4.4947E4,1.3695E5,4.9973E4,4.8965E4,9.05E2,1.59892E5,3.6293E4,1.62437E5,4.9383E4,8.874E3,5.0891E4,1.6581E4,1.241E3,1.3425E4,1.6854E4,3.3378E4,1.1569E4,1.3602E5,9.3E2,1.8423E4,3.155E4,4.7792E4,1.173E3,5.51E2,3.54E2,1.4901E5,1.0882E4,3.3356E4,2.937E3,1.52393E5,1.0044E4,4.4666E4,4.717E3,3.395E3,5.479E3,2.6195E4,2.4696E4,1.6234E4,3.47E2,6.7E2,5.71E2,1.753E3,1.1672E4,9.879E3,6.975E3,1.4736E4,1.8642E4,1.581E3,9.988E3],"tree_param":{"num_deleted":"0","num_feature":"101","num_nodes":"63","size_leaf_vector":"1"}},{"base_weights":[-1.7051137E-4,-1.0984461E-1,4.625587E-1,-3.104244E-1,6.661985E-3,3.253865E-1,6.5973157E-1,-3.4557414E-1,-1.7836331E-1,7.470478E-2,-5.6246664E-2,2.661927E-1,4.384211E-1,8.988944E-1,5.2765274E-1,-3.6231315E-1,-2.995586E-1,-1.8279119E-1,1.5543489E-1,-7.318969E-4,1.4683554E-1,-2.7928112E-2,-1.2920201E-1,2.264971E-1,4.1468668E-1,5.4172117E-1,2.492368E-1,1.0127333E0,3.5097545E-1,3.7254775E-1,9.138886E-1,-1.817447E-2,-9.592934E-3,-1.2801035E-2,-1.6250929E-2,-9.422472E-3,2.1058682E-3,2.1910572E-2,-7.926734E-3,-6.2096294E-4,2.2071524E-2,5.8448142E-3,1.7870497E-2,-2.2634878E-3,5.9126667E-3,-7.765066E-3,1.2564277E-3,2.913798E-3,1.2793838E-2,2.2675423E-2,4.301557E-3,4.1222367E-2,2.3961348E-2,1.2012775E-2,1.2601388E-1,4.5702707E-2,8.993771E-2,7.780403E-2,1.4183114E-2,2.2819107E-2,9.019642E-3,7.7009104E-2,3.9796855E-2],"categories":[],"categories_nodes":[],"categories_segments":[],"categories_sizes":[],"default_left":[0,0,0,0,0,0,0,0,0,0,0,0,0,0,0,0,0,0,0,0,0,0,0,0,0,0,0,0,0,0,0,0,0,0,0,0,0,0,0,0,0,0,0,0,0,0,0,0,0,0,0,0,0,0,0,0,0,0,0,0,0,0,0],"id":1,"left_children":[1,3,5,7,9,11,13,15,17,19,21,23,25,27,29,31,33,35,37,39,41,43,45,47,49,51,53,55,57,59,61,-1,-1,-1,-1,-1,-1,-1,-1,-1,-1,-1,-1,-1,-1,-1,-1,-1,-1,-1,-1,-1,-1,-1,-1,-1,-1,-1,-1,-1,-1,-1,-1],"loss_changes":[4.0523977E4,1.5084988E4,4.13774E3,1.1008594E3,1.747876E3,6.035293E2,1.9821523E3,1.4410938E2,7.372681E1,1.0674026E3,4.3832587E2,3.4892383E2,6.057871E2,1.3923301E3,2.4221748E3,2.7414062E1,5.525244E1,6.264514E1,5.807289E1,4.9546863E2,6.321199E2,3.874666E2,2.3898138E2,2.3091602E2,1.592666E2,3.5383936E2,2.2254608E2,1.4320879E3,3.1111673E2,4.646848E2,8.544238E2,0E0,0E0,0E0,0E0,0E0,0E0,0E0,0E0,0E0,0E0,0E0,0E0,0E0,0E0,0E0,0E0,0E0,0E0,0E0,0E0,0E0,0E0,0E0,0E0,0E0,0E0,0E0,0E0,0E0,0E0,0E0,0E0],"parents":[2147483647,0,0,1,1,2,2,3,3,4,4,5,5,6,6,7,7,8,8,9,9,10,10,11,11,12,12,13,13,14,14,15,15,16,16,17,17,18,18,19,19,20,20,21,21,22,22,23,23,24,24,25,25,26,26,27,27,28,28,29,29,30,30],"right_children":[2,4,6,8,10,12,14,16,18,20,22,24,26,28,30,32,34,36,38,40,42,44,46,48,50,52,54,56,58,60,62,-1,-1,-1,-1,-1,-1,-1,-1,-1,-1,-1,-1,-1,-1,-1,-1,-1,-1,-1,-1,-1,-1,-1,-1,-1,-1,-1,-1,-1,-1,-1,-1],"split_conditions":[3.0051723E1,2.0135593E1,3.5E1,1.909756E1,3.2E0,3.2617836E1,1E0,1.8082474E1,1.7E1,5E0,4.3E1,8.2E0,1E0,3.9727272E1,4.5138462E1,1E0,1.9E1,8.5714287E-1,4.050633E0,1.625E1,1.1E1,8.477273E0,2.8157303E1,5E0,5.5E0,2.2307692E0,3.5E0,3.9E1,2E0,1.8E0,2.3333333E0,-1.817447E-2,-9.592934E-3,-1.2801035E-2,-1.6250929E-2,-9.422472E-3,2.1058682E-3,2.1910572E-2,-7.926734E-3,-6.2096294E-4,2.2071524E-2,5.8448142E-3,1.7870497E-2,-2.2634878E-3,5.9126667E-3,-7.765066E-3,1.2564277E-3,2.913798E-3,1.2793838E-2,2.2675423E-2,4.301557E-3,4.1222367E-2,2.3961348E-2,1.2012775E-2,1.2601388E-1,4.5702707E-2,8.993771E-2,7.780403E-2,1.4183114E-2,2.2819107E-2,9.019642E-3,7.7009104E-2,3.9796855E-2],"split_indices":[17,17,17,17,97,17,4,17,84,49,9,23,4,17,17,4,17,61,49,94,23,49,17,8,56,52,45,17,8,78,44,0,0,0,0,0,0,0,0,0,0,0,0,0,0,0,0,0,0,0,0,0,0,0,0,0,0,0,0,0,0,0,0],"split_type":[0,0,0,0,0,0,0,0,0,0,0,0,0,0,0,0,0,0,0,0,0,0,0,0,0,0,0,0,0,0,0,0,0,0,0,0,0,0,0,0,0,0,0,0,0,0,0,0,0,0,0,0,0,0,0,0,0,0,0,0,0,0,0],"sum_hessian":[7.9851E5,6.45514E5,1.52996E5,2.3718E5,4.08334E5,9.0228E4,6.2768E4,1.8732E5,4.986E4,1.96163E5,2.12171E5,5.922E4,3.1008E4,2.2329E4,4.0439E4,1.37348E5,4.9972E4,4.9208E4,6.52E2,9.5884E4,1.00279E5,1.52845E5,5.9326E4,4.6731E4,1.2489E4,2.0055E4,1.0953E4,1.8487E4,3.842E3,2.8854E4,1.1585E4,1.36405E5,9.43E2,1.8445E4,3.1527E4,4.8001E4,1.207E3,3.43E2,3.09E2,9.3416E4,2.468E3,8.7798E4,1.2481E4,1.36637E5,1.6208E4,5.0745E4,8.581E3,6.949E3,3.9782E4,1.1169E4,1.32E3,3.628E3,1.6427E4,1.0911E4,4.2E1,1.6427E4,2.06E3,2.02E2,3.64E3,2.0088E4,8.766E3,1.834E3,9.751E3],"tree_param":{"num_deleted":"0","num_feature":"101","num_nodes":"63","size_leaf_vector":"1"}},{"base_weights":[-1.1431033E-6,-1.0395004E-1,4.3946177E-1,-2.9117015E-1,9.296684E-3,3.1028402E-1,6.25434E-1,-3.2832366E-1,-1.6723011E-1,-2.3759212E-2,1.3270156E-1,2.6932922E-1,4.7873968E-1,8.5676885E-1,4.9835104E-1,-3.441457E-1,-2.8472114E-1,-1.7178412E-1,1.4777549E-1,5.0559163E-2,-6.4608715E-2,1.0852006E-1,4.3279466E-1,5.413346E-2,3.0762765E-1,4.0290025E-1,6.2507546E-1,9.658388E-1,3.2995725E-1,3.515646E-1,8.6855394E-1,-1.7264044E-2,-8.866244E-3,-1.2055207E-2,-1.5504922E-2,-8.83094E-3,4.86102E-3,-1.5826782E-2,1.6965585E-2,1.7780267E-3,2.2340287E-2,-7.1813213E-3,-2.2472553E-3,9.224067E-3,1.9959144E-3,1.0250049E-2,3.40971E-2,-4.481353E-3,8.329306E-3,1.2572825E-2,2.2172393E-2,2.25973E-2,2.0651275E-3,3.4345463E-2,-1.8795955E-3,4.3529347E-2,8.566078E-2,7.386917E-2,1.326218E-2,1.2066078E-2,2.677103E-2,7.331129E-2,3.7867986E-2],"categories":[],"categories_nodes":[],"categories_segments":[],"categories_sizes":[],"default_left":[0,0,0,0,0,0,0,0,0,0,0,0,0,0,0,0,0,0,0,0,0,0,0,0,0,0,0,0,0,0,0,0,0,0,0,0,0,0,0,0,0,0,0,0,0,0,0,0,0,0,0,0,0,0,0,0,0,0,0,0,0,0,0],"id":2,"left_children":[1,3,5,7,9,11,13,15,17,19,21,23,25,27,29,31,33,35,37,39,41,43,45,47,49,51,53,55,57,59,61,-1,-1,-1,-1,-1,-1,-1,-1,-1,-1,-1,-1,-1,-1,-1,-1,-1,-1,-1,-1,-1,-1,-1,-1,-1,-1,-1,-1,-1,-1,-1,-1],"loss_changes":[3.6467152E4,1.3687766E4,3.6681934E3,1.1203516E3,1.6409489E3,6.2149805E2,1.8395293E3,1.2898633E2,8.053552E1,9.632131E2,6.166312E2,5.9741016E2,1.952146E2,1.2746328E3,2.1949941E3,2.5896484E1,5.504956E1,7.197424E1,7.125559E1,6.687549E2,3.1809576E2,4.0983197E2,3.5942285E2,1.7710774E2,4.6931836E2,2.0583337E2,2.4647461E2,1.3069883E3,2.821937E2,5.862117E2,7.609375E2,0E0,0E0,0E0,0E0,0E0,0E0,0E0,0E0,0E0,0E0,0E0,0E0,0E0,0E0,0E0,0E0,0E0,0E0,0E0,0E0,0E0,0E0,0E0,0E0,0E0,0E0,0E0,0E0,0E0,0E0,0E0,0E0],"parents":[2147483647,0,0,1,1,2,2,3,3,4,4,5,5,6,6,7,7,8,8,9,9,10,10,11,11,12,12,13,13,14,14,15,15,16,16,17,17,18,18,19,19,20,20,21,21,22,22,23,23,24,24,25,25,26,26,27,27,28,28,29,29,30,30],"right_children":[2,4,6,8,10,12,14,16,18,20,22,24,26,28,30,32,34,36,38,40,42,44,46,48,50,52,54,56,58,60,62,-1,-1,-1,-1,-1,-1,-1,-1,-1,-1,-1,-1,-1,-1,-1,-1,-1,-1,-1,-1,-1,-1,-1,-1,-1,-1,-1,-1,-1,-1,-1,-1],"split_conditions":[3.0051723E1,2.0433628E1,3.5E1,1.909756E1,7.6666665E0,1E1,1E0,1.8082474E1,6.840445E-1,2.8E0,1.55E1,5E0,9.25E0,3.9727272E1,4.5138462E1,1E0,1.9E1,3.34E1,3.96875E0,1.625E1,3E0,2.85E0,2.820513E-1,5.2E0,3.3E1,1.7580645E0,4.75E0,3.9E1,2E0,9.25E0,2.3333333E0,-1.7264044E-2,-8.866244E-3,-1.2055207E-2,-1.5504922E-2,-8.83094E-3,4.86102E-3,-1.5826782E-2,1.6965585E-2,1.7780267E-3,2.2340287E-2,-7.1813213E-3,-2.2472553E-3,9.224067E-3,1.9959144E-3,1.0250049E-2,3.40971E-2,-4.481353E-3,8.329306E-3,1.2572825E-2,2.2172393E-2,2.25973E-2,2.0651275E-3,3.4345463E-2,-1.8795955E-3,4.3529347E-2,8.566078E-2,7.386917E-2,1.326218E-2,1.2066078E-2,2.677103E-2,7.331129E-2,3.7867986E-2],"split_indices":[17,17,17,17,47,93,4,17,20,98,48,8,47,17,17,4,17,82,67,94,5,98,20,47,17,64,57,17,8,93,44,0,0,0,0,0,0,0,0,0,0,0,0,0,0,0,0,0,0,0,0,0,0,0,0,0,0,0,0,0,0,0,0],"split_type":[0,0,0,0,0,0,0,0,0,0,0,0,0,0,0,0,0,0,0,0,0,0,0,0,0,0,0,0,0,0,0,0,0,0,0,0,0,0,0,0,0,0,0,0,0,0,0,0,0,0,0,0,0,0,0,0,0,0,0,0,0,0,0],"sum_hessian":[7.98287E5,6.45584E5,1.52703E5,2.43322E5,4.02262E5,9.0113E4,6.259E4,1.87202E5,5.612E4,3.17275E5,8.4987E4,7.2492E4,1.7621E4,2.219E4,4.04E4,1.37352E5,4.985E4,5.5321E4,7.99E2,1.12535E5,2.0474E5,7.8651E4,6.336E3,1.0953E4,6.1539E4,1.1609E4,6.012E3,1.8383E4,3.807E3,2.8931E4,1.1469E4,1.36422E5,9.3E2,1.8341E4,3.1509E4,5.4345E4,9.76E2,2.33E2,5.66E2,1.08432E5,4.103E3,4.0795E4,1.63945E5,3.7322E4,4.1329E4,3.311E3,3.025E3,4.807E3,6.146E3,4.3537E4,1.8002E4,1.0222E4,1.387E3,5.499E3,5.13E2,1.6307E4,2.076E3,2.02E2,3.605E3,1.8088E4,1.0843E4,1.797E3,9.672E3],"tree_param":{"num_deleted":"0","num_feature":"101","num_nodes":"63","size_leaf_vector":"1"}},{"base_weights":[7.132522E-5,-9.905876E-2,4.1866413E-1,-2.749658E-1,9.6943E-3,2.9457337E-1,5.971717E-1,-3.121351E-1,-1.5758684E-1,-2.218007E-2,1.2841375E-1,2.567196E-1,4.494973E-1,8.5817236E-1,4.9412814E-1,-3.2719204E-1,-2.708005E-1,-1.615273E-1,1.0045905E-1,5.722144E-2,-5.719921E-2,1.06169924E-1,4.0780652E-1,4.3693278E-2,2.943547E-1,4.7464296E-1,1.5776196E-3,7.9729325E-1,1.3744973E0,6.8692803E-1,3.9869308E-1,-1.6413787E-2,-8.522842E-3,-1.1521994E-2,-1.4723447E-2,-8.28082E-3,3.2252115E-3,-4.9003693E-3,2.3142362E-2,2.0209562E-3,2.1955915E-2,-6.615791E-3,-1.9266059E-3,8.894241E-3,2.0746542E-3,6.575268E-2,1.7764801E-2,1.778364E-2,-2.3462561E-4,1.2019324E-2,2.127555E-2,2.2580175E-2,5.1655877E-2,2.0129172E-2,-1.3445436E-2,5.0791293E-2,3.2706972E-2,1.1475008E-1,6.10463E-2,4.048204E-2,1.0277967E-2,1.4590512E-2,3.5248935E-2],"categories":[],"categories_nodes":[],"categories_segments":[],"categories_sizes":[],"default_left":[0,0,0,0,0,0,0,0,0,0,0,0,0,0,0,0,0,0,0,0,0,0,0,0,0,0,0,0,0,0,0,0,0,0,0,0,0,0,0,0,0,0,0,0,0,0,0,0,0,0,0,0,0,0,0,0,0,0,0,0,0,0,0],"id":3,"left_children":[1,3,5,7,9,11,13,15,17,19,21,23,25,27,29,31,33,35,37,39,41,43,45,47,49,51,53,55,57,59,61,-1,-1,-1,-1,-1,-1,-1,-1,-1,-1,-1,-1,-1,-1,-1,-1,-1,-1,-1,-1,-1,-1,-1,-1,-1,-1,-1,-1,-1,-1,-1,-1],"loss_changes":[3.3115355E4,1.2343881E4,3.3845625E3,1.075418E3,1.5088658E3,5.284658E2,1.6847012E3,1.1637695E2,6.0309692E1,8.7404565E2,5.2440686E2,5.8078076E2,1.9930005E2,5.561582E2,8.262871E2,2.3201172E1,4.7641113E1,5.399695E1,6.4236176E1,6.1725793E2,3.0584857E2,3.6256464E2,2.9582947E2,1.6425934E2,4.356333E2,2.1500903E2,1.0229716E2,4.9554785E2,2.610542E2,8.7833984E2,9.835952E2,0E0,0E0,0E0,0E0,0E0,0E0,0E0,0E0,0E0,0E0,0E0,0E0,0E0,0E0,0E0,0E0,0E0,0E0,0E0,0E0,0E0,0E0,0E0,0E0,0E0,0E0,0E0,0E0,0E0,0E0,0E0,0E0],"parents":[2147483647,0,0,1,1,2,2,3,3,4,4,5,5,6,6,7,7,8,8,9,9,10,10,11,11,12,12,13,13,14,14,15,15,16,16,17,17,18,18,19,19,20,20,21,21,22,22,23,23,24,24,25,25,26,26,27,27,28,28,29,29,30,30],"right_children":[2,4,6,8,10,12,14,16,18,20,22,24,26,28,30,32,34,36,38,40,42,44,46,48,50,52,54,56,58,60,62,-1,-1,-1,-1,-1,-1,-1,-1,-1,-1,-1,-1,-1,-1,-1,-1,-1,-1,-1,-1,-1,-1,-1,-1,-1,-1,-1,-1,-1,-1,-1,-1],"split_conditions":[3.0051723E1,2.0578314E1,3.5E1,1.909756E1,7.6666665E0,1E1,2.2727273E0,1.8082474E1,6.840445E-1,2.65E0,1.55E1,1.7917595E0,3.9863014E0,1.8E1,1E0,1E0,1.9E1,3.34E1,3.625E0,1.625E1,3E0,2.85E0,2.4849067E0,4.7777777E0,3.3E1,5.0752395E-1,4.25E0,1E0,1E0,3.9727272E1,4.5138462E1,-1.6413787E-2,-8.522842E-3,-1.1521994E-2,-1.4723447E-2,-8.28082E-3,3.2252115E-3,-4.9003693E-3,2.3142362E-2,2.0209562E-3,2.1955915E-2,-6.615791E-3,-1.9266059E-3,8.894241E-3,2.0746542E-3,6.575268E-2,1.7764801E-2,1.778364E-2,-2.3462561E-4,1.2019324E-2,2.127555E-2,2.2580175E-2,5.1655877E-2,2.0129172E-2,-1.3445436E-2,5.0791293E-2,3.2706972E-2,1.1475008E-1,6.10463E-2,4.048204E-2,1.0277967E-2,1.4590512E-2,3.5248935E-2],"split_indices":[17,17,17,17,47,93,98,17,20,98,48,12,52,93,4,4,17,82,86,94,5,98,11,67,17,18,50,4,50,17,17,0,0,0,0,0,0,0,0,0,0,0,0,0,0,0,0,0,0,0,0,0,0,0,0,0,0,0,0,0,0,0,0],"split_type":[0,0,0,0,0,0,0,0,0,0,0,0,0,0,0,0,0,0,0,0,0,0,0,0,0,0,0,0,0,0,0,0,0,0,0,0,0,0,0,0,0,0,0,0,0,0,0,0,0,0,0,0,0,0,0,0,0,0,0,0,0,0,0],"sum_hessian":[7.98051E5,6.45246E5,1.52805E5,2.46513E5,3.98733E5,9.0144E4,6.2661E4,1.87224E5,5.9289E4,3.14338E5,8.4395E4,7.2446E4,1.7698E4,1.7734E4,4.4927E4,1.37227E5,4.9997E4,5.8398E4,8.91E2,9.6204E4,2.18134E5,7.8173E4,6.222E3,1.0878E4,6.1568E4,1.6757E4,9.41E2,1.5866E4,1.868E3,1.4873E4,3.0054E4,1.36283E5,9.44E2,1.8487E4,3.151E4,5.7361E4,1.037E3,5.76E2,3.15E2,9.2151E4,4.053E3,4.3416E4,1.74718E5,3.7068E4,4.1105E4,3.39E2,5.883E3,1.46E3,9.418E3,4.3622E4,1.7946E4,1.6095E4,6.62E2,3.79E2,5.62E2,6.277E3,9.589E3,2.65E2,1.603E3,1.1851E4,3.022E3,2.2281E4,7.773E3],"tree_param":{"num_deleted":"0","num_feature":"101","num_nodes":"63","size_leaf_vector":"1"}},{"base_weights":[-2.0771213E-4,-9.384007E-2,3.955754E-1,-2.5583792E-1,1.2317903E-2,2.7966025E-1,5.6285733E-1,-2.9574728E-1,-1.468395E-1,1.1656291E-1,-2.1852149E-2,2.4248096E-1,4.3213287E-1,8.106215E-1,4.6504778E-1,-3.101836E-1,-2.560112E-1,-8.021696E-2,-1.6166045E-1,1.5956174E-1,-7.574166E-2,-5.5811934E-2,5.4119762E-2,4.1460402E-2,2.7839875E-1,4.5656294E-1,-1.1511127E-2,6.905147E-1,1.0555068E0,6.542575E-1,3.7132958E-1,-1.5582127E-2,-9.872169E-3,-1.0918692E-2,-1.3899927E-2,-7.2859786E-3,3.958095E-3,-8.342298E-3,3.1205786E-3,1.0820164E-2,1.7736988E-3,-9.858834E-3,6.7448937E-3,1.04711275E-4,-4.034872E-3,1.08278E-2,9.575504E-4,1.1117571E-2,-2.1432815E-3,1.14303855E-2,1.9952383E-2,2.1705508E-2,5.005462E-2,6.3018994E-3,-2.055916E-2,4.5313112E-2,2.6606176E-2,5.5684954E-2,-5.6512165E-4,3.841803E-2,1.0079928E-2,1.4195906E-2,3.5922393E-2],"categories":[],"categories_nodes":[],"categories_segments":[],"categories_sizes":[],"default_left":[0,0,0,0,0,0,0,0,0,0,0,0,0,0,0,0,0,0,0,0,0,0,0,0,0,0,0,0,0,0,0,0,0,0,0,0,0,0,0,0,0,0,0,0,0,0,0,0,0,0,0,0,0,0,0,0,0,0,0,0,0,0,0],"id":4,"left_children":[1,3,5,7,9,11,13,15,17,19,21,23,25,27,29,31,33,35,37,39,41,43,45,47,49,51,53,55,57,59,61,-1,-1,-1,-1,-1,-1,-1,-1,-1,-1,-1,-1,-1,-1,-1,-1,-1,-1,-1,-1,-1,-1,-1,-1,-1,-1,-1,-1,-1,-1,-1,-1],"loss_changes":[2.9591535E4,1.1105226E4,2.9620098E3,1.1119648E3,1.3896062E3,5.113877E2,1.5147793E3,1.07206055E2,6.7618164E1,7.963624E2,7.58017E2,5.238047E2,1.9176758E2,5.195791E2,7.946504E2,2.2461914E1,4.116284E1,1.3022253E2,6.514319E1,5.551216E2,4.5019788E2,2.9260077E2,5.155122E2,1.6781952E2,3.6961475E2,2.0440625E2,5.0876812E1,4.0520654E2,3.6149023E2,7.666963E2,9.095044E2,0E0,0E0,0E0,0E0,0E0,0E0,0E0,0E0,0E0,0E0,0E0,0E0,0E0,0E0,0E0,0E0,0E0,0E0,0E0,0E0,0E0,0E0,0E0,0E0,0E0,0E0,0E0,0E0,0E0,0E0,0E0,0E0],"parents":[2147483647,0,0,1,1,2,2,3,3,4,4,5,5,6,6,7,7,8,8,9,9,10,10,11,11,12,12,13,13,14,14,15,15,16,16,17,17,18,18,19,19,20,20,21,21,22,22,23,23,24,24,25,25,26,26,27,27,28,28,29,29,30,30],"right_children":[2,4,6,8,10,12,14,16,18,20,22,24,26,28,30,32,34,36,38,40,42,44,46,48,50,52,54,56,58,60,62,-1,-1,-1,-1,-1,-1,-1,-1,-1,-1,-1,-1,-1,-1,-1,-1,-1,-1,-1,-1,-1,-1,-1,-1,-1,-1,-1,-1,-1,-1,-1,-1],"split_conditions":[3.0051723E1,2.1E1,3.5E1,1.909756E1,2.5294118E0,1E1,2.2727273E0,1.8082474E1,1.06E1,1E0,6.2E0,5E0,3.9863014E0,1.16E1,1E0,1E0,1.9E1,2.545E3,3.34E1,2.62E1,2.7142857E1,2.3054054E1,2.25E0,3.4E0,3.3E1,5.0752395E-1,4.25E0,1E0,8.25E0,3.9727272E1,4.7E1,-1.5582127E-2,-9.872169E-3,-1.0918692E-2,-1.3899927E-2,-7.2859786E-3,3.958095E-3,-8.342298E-3,3.1205786E-3,1.0820164E-2,1.7736988E-3,-9.858834E-3,6.7448937E-3,1.04711275E-4,-4.034872E-3,1.08278E-2,9.575504E-4,1.1117571E-2,-2.1432815E-3,1.14303855E-2,1.9952383E-2,2.1705508E-2,5.005462E-2,6.3018994E-3,-2.055916E-2,4.5313112E-2,2.6606176E-2,5.5684954E-2,-5.6512165E-4,3.841803E-2,1.0079928E-2,1.4195906E-2,3.5922393E-2],"split_indices":[17,17,17,17,52,93,98,17,73,4,94,8,52,93,4,13,17,21,82,17,17,17,98,97,17,18,56,4,10,17,17,0,0,0,0,0,0,0,0,0,0,0,0,0,0,0,0,0,0,0,0,0,0,0,0,0,0,0,0,0,0,0,0],"split_type":[0,0,0,0,0,0,0,0,0,0,0,0,0,0,0,0,0,0,0,0,0,0,0,0,0,0,0,0,0,0,0,0,0,0,0,0,0,0,0,0,0,0,0,0,0,0,0,0,0,0,0,0,0,0,0,0,0,0,0,0,0,0,0],"sum_hessian":[7.98516E5,6.45749E5,1.52767E5,2.5564E5,3.90109E5,9.024E4,6.2527E4,1.87123E5,6.8517E4,9.6305E4,2.93804E5,7.2552E4,1.7688E4,1.7695E4,4.4832E4,1.3725E5,4.9873E4,1.2471E4,5.6046E4,7.8707E4,1.7598E4,2.03044E5,9.076E4,1.0999E4,6.1553E4,1.6765E4,9.23E2,1.1875E4,5.82E3,1.4848E4,2.9984E4,1.35494E5,1.756E3,1.8397E4,3.1476E4,8.839E3,3.632E3,5.4779E4,1.267E3,5.3979E4,2.4728E4,1.1163E4,6.435E3,6.103E4,1.42014E5,1.6076E4,7.4684E4,3.497E3,7.502E3,4.3574E4,1.7979E4,1.6103E4,6.62E2,6.87E2,2.36E2,5.025E3,6.85E3,5.519E3,3.01E2,1.1858E4,2.99E3,2.3954E4,6.03E3],"tree_param":{"num_deleted":"0","num_feature":"101","num_nodes":"63","size_leaf_vector":"1"}},{"base_weights":[2.1920925E-4,-8.902297E-2,3.7679562E-1,-2.4315321E-1,1.2104468E-2,2.6482204E-1,5.379643E-1,-2.8138876E-1,-1.3872199E-1,-1.2177116E-2,1.5515661E-1,2.0554808E-1,3.5399863E-1,7.7856064E-1,4.4354835E-1,-2.9497755E-1,-2.4404602E-1,-7.546025E-2,-1.5280464E-1,5.4952294E-2,-4.9911115E-2,1.262722E-1,3.9253098E-1,1.09768994E-1,2.8020003E-1,3.4463492E-1,1.0925972E0,6.64733E-1,1.0141032E0,6.21402E-1,3.5517156E-1,-1.479947E-2,-7.1573667E-3,-1.0408122E-2,-1.3252678E-2,-6.947125E-3,3.812421E-3,-7.3186117E-3,-1.589547E-2,7.7754067E-4,8.784963E-3,-1.538352E-3,-5.83622E-3,7.991502E-3,-6.436174E-4,9.187488E-3,3.1222615E-2,-3.5988283E-3,7.1852445E-3,1.6926853E-2,3.1902548E-3,1.8068295E-2,-2.9248844E-3,2.1520613E-2,7.5407E-2,4.3128643E-2,2.5964169E-2,5.3506434E-2,-0E0,2.1504961E-2,4.3290295E-2,1.3655277E-2,3.3994067E-2],"categories":[],"categories_nodes":[],"categories_segments":[],"categories_sizes":[],"default_left":[0,0,0,0,0,0,0,0,0,0,0,0,0,0,0,0,0,0,0,0,0,0,0,0,0,0,0,0,0,0,0,0,0,0,0,0,0,0,0,0,0,0,0,0,0,0,0,0,0,0,0,0,0,0,0,0,0,0,0,0,0,0,0],"id":5,"left_children":[1,3,5,7,9,11,13,15,17,19,21,23,25,27,29,31,33,35,37,39,41,43,45,47,49,51,53,55,57,59,61,-1,-1,-1,-1,-1,-1,-1,-1,-1,-1,-1,-1,-1,-1,-1,-1,-1,-1,-1,-1,-1,-1,-1,-1,-1,-1,-1,-1,-1,-1,-1,-1],"loss_changes":[2.6799566E4,1.004843E4,2.7568887E3,1.01975E3,1.3521549E3,4.7638574E2,1.4222207E3,9.474414E1,6.094995E1,8.42962E2,3.8719714E2,3.8715796E2,2.4840723E2,4.7234863E2,7.067002E2,2.0970703E1,3.750415E1,1.2008416E2,5.9366455E1,5.6969226E2,2.724715E2,2.3517169E2,2.9647888E2,1.4634E2,3.8413184E2,2.3978906E2,1.2298175E2,3.4190332E2,3.2649707E2,6.9755225E2,8.005337E2,0E0,0E0,0E0,0E0,0E0,0E0,0E0,0E0,0E0,0E0,0E0,0E0,0E0,0E0,0E0,0E0,0E0,0E0,0E0,0E0,0E0,0E0,0E0,0E0,0E0,0E0,0E0,0E0,0E0,0E0,0E0,0E0],"parents":[2147483647,0,0,1,1,2,2,3,3,4,4,5,5,6,6,7,7,8,8,9,9,10,10,11,11,12,12,13,13,14,14,15,15,16,16,17,17,18,18,19,19,20,20,21,21,22,22,23,23,24,24,25,25,26,26,27,27,28,28,29,29,30,30],"right_children":[2,4,6,8,10,12,14,16,18,20,22,24,26,28,30,32,34,36,38,40,42,44,46,48,50,52,54,56,58,60,62,-1,-1,-1,-1,-1,-1,-1,-1,-1,-1,-1,-1,-1,-1,-1,-1,-1,-1,-1,-1,-1,-1,-1,-1,-1,-1,-1,-1,-1,-1,-1,-1],"split_conditions":[3.0051723E1,2.1E1,3.5E1,1.909756E1,8.477273E0,7E0,2.2727273E0,1.8082474E1,1.06E1,2.8E0,1.55E1,3.1828125E1,1.6833334E1,1.16E1,1E0,1E0,1.9E1,2.545E3,4.65E0,9.2E0,5.6E1,4.714286E0,2.820513E-1,5E0,1E0,1.685E1,1.6666666E0,1E0,8.25E0,3.3E1,4.7E1,-1.479947E-2,-7.1573667E-3,-1.0408122E-2,-1.3252678E-2,-6.947125E-3,3.812421E-3,-7.3186117E-3,-1.589547E-2,7.7754067E-4,8.784963E-3,-1.538352E-3,-5.83622E-3,7.991502E-3,-6.436174E-4,9.187488E-3,3.1222615E-2,-3.5988283E-3,7.1852445E-3,1.6926853E-2,3.1902548E-3,1.8068295E-2,-2.9248844E-3,2.1520613E-2,7.5407E-2,4.3128643E-2,2.5964169E-2,5.3506434E-2,-0E0,2.1504961E-2,4.3290295E-2,1.3655277E-2,3.3994067E-2],"split_indices":[17,17,17,17,49,93,98,17,73,98,48,17,76,93,4,4,17,21,51,93,9,10,20,8,4,42,50,4,10,8,17,0,0,0,0,0,0,0,0,0,0,0,0,0,0,0,0,0,0,0,0,0,0,0,0,0,0,0,0,0,0,0,0],"split_type":[0,0,0,0,0,0,0,0,0,0,0,0,0,0,0,0,0,0,0,0,0,0,0,0,0,0,0,0,0,0,0,0,0,0,0,0,0,0,0,0,0,0,0,0,0,0,0,0,0,0,0,0,0,0,0,0,0,0,0,0,0,0,0],"sum_hessian":[7.97449E5,6.44673E5,1.52776E5,2.55405E5,3.89268E5,9.0148E4,6.2628E4,1.86953E5,6.8452E4,3.32782E5,5.6486E4,5.4156E4,3.5992E4,1.7648E4,4.498E4,1.37066E5,4.9887E4,1.2466E4,5.5986E4,1.19747E5,2.13035E5,5.036E4,6.126E3,2.3723E4,3.0433E4,3.5543E4,4.49E2,1.1901E4,5.747E3,1.4929E4,3.0051E4,1.36157E5,9.09E2,1.8427E4,3.146E4,8.789E3,3.677E3,5.3889E4,2.097E3,9.0287E4,2.946E4,1.65591E5,4.7444E4,4.0575E4,9.785E3,3.225E3,2.901E3,3.732E3,1.9991E4,2.397E4,6.463E3,3.4127E4,1.416E3,1.74E2,2.75E2,5.04E3,6.861E3,5.446E3,3.01E2,8.376E3,6.553E3,2.399E4,6.061E3],"tree_param":{"num_deleted":"0","num_feature":"101","num_nodes":"63","size_leaf_vector":"1"}},{"base_weights":[7.580418E-5,-8.394197E-2,3.638518E-1,-2.3596677E-1,9.429422E-3,2.5808108E-1,5.1105565E-1,-2.6757735E-1,-1.3596058E-1,6.63579E-2,-4.362677E-2,2.0219587E-1,3.42653E-1,6.986083E-1,4.067425E-1,-2.8031313E-1,-2.32488E-1,-1.3932382E-1,1.374871E-1,3.4787457E-2,2.0360063E-1,-1.7478723E-2,-1.1035303E-1,1.9910869E-1,1.2069223E-1,3.3330306E-1,1.0447131E0,7.9612255E-1,2.3547944E-1,2.7928597E-1,7.267467E-1,-1.4086351E-2,-8.592683E-3,-9.996344E-3,-1.25702815E-2,-6.406338E-3,-1.0935058E-2,1.652993E-2,-1.166256E-2,1.1326702E-3,2.0571208E-2,8.645381E-3,2.7419893E-2,-1.9623411E-3,3.8114898E-3,-6.837111E-3,1.8400972E-3,1.2070722E-2,1.775604E-3,1.7870134E-2,4.3329936E-3,1.9838713E-2,7.129245E-2,3.5274338E-2,7.5578496E-2,6.811159E-2,8.703127E-3,6.451592E-3,1.9982684E-2,6.4941995E-2,3.0787319E-2],"categories":[],"categories_nodes":[],"categories_segments":[],"categories_sizes":[],"default_left":[0,0,0,0,0,0,0,0,0,0,0,0,0,0,0,0,0,0,0,0,0,0,0,0,0,0,0,0,0,0,0,0,0,0,0,0,0,0,0,0,0,0,0,0,0,0,0,0,0,0,0,0,0,0,0,0,0,0,0,0,0],"id":6,"left_children":[1,3,5,7,9,11,13,15,17,19,21,23,25,27,29,31,33,35,37,39,41,43,45,47,-1,49,51,53,55,57,59,-1,-1,-1,-1,-1,-1,-1,-1,-1,-1,-1,-1,-1,-1,-1,-1,-1,-1,-1,-1,-1,-1,-1,-1,-1,-1,-1,-1,-1,-1],"loss_changes":[2.4391318E4,9.202691E3,2.3311426E3,7.797383E2,1.2131099E3,4.1169043E2,1.2244023E3,8.364453E1,5.4507812E1,8.394476E2,3.627003E2,3.574895E2,2.2706885E2,1.0101123E3,1.640624E3,2.099414E1,3.0654785E1,5.1957397E1,5.1634407E1,7.198203E2,3.8328174E2,3.046743E2,2.2729681E2,3.6259375E2,0E0,2.0328125E2,1.1161551E2,1.1971143E3,2.690113E2,5.202949E2,7.266841E2,0E0,0E0,0E0,0E0,0E0,0E0,0E0,0E0,0E0,0E0,0E0,0E0,0E0,0E0,0E0,0E0,0E0,0E0,0E0,0E0,0E0,0E0,0E0,0E0,0E0,0E0,0E0,0E0,0E0,0E0],"parents":[2147483647,0,0,1,1,2,2,3,3,4,4,5,5,6,6,7,7,8,8,9,9,10,10,11,11,12,12,13,13,14,14,15,15,16,16,17,17,18,18,19,19,20,20,21,21,22,22,23,23,25,25,26,26,27,27,28,28,29,29,30,30],"right_children":[2,4,6,8,10,12,14,16,18,20,22,24,26,28,30,32,34,36,38,40,42,44,46,48,-1,50,52,54,56,58,60,-1,-1,-1,-1,-1,-1,-1,-1,-1,-1,-1,-1,-1,-1,-1,-1,-1,-1,-1,-1,-1,-1,-1,-1,-1,-1,-1,-1,-1,-1],"split_conditions":[3.0268656E1,2.0578314E1,3.5E1,1.909756E1,3.2E0,7E0,1E0,1.8082474E1,1.7E1,9.4E0,4.3E1,3.4666667E0,1.6833334E1,3.9727272E1,4.5138462E1,1E0,1.9E1,1.2875E1,2.4571428E1,1.395E1,1.875E1,7.5E0,2.8157303E1,1E0,1.2069223E-1,5E0,1.6666666E0,3.9E1,2E0,6.4E0,1.9411764E0,-1.4086351E-2,-8.592683E-3,-9.996344E-3,-1.25702815E-2,-6.406338E-3,-1.0935058E-2,1.652993E-2,-1.166256E-2,1.1326702E-3,2.0571208E-2,8.645381E-3,2.7419893E-2,-1.9623411E-3,3.8114898E-3,-6.837111E-3,1.8400972E-3,1.2070722E-2,1.775604E-3,1.7870134E-2,4.3329936E-3,1.9838713E-2,7.129245E-2,3.5274338E-2,7.5578496E-2,6.811159E-2,8.703127E-3,6.451592E-3,1.9982684E-2,6.4941995E-2,3.0787319E-2],"split_indices":[17,17,17,17,97,93,4,17,84,93,9,45,76,17,17,13,17,84,30,48,94,47,17,4,0,97,50,17,8,47,52,0,0,0,0,0,0,0,0,0,0,0,0,0,0,0,0,0,0,0,0,0,0,0,0,0,0,0,0,0,0],"split_type":[0,0,0,0,0,0,0,0,0,0,0,0,0,0,0,0,0,0,0,0,0,0,0,0,0,0,0,0,0,0,0,0,0,0,0,0,0,0,0,0,0,0,0,0,0,0,0,0,0,0,0,0,0,0,0,0,0,0,0,0,0],"sum_hessian":[7.98047E5,6.48313E5,1.49734E5,2.46678E5,4.01635E5,8.7131E4,6.2603E4,1.87431E5,5.9247E4,1.93748E5,2.07887E5,5.2466E4,3.4665E4,2.2372E4,4.0231E4,1.37511E5,4.992E4,5.8528E4,7.19E2,1.57516E5,3.6232E4,1.4936E5,5.8527E4,5.2394E4,7.2E1,3.4211E4,4.54E2,1.848E4,3.892E3,2.8773E4,1.1458E4,1.35739E5,1.772E3,1.8351E4,3.1569E4,5.1296E4,7.232E3,4.73E2,2.46E2,1.52601E5,4.915E3,3.3272E4,2.96E3,1.21206E5,2.8154E4,4.9628E4,8.899E3,4.1628E4,1.0766E4,3.1165E4,3.046E3,1.69E2,2.85E2,1.6404E4,2.076E3,2E2,3.692E3,1.2799E4,1.5974E4,1.86E3,9.598E3],"tree_param":{"num_deleted":"0","num_feature":"101","num_nodes":"61","size_leaf_vector":"1"}},{"base_weights":[-1.2343751E-4,-8.9833215E-2,3.058842E-1,-2.2000052E-1,2.2611588E-3,1.7409492E-1,4.380632E-1,-2.5380877E-1,-1.2708922E-1,6.022598E-2,-5.2014396E-2,1.3280362E-1,2.8239676E-1,5.7652956E-1,3.3081597E-1,-2.6604992E-1,-2.2010757E-1,-6.6388175E-2,-1.4067766E-1,2.5269765E-2,1.8743381E-1,-3.972452E-2,-1.8030033E-1,9.071105E-2,2.0416462E-1,2.4918117E-1,4.6831545E-1,7.042182E-1,4.5367163E-1,3.072572E-1,9.231977E-1,-1.3353293E-2,-5.9071495E-3,-1.1125091E-2,2.230432E-3,-6.310051E-3,3.9053329E-3,-7.2695287E-3,3.4568773E-3,-3.7020497E-4,7.371716E-3,7.761399E-3,2.0492231E-2,-3.0540705E-3,2.0454286E-3,-9.9776415E-3,1.8727198E-2,3.5834794E-3,1.2424736E-2,6.9397385E-3,1.4949818E-2,1.7919188E-2,8.829459E-3,3.583678E-2,4.248345E-3,2.9428178E-2,4.632661E-2,1.37757305E-2,3.732541E-2,2.8202016E-2,1.3188659E-2,6.208027E-2,2.4236089E-2],"categories":[],"categories_nodes":[],"categories_segments":[],"categories_sizes":[],"default_left":[0,0,0,0,0,0,0,0,0,0,0,0,0,0,0,0,0,0,0,0,0,0,0,0,0,0,0,0,0,0,0,0,0,0,0,0,0,0,0,0,0,0,0,0,0,0,0,0,0,0,0,0,0,0,0,0,0,0,0,0,0,0,0],"id":7,"left_children":[1,3,5,7,9,11,13,15,17,19,21,23,25,27,29,31,33,35,37,39,41,43,45,47,49,51,53,55,57,59,61,-1,-1,-1,-1,-1,-1,-1,-1,-1,-1,-1,-1,-1,-1,-1,-1,-1,-1,-1,-1,-1,-1,-1,-1,-1,-1,-1,-1,-1,-1,-1,-1],"loss_changes":[2.189318E4,7.393002E3,3.1493066E3,8.0261523E2,1.1362993E3,4.0478223E2,1.3401523E3,7.718555E1,5.62063E1,7.7661316E2,2.9404944E2,1.9683997E2,1.5412244E2,6.175918E2,7.0951025E2,2.0580078E1,3.1672852E1,1.07823044E2,5.5101807E1,5.468946E2,2.6954956E2,2.9313562E2,1.742403E2,1.2382593E2,1.5065906E2,1.6796436E2,3.6040533E2,4.9594922E2,1.0473359E3,5.46063E2,2.7077502E2,0E0,0E0,0E0,0E0,0E0,0E0,0E0,0E0,0E0,0E0,0E0,0E0,0E0,0E0,0E0,0E0,0E0,0E0,0E0,0E0,0E0,0E0,0E0,0E0,0E0,0E0,0E0,0E0,0E0,0E0,0E0,0E0],"parents":[2147483647,0,0,1,1,2,2,3,3,4,4,5,5,6,6,7,7,8,8,9,9,10,10,11,11,12,12,13,13,14,14,15,15,16,16,17,17,18,18,19,19,20,20,21,21,22,22,23,23,24,24,25,25,26,26,27,27,28,28,29,29,30,30],"right_children":[2,4,6,8,10,12,14,16,18,20,22,24,26,28,30,32,34,36,38,40,42,44,46,48,50,52,54,56,58,60,62,-1,-1,-1,-1,-1,-1,-1,-1,-1,-1,-1,-1,-1,-1,-1,-1,-1,-1,-1,-1,-1,-1,-1,-1,-1,-1,-1,-1,-1,-1,-1,-1],"split_conditions":[2.9194717E1,2.1E1,3.3E1,1.909756E1,3.2E0,7.1E0,2.7E0,1.8082474E1,1.06E1,8.333333E0,1.6875E1,3.109091E1,2.25E0,1E0,1.74E1,1E0,1E0,2.545E3,3.34E1,8.6E0,1.475E1,6.5E0,1.7058823E0,5.125E0,4E1,1.3090909E0,3.45E0,3.6E1,4.4E1,7.3066666E1,1.625E0,-1.3353293E-2,-5.9071495E-3,-1.1125091E-2,2.230432E-3,-6.310051E-3,3.9053329E-3,-7.2695287E-3,3.4568773E-3,-3.7020497E-4,7.371716E-3,7.761399E-3,2.0492231E-2,-3.0540705E-3,2.0454286E-3,-9.9776415E-3,1.8727198E-2,3.5834794E-3,1.2424736E-2,6.9397385E-3,1.4949818E-2,1.7919188E-2,8.829459E-3,3.583678E-2,4.248345E-3,2.9428178E-2,4.632661E-2,1.37757305E-2,3.732541E-2,2.8202016E-2,1.3188659E-2,6.208027E-2,2.4236089E-2],"split_indices":[17,17,17,17,97,23,98,17,73,47,10,17,62,4,47,4,4,21,82,93,48,48,63,24,8,64,51,17,17,70,64,0,0,0,0,0,0,0,0,0,0,0,0,0,0,0,0,0,0,0,0,0,0,0,0,0,0,0,0,0,0,0,0],"split_type":[0,0,0,0,0,0,0,0,0,0,0,0,0,0,0,0,0,0,0,0,0,0,0,0,0,0,0,0,0,0,0,0,0,0,0,0,0,0,0,0,0,0,0,0,0,0,0,0,0,0,0,0,0,0,0,0,0,0,0,0,0,0,0],"sum_hessian":[7.9751E5,6.16714E5,1.80796E5,2.55536E5,3.61178E5,9.0533E4,9.0263E4,1.87358E5,6.8178E4,1.74654E5,1.86524E5,6.5546E4,2.4987E4,3.9395E4,5.0868E4,1.3743E5,4.9928E4,1.2473E4,5.5705E4,1.37007E5,3.7647E4,1.70219E5,1.6305E4,4.123E4,2.4316E4,2.1202E4,3.785E3,1.9315E4,2.008E4,4.8924E4,1.944E3,1.36491E5,9.39E2,4.9481E4,4.47E2,8.822E3,3.651E3,5.4482E4,1.223E3,1.08096E5,2.8911E4,3.2887E4,4.76E3,1.34576E5,3.5643E4,1.5759E4,5.46E2,3.6792E4,4.438E3,1.4396E4,9.92E3,8.464E3,1.2738E4,2.296E3,1.489E3,1.2708E4,6.607E3,1.2486E4,7.594E3,7.083E3,4.1841E4,1.125E3,8.19E2],"tree_param":{"num_deleted":"0","num_feature":"101","num_nodes":"63","size_leaf_vector":"1"}},{"base_weights":[-3.4888575E-4,-6.808616E-2,3.6558652E-1,-2.0889027E-1,1.8071998E-2,5.7597697E-1,3.161206E-1,-2.4151066E-1,-1.19379215E-1,-2.7867097E-2,7.6805875E-2,4.6386784E-1,8.423634E-1,2.9537973E-1,7.570286E-1,-2.5304627E-1,-2.09839E-1,-6.078922E-2,-1.3246751E-1,-4.414971E-2,9.071569E-2,1.400923E-1,1.3151148E-2,1.9161525E-1,5.663257E-1,6.853571E-1,1.432494E0,2.8165898E-1,8.9643246E-1,6.0910463E-1,1.0751325E0,-1.2714105E-2,-7.8204E-3,-8.895863E-3,-1.1425887E-2,-4.3768776E-3,1.2246205E-2,-6.316339E-3,-1.4464304E-2,1.8986065E-3,-4.2195613E-3,5.623381E-3,-4.3219677E-3,6.5457807E-3,2.8100193E-2,2.129444E-3,-3.6858122E-3,6.885405E-3,5.4736823E-2,1.7617434E-2,3.365234E-2,6.341838E-2,2.8558627E-2,8.4990434E-2,4.8179198E-2,3.0972282E-3,1.5245007E-2,6.345845E-2,3.1296887E-2,4.390912E-2,2.1879459E-2,8.155633E-2,4.24217E-2],"categories":[],"categories_nodes":[],"categories_segments":[],"categories_sizes":[],"default_left":[0,0,0,0,0,0,0,0,0,0,0,0,0,0,0,0,0,0,0,0,0,0,0,0,0,0,0,0,0,0,0,0,0,0,0,0,0,0,0,0,0,0,0,0,0,0,0,0,0,0,0,0,0,0,0,0,0,0,0,0,0,0,0],"id":8,"left_children":[1,3,5,7,9,11,13,15,17,19,21,23,25,27,29,31,33,35,37,39,41,43,45,47,49,51,53,55,57,59,61,-1,-1,-1,-1,-1,-1,-1,-1,-1,-1,-1,-1,-1,-1,-1,-1,-1,-1,-1,-1,-1,-1,-1,-1,-1,-1,-1,-1,-1,-1,-1,-1],"loss_changes":[1.977514E4,8.1666426E3,1.2965645E3,7.461084E2,1.1268512E3,7.0783154E2,9.223096E2,6.8328125E1,5.2315735E1,4.5247186E2,7.38371E2,4.6554102E2,6.4961035E2,7.943076E2,2.1243066E2,1.6314453E1,2.973877E1,1.0195236E2,5.36485E1,6.8093933E2,1.0903456E2,3.557141E2,2.3368016E2,2.2206905E2,2.7665942E2,3.6855957E2,1.8298169E2,4.8103027E2,2.1578601E2,1.4236768E2,1.7949207E2,0E0,0E0,0E0,0E0,0E0,0E0,0E0,0E0,0E0,0E0,0E0,0E0,0E0,0E0,0E0,0E0,0E0,0E0,0E0,0E0,0E0,0E0,0E0,0E0,0E0,0E0,0E0,0E0,0E0,0E0,0E0,0E0],"parents":[2147483647,0,0,1,1,2,2,3,3,4,4,5,5,6,6,7,7,8,8,9,9,10,10,11,11,12,12,13,13,14,14,15,15,16,16,17,17,18,18,19,19,20,20,21,21,22,22,23,23,24,24,25,25,26,26,27,27,28,28,29,29,30,30],"right_children":[2,4,6,8,10,12,14,16,18,20,22,24,26,28,30,32,34,36,38,40,42,44,46,48,50,52,54,56,58,60,62,-1,-1,-1,-1,-1,-1,-1,-1,-1,-1,-1,-1,-1,-1,-1,-1,-1,-1,-1,-1,-1,-1,-1,-1,-1,-1,-1,-1,-1,-1,-1,-1],"split_conditions":[3.109091E1,2.1E1,2.2307692E0,1.909756E1,5E0,3.9E1,1.425E1,1.8082474E1,1.06E1,2.9194717E1,3E0,3E0,1.11E1,5.2E1,5.445026E-1,1E0,1.9E1,3.5458612E-1,4.65E0,2.3054054E1,4.2E0,1.875E1,5E0,3.4285715E0,3.2313953E1,3.9727272E1,1.4E0,2E0,1.2727273E1,1.6666666E0,3.2E0,-1.2714105E-2,-7.8204E-3,-8.895863E-3,-1.1425887E-2,-4.3768776E-3,1.2246205E-2,-6.316339E-3,-1.4464304E-2,1.8986065E-3,-4.2195613E-3,5.623381E-3,-4.3219677E-3,6.5457807E-3,2.8100193E-2,2.129444E-3,-3.6858122E-3,6.885405E-3,5.4736823E-2,1.7617434E-2,3.365234E-2,6.341838E-2,2.8558627E-2,8.4990434E-2,4.8179198E-2,3.0972282E-3,1.5245007E-2,6.345845E-2,3.1296887E-2,4.390912E-2,2.1879459E-2,8.155633E-2,4.24217E-2],"split_indices":[17,17,52,17,49,17,94,17,73,17,97,5,23,17,55,13,17,19,51,17,52,94,10,79,17,17,62,5,73,97,99,0,0,0,0,0,0,0,0,0,0,0,0,0,0,0,0,0,0,0,0,0,0,0,0,0,0,0,0,0,0,0,0],"split_type":[0,0,0,0,0,0,0,0,0,0,0,0,0,0,0,0,0,0,0,0,0,0,0,0,0,0,0,0,0,0,0,0,0,0,0,0,0,0,0,0,0,0,0,0,0,0,0,0,0,0,0,0,0,0,0,0,0,0,0,0,0,0,0],"sum_hessian":[7.97787E5,6.73178E5,1.24609E5,2.55548E5,4.1763E5,2.3718E4,1.00891E5,1.87291E5,6.8257E4,2.34339E5,1.83291E5,1.6695E4,7.023E3,9.636E4,4.531E3,1.3728E5,5.0011E4,1.2466E4,5.5791E4,2.06048E5,2.8291E4,9.191E4,9.1381E4,4.566E3,1.2129E4,5.549E3,1.474E3,9.4211E4,2.149E3,3.095E3,1.436E3,1.35544E5,1.736E3,1.8467E4,3.1544E4,1.1464E4,1.002E3,5.3691E4,2.1E3,6.7762E4,1.38286E5,2.5198E4,3.093E3,8.9955E4,1.955E3,6.8253E4,2.3128E4,4.31E3,2.56E2,4.038E3,8.091E3,9.07E2,4.642E3,9.37E2,5.37E2,9.013E3,8.5198E4,9.02E2,1.247E3,1.203E3,1.892E3,4.14E2,1.022E3],"tree_param":{"num_deleted":"0","num_feature":"101","num_nodes":"63","size_leaf_vector":"1"}},{"base_weights":[1.0227246E-4,-8.128276E-2,2.7772567E-1,-2.2046173E-1,-1.1631786E-2,1.7125177E-1,4.1814572E-1,-2.4010938E-1,-1.8121381E-1,-3.1919394E-2,1.1272805E-1,1.4015333E-1,2.9701427E-1,6.351064E-1,3.5119078E-1,-1.4270234E-1,-2.4135914E-1,-1.9844556E-1,-1.3503121E-1,-4.0708892E-2,1.7103519E-1,1.8131447E-1,1.84398E-2,9.394216E-2,1.9854082E-1,3.6877635E-1,1.9387686E-1,5.341984E-1,8.483382E-1,3.176128E-1,7.3381054E-1,-1.1842178E-2,-3.7230644E-3,-1.2693114E-2,-1.1633827E-2,-8.337889E-3,-1.0851677E-2,-3.2554646E-3,-8.170751E-3,-6.1050314E-4,-3.8436425E-3,2.1648338E-2,3.4515818E-3,3.118817E-2,7.853712E-3,3.20435E-3,-7.618477E-3,2.8378551E-3,8.252709E-3,1.446456E-2,5.5428306E-3,1.9200223E-2,-1.441498E-2,8.816444E-3,4.3584924E-2,2.7604489E-2,-2.4260722E-2,4.496525E-2,1.5364855E-3,3.3030067E-2,1.4388144E-2,4.4410434E-2,1.830686E-2],"categories":[],"categories_nodes":[],"categories_segments":[],"categories_sizes":[],"default_left":[0,0,0,0,0,0,0,0,0,0,0,0,0,0,0,0,0,0,0,0,0,0,0,0,0,0,0,0,0,0,0,0,0,0,0,0,0,0,0,0,0,0,0,0,0,0,0,0,0,0,0,0,0,0,0,0,0,0,0,0,0,0,0],"id":9,"left_children":[1,3,5,7,9,11,13,15,17,19,21,23,25,27,29,31,33,35,37,39,41,43,45,47,49,51,53,55,57,59,61,-1,-1,-1,-1,-1,-1,-1,-1,-1,-1,-1,-1,-1,-1,-1,-1,-1,-1,-1,-1,-1,-1,-1,-1,-1,-1,-1,-1,-1,-1,-1,-1],"loss_changes":[1.8042002E4,5.9859595E3,2.7062979E3,1.5873145E2,1.0383086E3,4.0257764E2,1.1336816E3,1.6634766E1,5.4621338E1,6.311714E2,3.732522E2,2.2267664E2,1.5093384E2,3.9549023E2,7.6611084E2,1.1142357E1,1.4602051E1,2.9397705E1,3.70318E1,3.495171E2,3.9232648E2,3.5819104E2,1.8952963E2,1.2182065E2,2.9010962E2,1.20532715E2,9.93808E1,2.282207E2,2.4619629E2,5.612378E2,2.7271753E2,0E0,0E0,0E0,0E0,0E0,0E0,0E0,0E0,0E0,0E0,0E0,0E0,0E0,0E0,0E0,0E0,0E0,0E0,0E0,0E0,0E0,0E0,0E0,0E0,0E0,0E0,0E0,0E0,0E0,0E0,0E0,0E0],"parents":[2147483647,0,0,1,1,2,2,3,3,4,4,5,5,6,6,7,7,8,8,9,9,10,10,11,11,12,12,13,13,14,14,15,15,16,16,17,17,18,18,19,19,20,20,21,21,22,22,23,23,24,24,25,25,26,26,27,27,28,28,29,29,30,30],"right_children":[2,4,6,8,10,12,14,16,18,20,22,24,26,28,30,32,34,36,38,40,42,44,46,48,50,52,54,56,58,60,62,-1,-1,-1,-1,-1,-1,-1,-1,-1,-1,-1,-1,-1,-1,-1,-1,-1,-1,-1,-1,-1,-1,-1,-1,-1,-1,-1,-1,-1,-1,-1,-1],"split_conditions":[2.9194717E1,1.9865168E1,3.3603962E1,1.8082474E1,8.477273E0,8.5E0,2.2E0,1E0,1.909756E1,1.115E1,5.969697E0,3.109091E1,2.8148148E0,1.16E1,1.1E1,1.075E1,1.6105263E1,1.9E1,6.68E1,3.6E0,1.75E0,1E0,3.6666667E0,5.6666665E0,5.466667E-1,4.7777777E0,1.42E1,2.1538463E0,5.928571E0,2.2518518E1,4.3820267E0,-1.1842178E-2,-3.7230644E-3,-1.2693114E-2,-1.1633827E-2,-8.337889E-3,-1.0851677E-2,-3.2554646E-3,-8.170751E-3,-6.1050314E-4,-3.8436425E-3,2.1648338E-2,3.4515818E-3,3.118817E-2,7.853712E-3,3.20435E-3,-7.618477E-3,2.8378551E-3,8.252709E-3,1.446456E-2,5.5428306E-3,1.9200223E-2,-1.441498E-2,8.816444E-3,4.3584924E-2,2.7604489E-2,-2.4260722E-2,4.496525E-2,1.5364855E-3,3.3030067E-2,1.4388144E-2,4.4410434E-2,1.830686E-2],"split_indices":[17,17,17,17,49,23,98,15,17,94,67,17,52,93,49,42,17,17,68,97,98,56,97,93,61,35,47,63,10,40,11,0,0,0,0,0,0,0,0,0,0,0,0,0,0,0,0,0,0,0,0,0,0,0,0,0,0,0,0,0,0,0,0],"split_type":[0,0,0,0,0,0,0,0,0,0,0,0,0,0,0,0,0,0,0,0,0,0,0,0,0,0,0,0,0,0,0,0,0,0,0,0,0,0,0,0,0,0,0,0,0,0,0,0,0,0,0,0,0,0,0,0,0,0,0,0,0,0,0],"sum_hessian":[7.98514E5,6.17496E5,1.81018E5,2.05952E5,4.11544E5,1.02955E5,7.8063E4,1.37241E5,6.8711E4,3.53824E5,5.772E4,8.2546E4,2.0409E4,1.8407E4,5.9656E4,1.741E3,1.355E5,5.0036E4,1.8675E4,3.39138E5,1.4686E4,3.3413E4,2.4307E4,4.608E4,3.6466E4,1.2033E4,8.376E3,1.2497E4,5.91E3,5.4845E4,4.811E3,7.3E2,1.011E3,5.5516E4,7.9984E4,1.8505E4,3.1531E4,5.394E3,1.3281E4,1.89672E5,1.49466E5,4.115E3,1.0571E4,1.734E3,3.1679E4,1.9182E4,5.125E3,3.026E4,1.582E4,1.7918E4,1.8548E4,1.1761E4,2.72E2,8.166E3,2.1E2,1.2282E4,2.15E2,5.563E3,3.47E2,4.389E3,5.0456E4,3.387E3,1.424E3],"tree_param":{"num_deleted":"0","num_feature":"101","num_nodes":"63","size_leaf_vector":"1"}},{"base_weights":[2.0757983E-4,-6.1268024E-2,3.3154163E-1,-1.8900567E-1,1.6756138E-2,2.4033159E-1,4.2202136E-1,-2.1754451E-1,-1.1102005E-1,-3.6078845E-3,1.3073403E-1,3.162423E-1,1.6579421E-1,5.8903897E-1,3.3004153E-1,-2.3464613E-1,-1.9926867E-1,-1.1425642E-1,1.0052041E-1,-9.59053E-3,3.2769728E-1,1.6469416E-1,-1.3590653E-2,2.2158629E-1,4.276229E-1,1.9832182E-1,-1.5103012E-1,3.7909117E-1,7.7549976E-1,2.1561544E-1,6.174716E-1,-1.1747063E-2,2.5893664E-2,-7.1973214E-3,-1.0373857E-2,-5.5178734E-3,-1.42544275E-2,1.6483778E-2,-5.6794E-3,-1.245311E-3,4.6249465E-3,5.596968E-2,1.1909563E-2,3.7507731E-3,1.215734E-2,9.172737E-3,-6.107261E-3,7.575226E-3,1.9390905E-2,2.3767594E-2,4.720336E-3,9.4403075E-3,6.1847772E-2,-1.4216788E-2,1.7200155E-2,3.225326E-2,9.740914E-3,4.1833296E-2,1.3056615E-2,5.9064548E-3,1.8923743E-2,5.711205E-2,2.6001194E-2],"categories":[],"categories_nodes":[],"categories_segments":[],"categories_sizes":[],"default_left":[0,0,0,0,0,0,0,0,0,0,0,0,0,0,0,0,0,0,0,0,0,0,0,0,0,0,0,0,0,0,0,0,0,0,0,0,0,0,0,0,0,0,0,0,0,0,0,0,0,0,0,0,0,0,0,0,0,0,0,0,0,0,0],"id":10,"left_children":[1,3,5,7,9,11,13,15,17,19,21,23,25,27,29,31,33,35,37,39,41,43,45,47,49,51,53,55,57,59,61,-1,-1,-1,-1,-1,-1,-1,-1,-1,-1,-1,-1,-1,-1,-1,-1,-1,-1,-1,-1,-1,-1,-1,-1,-1,-1,-1,-1,-1,-1,-1,-1],"loss_changes":[1.6246249E4,6.705275E3,1.0299795E3,5.6772754E2,9.6942004E2,3.5164038E2,9.623428E2,5.8282227E1,4.6806824E1,7.023198E2,3.103225E2,3.2452832E2,3.233092E2,8.706904E2,1.3288809E3,2.1519043E1,4.09375E1,4.476935E1,5.0595016E1,5.442197E2,4.449626E2,3.605349E2,2.5798184E2,1.9386853E2,2.2489258E2,2.807937E2,1.9285074E2,5.128949E2,3.7041846E2,4.5883374E2,5.876289E2,0E0,0E0,0E0,0E0,0E0,0E0,0E0,0E0,0E0,0E0,0E0,0E0,0E0,0E0,0E0,0E0,0E0,0E0,0E0,0E0,0E0,0E0,0E0,0E0,0E0,0E0,0E0,0E0,0E0,0E0,0E0,0E0],"parents":[2147483647,0,0,1,1,2,2,3,3,4,4,5,5,6,6,7,7,8,8,9,9,10,10,11,11,12,12,13,13,14,14,15,15,16,16,17,17,18,18,19,19,20,20,21,21,22,22,23,23,24,24,25,25,26,26,27,27,28,28,29,29,30,30],"right_children":[2,4,6,8,10,12,14,16,18,20,22,24,26,28,30,32,34,36,38,40,42,44,46,48,50,52,54,56,58,60,62,-1,-1,-1,-1,-1,-1,-1,-1,-1,-1,-1,-1,-1,-1,-1,-1,-1,-1,-1,-1,-1,-1,-1,-1,-1,-1,-1,-1,-1,-1,-1,-1],"split_conditions":[3.109091E1,2.1E1,3.5E1,1.909756E1,8.387255E0,5.466667E-1,1E0,1.7153847E1,6.840445E-1,1.555E1,4.8333335E0,4E0,7.3488374E0,3.2E1,4.5138462E1,1.38E1,1.8E1,1.5111111E1,1.125E1,2.9194717E1,1E1,5.5E-1,2.668831E0,6.3E0,7.3488374E0,1.615E1,5E0,1.4313725E0,3.9727272E1,9.25E0,2.3333333E0,-1.1747063E-2,2.5893664E-2,-7.1973214E-3,-1.0373857E-2,-5.5178734E-3,-1.42544275E-2,1.6483778E-2,-5.6794E-3,-1.245311E-3,4.6249465E-3,5.596968E-2,1.1909563E-2,3.7507731E-3,1.215734E-2,9.172737E-3,-6.107261E-3,7.575226E-3,1.9390905E-2,2.3767594E-2,4.720336E-3,9.4403075E-3,6.1847772E-2,-1.4216788E-2,1.7200155E-2,3.225326E-2,9.740914E-3,4.1833296E-2,1.3056615E-2,5.9064548E-3,1.8923743E-2,5.711205E-2,2.6001194E-2],"split_indices":[17,17,17,17,49,61,4,17,20,94,10,5,10,8,17,95,17,43,71,17,8,54,58,48,10,72,8,64,17,93,44,0,0,0,0,0,0,0,0,0,0,0,0,0,0,0,0,0,0,0,0,0,0,0,0,0,0,0,0,0,0,0,0],"split_type":[0,0,0,0,0,0,0,0,0,0,0,0,0,0,0,0,0,0,0,0,0,0,0,0,0,0,0,0,0,0,0,0,0,0,0,0,0,0,0,0,0,0,0,0,0,0,0,0,0,0,0,0,0,0,0,0,0,0,0,0,0,0,0],"sum_hessian":[7.97595E5,6.7277E5,1.24825E5,2.55112E5,4.17658E5,6.2164E4,6.2661E4,1.86763E5,6.8349E4,3.54348E5,6.331E4,3.0796E4,3.1368E4,2.2251E4,4.041E4,9.6472E4,9.0291E4,6.732E4,1.029E3,3.48064E5,6.284E3,5.1251E4,1.2059E4,1.665E4,1.4146E4,2.8448E4,2.92E3,1.0468E4,1.1783E4,2.8905E4,1.1505E4,9.6435E4,3.7E1,1.167E4,7.8621E4,6.582E4,1.5E3,4.97E2,5.32E2,3.0266E5,4.5404E4,6.37E2,5.647E3,2.3916E4,2.7335E4,4.283E3,7.776E3,1.1714E4,4.936E3,1.2373E4,1.773E3,2.8191E4,2.57E2,2.301E3,6.19E2,4.283E3,6.185E3,1.053E4,1.253E3,1.8083E4,1.0822E4,1.8E3,9.705E3],"tree_param":{"num_deleted":"0","num_feature":"101","num_nodes":"63","size_leaf_vector":"1"}},{"base_weights":[-4.27465E-5,-7.353388E-2,2.5038958E-1,-1.8661454E-1,-3.1148477E-3,1.5371713E-1,3.7831458E-1,-2.0693623E-1,-1.10167064E-1,-2.2387063E-2,1.1322205E-1,1.2357402E-1,2.7502802E-1,6.044997E-1,3.2414302E-1,-2.1728192E-1,-1.7850758E-1,-1.1418867E-1,1.9575883E-1,4.4551738E-2,-4.81316E-2,2.2836144E-1,5.839348E-2,1.2236939E-1,1.1170335E-1,2.9754767E-1,-2.726659E-2,4.7071823E-1,8.863644E-1,6.083476E-1,2.9232985E-1,-1.1724765E-2,-1.0537351E-2,-7.4464804E-3,-9.790867E-3,-4.8001055E-3,-8.418256E-3,1.8140178E-2,-1.6700676E-2,1.3164043E-3,1.4346341E-2,-1.4674944E-4,-3.6219356E-3,7.302254E-3,2.1374404E-2,4.8526158E-3,-4.6413527E-3,1.0629293E-2,4.7543487E-3,1.5672896E-2,-9.368597E-3,1.4802808E-2,-1.000777E-2,1.7568735E-2,4.1628923E-2,6.275847E-2,3.5806153E-2,2.751262E-2,7.466687E-2,2.263133E-2,1.1086361E-2],"categories":[],"categories_nodes":[],"categories_segments":[],"categories_sizes":[],"default_left":[0,0,0,0,0,0,0,0,0,0,0,0,0,0,0,0,0,0,0,0,0,0,0,0,0,0,0,0,0,0,0,0,0,0,0,0,0,0,0,0,0,0,0,0,0,0,0,0,0,0,0,0,0,0,0,0,0,0,0,0,0],"id":11,"left_children":[1,3,5,7,9,11,13,15,17,19,21,23,25,27,29,31,33,35,37,39,41,43,45,47,-1,49,51,53,55,57,59,-1,-1,-1,-1,-1,-1,-1,-1,-1,-1,-1,-1,-1,-1,-1,-1,-1,-1,-1,-1,-1,-1,-1,-1,-1,-1,-1,-1,-1,-1],"loss_changes":[1.4682162E4,4.9112275E3,2.2381719E3,3.6764258E2,8.521459E2,3.7689404E2,9.542295E2,5.491455E1,6.1169373E1,5.619061E2,3.4094458E2,2.0942627E2,1.3969934E2,5.6699414E2,5.680054E2,1.5325684E1,2.5483032E1,4.829834E1,5.720376E1,4.0000067E2,2.587046E2,2.854673E2,2.1392662E2,2.0307947E2,0E0,1.4738525E2,7.959378E1,4.4047168E2,3.0297632E2,3.242168E2,6.3956885E2,0E0,0E0,0E0,0E0,0E0,0E0,0E0,0E0,0E0,0E0,0E0,0E0,0E0,0E0,0E0,0E0,0E0,0E0,0E0,0E0,0E0,0E0,0E0,0E0,0E0,0E0,0E0,0E0,0E0,0E0],"parents":[2147483647,0,0,1,1,2,2,3,3,4,4,5,5,6,6,7,7,8,8,9,9,10,10,11,11,12,12,13,13,14,14,15,15,16,16,17,17,18,18,19,19,20,20,21,21,22,22,23,23,25,25,26,26,27,27,28,28,29,29,30,30],"right_children":[2,4,6,8,10,12,14,16,18,20,22,24,26,28,30,32,34,36,38,40,42,44,46,48,-1,50,52,54,56,58,60,-1,-1,-1,-1,-1,-1,-1,-1,-1,-1,-1,-1,-1,-1,-1,-1,-1,-1,-1,-1,-1,-1,-1,-1,-1,-1,-1,-1,-1,-1],"split_conditions":[2.9194717E1,2.0135593E1,3.3603962E1,1.909756E1,8.477273E0,8.5E0,2.2173913E0,1.8082474E1,6.840445E-1,2.6E0,2.25E0,1.96E1,4.75E0,4E0,7.3066666E1,1.01E1,1.9E1,3.830986E0,4.1571426E0,1.35E1,2.3054054E1,1.155E1,4E0,2.4285715E0,1.1170335E-1,4.098039E0,5E-1,4.5138462E1,1.25E0,1.515E1,2.5E0,-1.1724765E-2,-1.0537351E-2,-7.4464804E-3,-9.790867E-3,-4.8001055E-3,-8.418256E-3,1.8140178E-2,-1.6700676E-2,1.3164043E-3,1.4346341E-2,-1.4674944E-4,-3.6219356E-3,7.302254E-3,2.1374404E-2,4.8526158E-3,-4.6413527E-3,1.0629293E-2,4.7543487E-3,1.5672896E-2,-9.368597E-3,1.4802808E-2,-1.000777E-2,1.7568735E-2,4.1628923E-2,6.275847E-2,3.5806153E-2,2.751262E-2,7.466687E-2,2.263133E-2,1.1086361E-2],"split_indices":[17,17,17,17,49,23,52,17,20,97,56,42,57,5,70,42,17,52,52,23,17,48,97,52,0,52,60,17,50,92,97,0,0,0,0,0,0,0,0,0,0,0,0,0,0,0,0,0,0,0,0,0,0,0,0,0,0,0,0,0,0],"split_type":[0,0,0,0,0,0,0,0,0,0,0,0,0,0,0,0,0,0,0,0,0,0,0,0,0,0,0,0,0,0,0,0,0,0,0,0,0,0,0,0,0,0,0,0,0,0,0,0,0,0,0,0,0,0,0,0,0,0,0,0,0],"sum_hessian":[7.97745E5,6.16755E5,1.8099E5,2.36682E5,3.80073E5,1.03089E5,7.7901E4,1.86976E5,4.9706E4,3.2606E5,5.4013E4,8.2574E4,2.0515E4,1.505E4,6.2851E4,1.3708E5,4.9896E4,4.9062E4,6.44E2,9.0568E4,2.35492E5,1.7422E4,3.6591E4,8.2528E4,4.6E1,1.9093E4,1.422E3,1.0208E4,4.842E3,6.325E3,5.6526E4,3.7707E4,9.9373E4,1.8426E4,3.147E4,3.6735E4,1.2327E4,4.9E2,1.54E2,8.4236E4,6.332E3,8.2359E4,1.53133E5,1.2328E4,5.094E3,2.9142E4,7.449E3,1.916E4,6.3368E4,1.8487E4,6.06E2,4.95E2,9.27E2,7.678E3,2.53E3,1.527E3,3.315E3,5.937E3,3.88E2,1.7282E4,3.9244E4],"tree_param":{"num_deleted":"0","num_feature":"101","num_nodes":"61","size_leaf_vector":"1"}},{"base_weights":[1.6121857E-4,-5.572482E-2,3.0231822E-1,-1.7135079E-1,1.4952775E-2,4.6149716E-1,2.5496203E-1,-1.9656725E-1,-1.02231115E-1,7.374544E-2,-2.1321265E-2,3.0335075E-1,5.8213675E-1,2.223224E-1,4.3694934E-1,-2.0634969E-1,-1.6965319E-1,-1.0579742E-1,1.0903188E-1,1.07626105E-2,1.2494519E-1,-4.547416E-2,4.6845455E-2,3.4903023E-1,-1.16744295E-1,5.402535E-1,1.1005443E0,2.0224507E-1,4.9631014E-1,1.8862043E-1,5.2594477E-1,-1.0365732E-2,-3.419845E-3,-7.072098E-3,-9.309846E-3,-4.909757E-3,-1.1765684E-2,1.3345681E-2,-1.31639065E-2,6.012972E-3,-1.8315319E-3,1.5773699E-2,5.1491386E-3,-2.9411342E-3,2.7533446E-3,5.4558446E-3,-6.616929E-4,8.255901E-2,1.69079E-2,2.151681E-2,-1.3145976E-2,3.6509994E-2,1.8774366E-2,2.052741E-2,6.864648E-2,1.2245906E-2,3.2578108E-3,2.934206E-2,-2.6495913E-2,1.8406965E-2,-6.7067444E-3,1.664835E-2,3.162518E-2],"categories":[],"categories_nodes":[],"categories_segments":[],"categories_sizes":[],"default_left":[0,0,0,0,0,0,0,0,0,0,0,0,0,0,0,0,0,0,0,0,0,0,0,0,0,0,0,0,0,0,0,0,0,0,0,0,0,0,0,0,0,0,0,0,0,0,0,0,0,0,0,0,0,0,0,0,0,0,0,0,0,0,0],"id":12,"left_children":[1,3,5,7,9,11,13,15,17,19,21,23,25,27,29,31,33,35,37,39,41,43,45,47,49,51,53,55,57,59,61,-1,-1,-1,-1,-1,-1,-1,-1,-1,-1,-1,-1,-1,-1,-1,-1,-1,-1,-1,-1,-1,-1,-1,-1,-1,-1,-1,-1,-1,-1,-1,-1],"loss_changes":[1.3478142E4,5.5046426E3,9.3893945E2,4.453369E2,8.9155365E2,5.446992E2,5.7020166E2,4.922168E1,5.1477173E1,5.143675E2,4.2566016E2,2.3730652E2,3.510288E2,4.4772192E2,3.2251343E2,1.8236328E1,2.3239014E1,6.60863E1,6.672824E1,3.712009E2,3.6810083E2,2.5620297E2,2.5306003E2,1.5711047E2,9.709953E1,4.6884766E2,2.2667126E2,4.4375708E2,5.1668567E2,2.233761E2,2.2070947E2,0E0,0E0,0E0,0E0,0E0,0E0,0E0,0E0,0E0,0E0,0E0,0E0,0E0,0E0,0E0,0E0,0E0,0E0,0E0,0E0,0E0,0E0,0E0,0E0,0E0,0E0,0E0,0E0,0E0,0E0,0E0,0E0],"parents":[2147483647,0,0,1,1,2,2,3,3,4,4,5,5,6,6,7,7,8,8,9,9,10,10,11,11,12,12,13,13,14,14,15,15,16,16,17,17,18,18,19,19,20,20,21,21,22,22,23,23,24,24,25,25,26,26,27,27,28,28,29,29,30,30],"right_children":[2,4,6,8,10,12,14,16,18,20,22,24,26,28,30,32,34,36,38,40,42,44,46,48,50,52,54,56,58,60,62,-1,-1,-1,-1,-1,-1,-1,-1,-1,-1,-1,-1,-1,-1,-1,-1,-1,-1,-1,-1,-1,-1,-1,-1,-1,-1,-1,-1,-1,-1,-1,-1],"split_conditions":[3.109091E1,2.1E1,2.2E0,1.909756E1,2.8E0,3.45E1,6.5665233E-1,1.8082474E1,1.6333334E1,1.225E1,6.25E0,1.8888888E0,5.2E1,4.7E1,6.65E0,1E0,1.9E1,4.714286E0,2.1285715E1,2.3054054E1,1.75E0,2.9194717E1,2.5E0,4E0,6.666667E-1,1E0,1E0,1E0,8.333333E0,6.820878E-2,3.4E1,-1.0365732E-2,-3.419845E-3,-7.072098E-3,-9.309846E-3,-4.909757E-3,-1.1765684E-2,1.3345681E-2,-1.31639065E-2,6.012972E-3,-1.8315319E-3,1.5773699E-2,5.1491386E-3,-2.9411342E-3,2.7533446E-3,5.4558446E-3,-6.616929E-4,8.255901E-2,1.69079E-2,2.151681E-2,-1.3145976E-2,3.6509994E-2,1.8774366E-2,2.052741E-2,6.864648E-2,1.2245906E-2,3.2578108E-3,2.934206E-2,-2.6495913E-2,1.8406965E-2,-6.7067444E-3,1.664835E-2,3.162518E-2],"split_indices":[17,17,98,17,98,17,55,17,84,92,48,64,17,17,48,4,17,87,80,17,98,17,77,8,56,4,0,1,76,19,17,0,0,0,0,0,0,0,0,0,0,0,0,0,0,0,0,0,0,0,0,0,0,0,0,0,0,0,0,0,0,0,0],"split_type":[0,0,0,0,0,0,0,0,0,0,0,0,0,0,0,0,0,0,0,0,0,0,0,0,0,0,0,0,0,0,0,0,0,0,0,0,0,0,0,0,0,0,0,0,0,0,0,0,0,0,0,0,0,0,0,0,0,0,0,0,0,0,0],"sum_hessian":[7.98164E5,6.73581E5,1.24583E5,2.55535E5,4.18046E5,2.8563E4,9.602E4,1.87227E5,6.8308E4,1.59512E5,2.58534E5,1.2362E4,1.6201E4,8.142E4,1.46E4,1.37309E5,4.9918E4,6.7175E4,1.133E3,7.1527E4,8.7985E4,1.90897E5,6.7637E4,1.115E4,1.212E3,1.4992E4,1.209E3,7.5863E4,5.557E3,3.853E3,1.0747E4,1.36354E5,9.55E2,1.8458E4,3.146E4,6.3453E4,3.722E3,7.96E2,3.37E2,2.1607E4,4.992E4,9.092E3,7.8893E4,1.68524E5,2.2373E4,3.3213E4,3.4424E4,9.1E1,1.1059E4,2.55E2,9.57E2,6.962E3,8.03E3,3.43E2,8.66E2,5.7853E4,1.801E4,5.107E3,4.5E2,2.476E3,1.377E3,3.825E3,6.922E3],"tree_param":{"num_deleted":"0","num_feature":"101","num_nodes":"63","size_leaf_vector":"1"}},{"base_weights":[-9.097961E-5,-5.2854255E-2,2.846279E-1,-1.6251993E-1,1.4246009E-2,4.6203667E-1,2.4299757E-1,-1.8660296E-1,-9.669637E-2,-2.2804942E-2,7.160713E-2,3.6984968E-1,6.816766E-1,2.245714E-1,6.339027E-1,-1.9593747E-1,-1.609308E-1,-3.8713865E-2,-1.0962332E-1,-2.792988E-2,4.5335132E-1,2.4162452E-1,5.006892E-2,4.9646413E-1,1.4639995E-1,9.3407243E-1,4.8062032E-1,2.126515E-1,7.455492E-1,4.998E-1,9.205869E-1,-1.06289545E-2,-9.48221E-3,-8.163019E-3,4.369888E-3,-3.855067E-3,8.807936E-3,-5.6685572E-3,7.5099464E-3,1.9075146E-3,-2.7585824E-3,6.368797E-2,1.8549256E-2,3.2270707E-2,1.0098914E-2,4.98191E-4,6.4312587E-3,1.7149422E-2,3.5061833E-2,2.1397542E-2,-2.8299626E-3,3.0300362E-2,6.7930244E-2,8.553024E-3,3.558841E-2,-1.7525743E-4,1.1771516E-2,5.5272367E-2,2.4478009E-2,3.779029E-2,1.6754562E-2,3.9563816E-2,9.672651E-2],"categories":[],"categories_nodes":[],"categories_segments":[],"categories_sizes":[],"default_left":[0,0,0,0,0,0,0,0,0,0,0,0,0,0,0,0,0,0,0,0,0,0,0,0,0,0,0,0,0,0,0,0,0,0,0,0,0,0,0,0,0,0,0,0,0,0,0,0,0,0,0,0,0,0,0,0,0,0,0,0,0,0,0],"id":13,"left_children":[1,3,5,7,9,11,13,15,17,19,21,23,25,27,29,31,33,35,37,39,41,43,45,47,49,51,53,55,57,59,61,-1,-1,-1,-1,-1,-1,-1,-1,-1,-1,-1,-1,-1,-1,-1,-1,-1,-1,-1,-1,-1,-1,-1,-1,-1,-1,-1,-1,-1,-1,-1,-1],"loss_changes":[1.1987792E4,4.9539785E3,9.212344E2,4.0506738E2,8.8766754E2,4.7972168E2,7.2762354E2,4.4768555E1,5.1292664E1,6.1920844E2,6.001759E2,4.7242358E2,3.550359E2,5.990298E2,1.7424634E2,1.4288574E1,2.8888062E1,1.02968666E2,5.4521057E1,4.519418E2,1.8194763E2,2.9481006E2,4.5832678E2,3.347046E2,3.4544662E2,4.315664E2,2.7906555E2,4.6456348E2,1.9811572E2,1.3039569E2,1.8804907E2,0E0,0E0,0E0,0E0,0E0,0E0,0E0,0E0,0E0,0E0,0E0,0E0,0E0,0E0,0E0,0E0,0E0,0E0,0E0,0E0,0E0,0E0,0E0,0E0,0E0,0E0,0E0,0E0,0E0,0E0,0E0,0E0],"parents":[2147483647,0,0,1,1,2,2,3,3,4,4,5,5,6,6,7,7,8,8,9,9,10,10,11,11,12,12,13,13,14,14,15,15,16,16,17,17,18,18,19,19,20,20,21,21,22,22,23,23,24,24,25,25,26,26,27,27,28,28,29,29,30,30],"right_children":[2,4,6,8,10,12,14,16,18,20,22,24,26,28,30,32,34,36,38,40,42,44,46,48,50,52,54,56,58,60,62,-1,-1,-1,-1,-1,-1,-1,-1,-1,-1,-1,-1,-1,-1,-1,-1,-1,-1,-1,-1,-1,-1,-1,-1,-1,-1,-1,-1,-1,-1,-1,-1],"split_conditions":[3.109091E1,2.1E1,2.2307692E0,1.909756E1,5.65E0,3.9E1,1.425E1,1.8082474E1,1.06E1,1.615E1,2E0,1E0,1.6E0,5.2E1,5.445026E-1,1.01E1,1E0,1.235E1,1.7E1,2.3054054E1,2E0,1.5E0,6.9772725E0,3.4E1,6.7E1,1.304E3,2.7222223E0,2E0,1.2727273E1,1.6666666E0,4E0,-1.06289545E-2,-9.48221E-3,-8.163019E-3,4.369888E-3,-3.855067E-3,8.807936E-3,-5.6685572E-3,7.5099464E-3,1.9075146E-3,-2.7585824E-3,6.368797E-2,1.8549256E-2,3.2270707E-2,1.0098914E-2,4.98191E-4,6.4312587E-3,1.7149422E-2,3.5061833E-2,2.1397542E-2,-2.8299626E-3,3.0300362E-2,6.7930244E-2,8.553024E-3,3.558841E-2,-1.7525743E-4,1.1771516E-2,5.5272367E-2,2.4478009E-2,3.779029E-2,1.6754562E-2,3.9563816E-2,9.672651E-2],"split_indices":[17,17,52,17,94,17,94,17,73,48,98,4,50,17,55,42,4,42,84,17,65,96,49,17,7,21,57,5,73,97,50,0,0,0,0,0,0,0,0,0,0,0,0,0,0,0,0,0,0,0,0,0,0,0,0,0,0,0,0,0,0,0,0],"split_type":[0,0,0,0,0,0,0,0,0,0,0,0,0,0,0,0,0,0,0,0,0,0,0,0,0,0,0,0,0,0,0,0,0,0,0,0,0,0,0,0,0,0,0,0,0,0,0,0,0,0,0,0,0,0,0,0,0,0,0,0,0,0,0],"sum_hessian":[7.97978E5,6.7322E5,1.24758E5,2.55554E5,4.17666E5,2.3709E4,1.01049E5,1.87097E5,6.8457E4,2.53757E5,1.63909E5,1.6702E4,7.007E3,9.6502E4,4.547E3,1.372E5,4.9897E4,1.2482E4,5.5975E4,2.51056E5,2.701E3,1.8428E4,1.45481E5,1.066E4,6.042E3,3.105E3,3.902E3,9.4345E4,2.157E3,3.1E3,1.447E3,3.7634E4,9.9566E4,4.9434E4,4.63E2,1.0591E4,1.891E3,5.518E4,7.95E2,7.3285E4,1.77771E5,2.45E2,2.456E3,1.646E3,1.6782E4,9.6313E4,4.9168E4,6.095E3,4.565E3,2.531E3,3.511E3,1.753E3,1.352E3,1.669E3,2.233E3,8.994E3,8.5351E4,8.95E2,1.262E3,1.212E3,1.888E3,1.285E3,1.62E2],"tree_param":{"num_deleted":"0","num_feature":"101","num_nodes":"63","size_leaf_vector":"1"}},{"base_weights":[2.1808848E-4,-6.321896E-2,2.1680357E-1,-1.5450911E-1,1.240772E-3,1.3405706E-1,3.256022E-1,-1.772652E-1,-9.249939E-2,8.070077E-2,-2.4580417E-2,1.07756674E-1,2.5730532E-1,4.4230458E-1,2.3457104E-1,-1.921194E-1,-1.6138192E-1,-4.0582847E-2,-1.0400619E-1,1.2174785E-1,-1.1421716E-1,-5.0842196E-2,3.4930702E-2,1.066624E-1,1.0589474E-1,9.986646E-2,2.9826984E-1,5.8000547E-1,3.2951576E-1,5.287958E-1,1.9236723E-1,-9.620951E-3,2.6697857E-2,-5.2530896E-3,-8.487425E-3,-5.030025E-3,4.2121965E-3,-6.2832395E-3,-3.0560687E-3,8.829429E-3,-1.5368838E-3,-9.396782E-3,4.000833E-3,2.3244582E-4,-3.8720209E-3,-5.2571962E-5,7.1104662E-3,9.284215E-3,3.9337757E-3,8.135942E-3,-1.9168284E-2,1.6068993E-2,-2.9320358E-3,3.5561178E-2,1.9517908E-2,8.499235E-3,2.8055241E-2,3.0781424E-2,-1.2840054E-2,6.322168E-3,2.160847E-2],"categories":[],"categories_nodes":[],"categories_segments":[],"categories_sizes":[],"default_left":[0,0,0,0,0,0,0,0,0,0,0,0,0,0,0,0,0,0,0,0,0,0,0,0,0,0,0,0,0,0,0,0,0,0,0,0,0,0,0,0,0,0,0,0,0,0,0,0,0,0,0,0,0,0,0,0,0,0,0,0,0],"id":14,"left_children":[1,3,5,7,9,11,13,15,17,19,21,23,25,27,29,31,33,35,37,39,41,43,45,47,-1,49,51,53,55,57,59,-1,-1,-1,-1,-1,-1,-1,-1,-1,-1,-1,-1,-1,-1,-1,-1,-1,-1,-1,-1,-1,-1,-1,-1,-1,-1,-1,-1,-1,-1],"loss_changes":[1.0977732E4,3.6365544E3,1.6294463E3,3.6086328E2,7.431931E2,3.3320508E2,8.305049E2,4.407666E1,4.100128E1,7.107989E2,4.2726334E2,1.859383E2,1.1653577E2,5.3186035E2,5.45323E2,2.1097656E1,4.2564453E1,9.3365555E1,5.2178284E1,6.137042E2,2.2130579E2,2.799687E2,3.2311743E2,1.872575E2,0E0,1.13480804E2,1.1837402E2,3.8349072E2,6.9581335E2,3.760614E2,6.07275E2,0E0,0E0,0E0,0E0,0E0,0E0,0E0,0E0,0E0,0E0,0E0,0E0,0E0,0E0,0E0,0E0,0E0,0E0,0E0,0E0,0E0,0E0,0E0,0E0,0E0,0E0,0E0,0E0,0E0,0E0],"parents":[2147483647,0,0,1,1,2,2,3,3,4,4,5,5,6,6,7,7,8,8,9,9,10,10,11,11,12,12,13,13,14,14,15,15,16,16,17,17,18,18,19,19,20,20,21,21,22,22,23,23,25,25,26,26,27,27,28,28,29,29,30,30],"right_children":[2,4,6,8,10,12,14,16,18,20,22,24,26,28,30,32,34,36,38,40,42,44,46,48,-1,50,52,54,56,58,60,-1,-1,-1,-1,-1,-1,-1,-1,-1,-1,-1,-1,-1,-1,-1,-1,-1,-1,-1,-1,-1,-1,-1,-1,-1,-1,-1,-1,-1,-1],"split_conditions":[2.9194717E1,2.1E1,3.3603962E1,1.909756E1,2.5294118E0,1E1,2.7E0,1.7153847E1,1.06E1,1E0,6.2E0,1.96E1,2.5E1,1E0,7.3066666E1,1.38E1,1.8E1,2.159649E1,2.525E1,2.62E1,2.7142857E1,2.3054054E1,6E0,2.4927535E0,1.0589474E-1,7.2E0,5E0,1.25E-1,4.4E1,4.2307693E-1,6.097561E-1,-9.620951E-3,2.6697857E-2,-5.2530896E-3,-8.487425E-3,-5.030025E-3,4.2121965E-3,-6.2832395E-3,-3.0560687E-3,8.829429E-3,-1.5368838E-3,-9.396782E-3,4.000833E-3,2.3244582E-4,-3.8720209E-3,-5.2571962E-5,7.1104662E-3,9.284215E-3,3.9337757E-3,8.135942E-3,-1.9168284E-2,1.6068993E-2,-2.9320358E-3,3.5561178E-2,1.9517908E-2,8.499235E-3,2.8055241E-2,3.0781424E-2,-1.2840054E-2,6.322168E-3,2.160847E-2],"split_indices":[17,17,17,17,52,93,98,17,73,4,94,42,40,4,70,95,17,40,90,17,17,17,5,52,0,76,97,18,17,55,55,0,0,0,0,0,0,0,0,0,0,0,0,0,0,0,0,0,0,0,0,0,0,0,0,0,0,0,0,0,0],"split_type":[0,0,0,0,0,0,0,0,0,0,0,0,0,0,0,0,0,0,0,0,0,0,0,0,0,0,0,0,0,0,0,0,0,0,0,0,0,0,0,0,0,0,0,0,0,0,0,0,0,0,0,0,0,0,0,0,0,0,0,0,0],"sum_hessian":[7.98985E5,6.17981E5,1.81004E5,2.55762E5,3.62219E5,1.02813E5,7.8191E4,1.87098E5,6.8664E4,8.8838E4,2.73381E5,8.4734E4,1.8079E4,3.4262E4,4.3929E4,9.6672E4,9.0426E4,1.246E4,5.6204E4,7.3385E4,1.5453E4,1.89679E5,8.3702E4,8.4689E4,4.5E1,3.734E3,1.4345E4,1.5425E4,1.8837E4,5.509E3,3.842E4,9.6633E4,3.9E1,1.1699E4,7.8727E4,8.415E3,4.045E3,3.7341E4,1.8863E4,5.3974E4,1.9411E4,1.1202E4,4.251E3,6.1458E4,1.28221E5,6.2679E4,2.1023E4,2.2147E4,6.2542E4,3.305E3,4.29E2,1.3473E4,8.72E2,9.115E3,6.31E3,1.1155E4,7.682E3,4.961E3,5.48E2,3.0137E4,8.283E3],"tree_param":{"num_deleted":"0","num_feature":"101","num_nodes":"61","size_leaf_vector":"1"}},{"base_weights":[1.777915E-4,-6.025279E-2,2.0630762E-1,-1.4646645E-1,7.9128233E-4,1.1606479E-1,2.9670385E-1,-1.6843672E-1,-8.643221E-2,7.676916E-2,-2.3910271E-2,8.4085256E-2,1.9954276E-1,3.9431813E-1,2.0781712E-1,-1.7721923E-1,-1.442592E-1,-9.724049E-2,-2.6876057E-2,1.1690115E-1,-1.1303195E-1,-4.8268497E-2,3.119186E-2,1.5835986E-1,5.6291766E-2,1.667271E-1,3.8419262E-1,4.3971786E-1,1.5075152E-1,1.8878058E-1,6.817271E-1,-8.922438E-3,-4.1764244E-3,-7.3112817E-3,3.2223274E-3,-4.041714E-3,-7.2108656E-3,3.4199432E-3,-6.1082435E-3,8.491114E-3,-1.4774214E-3,-1.0327558E-2,1.0320134E-3,2.0364649E-4,-3.663616E-3,-1.7186311E-4,6.7117037E-3,5.012294E-3,1.1626046E-2,-1.5456391E-3,4.4811317E-3,1.3452157E-2,4.950996E-3,3.0924296E-2,1.2251744E-3,1.6406292E-2,3.0604748E-2,3.4574162E-2,4.687946E-3,9.259641E-3,1.1105011E-1,4.8523545E-2,1.5254237E-2],"categories":[],"categories_nodes":[],"categories_segments":[],"categories_sizes":[],"default_left":[0,0,0,0,0,0,0,0,0,0,0,0,0,0,0,0,0,0,0,0,0,0,0,0,0,0,0,0,0,0,0,0,0,0,0,0,0,0,0,0,0,0,0,0,0,0,0,0,0,0,0,0,0,0,0,0,0,0,0,0,0,0,0],"id":15,"left_children":[1,3,5,7,9,11,13,15,17,19,21,23,25,27,29,31,33,35,37,39,41,43,45,47,49,51,53,55,57,59,61,-1,-1,-1,-1,-1,-1,-1,-1,-1,-1,-1,-1,-1,-1,-1,-1,-1,-1,-1,-1,-1,-1,-1,-1,-1,-1,-1,-1,-1,-1,-1,-1],"loss_changes":[9.938855E3,3.2471672E3,1.4755059E3,3.373125E2,6.779496E2,2.4160852E2,7.839116E2,3.970117E1,4.4096466E1,6.751017E2,3.6588565E2,1.3508344E2,1.517962E2,4.760923E2,4.264972E2,1.5780273E1,2.0497192E1,4.4667114E1,9.560267E1,5.6702924E2,1.9339957E2,2.4740796E2,2.9819174E2,7.674829E1,1.3845305E2,1.4742358E2,3.1864014E2,6.979487E2,2.0843083E2,3.3090466E2,1.981596E2,0E0,0E0,0E0,0E0,0E0,0E0,0E0,0E0,0E0,0E0,0E0,0E0,0E0,0E0,0E0,0E0,0E0,0E0,0E0,0E0,0E0,0E0,0E0,0E0,0E0,0E0,0E0,0E0,0E0,0E0,0E0,0E0],"parents":[2147483647,0,0,1,1,2,2,3,3,4,4,5,5,6,6,7,7,8,8,9,9,10,10,11,11,12,12,13,13,14,14,15,15,16,16,17,17,18,18,19,19,20,20,21,21,22,22,23,23,24,24,25,25,26,26,27,27,28,28,29,29,30,30],"right_children":[2,4,6,8,10,12,14,16,18,20,22,24,26,28,30,32,34,36,38,40,42,44,46,48,50,52,54,56,58,60,62,-1,-1,-1,-1,-1,-1,-1,-1,-1,-1,-1,-1,-1,-1,-1,-1,-1,-1,-1,-1,-1,-1,-1,-1,-1,-1,-1,-1,-1,-1,-1,-1],"split_conditions":[2.9194717E1,2.1E1,3.3E1,1.909756E1,2.5294118E0,7.1E0,2.8E0,1.8082474E1,4.5E1,1E0,6.2E0,2.5E0,2.25E0,3.357143E0,1.74E1,1E0,1E0,2.8E0,2.5E0,2.62E1,1.272E0,2.3054054E1,6E0,2.52E1,5.25E0,1.3090909E0,3.45E0,4E0,2.881356E-1,1.96E1,1.625E0,-8.922438E-3,-4.1764244E-3,-7.3112817E-3,3.2223274E-3,-4.041714E-3,-7.2108656E-3,3.4199432E-3,-6.1082435E-3,8.491114E-3,-1.4774214E-3,-1.0327558E-2,1.0320134E-3,2.0364649E-4,-3.663616E-3,-1.7186311E-4,6.7117037E-3,5.012294E-3,1.1626046E-2,-1.5456391E-3,4.4811317E-3,1.3452157E-2,4.950996E-3,3.0924296E-2,1.2251744E-3,1.6406292E-2,3.0604748E-2,3.4574162E-2,4.687946E-3,9.259641E-3,1.1105011E-1,4.8523545E-2,1.5254237E-2],"split_indices":[17,17,17,17,52,23,98,17,14,4,94,97,62,51,47,13,4,87,86,17,64,17,5,90,99,64,51,5,55,42,64,0,0,0,0,0,0,0,0,0,0,0,0,0,0,0,0,0,0,0,0,0,0,0,0,0,0,0,0,0,0,0,0],"split_type":[0,0,0,0,0,0,0,0,0,0,0,0,0,0,0,0,0,0,0,0,0,0,0,0,0,0,0,0,0,0,0,0,0,0,0,0,0,0,0,0,0,0,0,0,0,0,0,0,0,0,0,0,0,0,0,0,0,0,0,0,0,0,0],"sum_hessian":[7.97879E5,6.16996E5,1.80883E5,2.55769E5,3.61227E5,9.052E4,9.0363E4,1.87242E5,6.8527E4,8.8627E4,2.726E5,6.545E4,2.507E4,4.3065E4,4.7298E4,1.37342E5,4.99E4,5.7999E4,1.0528E4,7.3159E4,1.5468E4,1.89037E5,8.3563E4,1.782E4,4.763E4,2.1289E4,3.781E3,3.6298E4,6.767E3,4.5473E4,1.825E3,1.35561E5,1.781E3,4.9435E4,4.65E2,4.299E4,1.5009E4,5.264E3,5.264E3,5.374E4,1.9419E4,9.101E3,6.367E3,6.111E4,1.27927E5,6.2544E4,2.1019E4,9.993E3,7.827E3,1.317E4,3.446E4,8.476E3,1.2813E4,2.289E3,1.492E3,2.2036E4,1.4262E4,6.44E2,6.123E3,4.5394E4,7.9E1,1.032E3,7.93E2],"tree_param":{"num_deleted":"0","num_feature":"101","num_nodes":"63","size_leaf_vector":"1"}},{"base_weights":[1.5521797E-4,-5.7111856E-2,1.9595958E-1,-1.3926788E-1,1.0419644E-3,1.310578E-1,3.1859598E-1,-1.5977664E-1,-8.3084546E-2,-4.417565E-2,4.096906E-2,1.0526796E-1,2.3799308E-1,4.6196136E-1,2.3954906E-1,-1.6098376E-1,1.4045326E-3,-8.64315E-2,9.72669E-2,3.0370435E-2,-8.154762E-2,7.162427E-2,-3.8479187E-2,-2.9618077E-2,1.2689187E-1,2.5914884E-1,-3.7271388E-2,5.460655E-1,6.2320955E-2,1.4263068E-1,4.8390934E-1,-8.691218E-3,-7.3596495E-3,-2.1197996E-3,8.0524154E-2,-3.8573467E-3,-7.235368E-3,2.5180224E-2,-9.923086E-4,-7.217407E-4,1.3230467E-2,-5.4959087E-3,-4.345516E-4,3.0424742E-3,1.6279947E-2,-8.4985355E-3,-2.8192197E-4,9.237605E-3,-4.179248E-3,6.273663E-3,9.984063E-2,1.0240509E-2,1.8365884E-2,4.5999987E-3,-2.3566121E-2,2.345666E-2,5.759675E-2,5.8322217E-2,6.609928E-5,-2.5064978E-3,1.0814835E-2,2.990423E-2,7.28647E-3],"categories":[],"categories_nodes":[],"categories_segments":[],"categories_sizes":[],"default_left":[0,0,0,0,0,0,0,0,0,0,0,0,0,0,0,0,0,0,0,0,0,0,0,0,0,0,0,0,0,0,0,0,0,0,0,0,0,0,0,0,0,0,0,0,0,0,0,0,0,0,0,0,0,0,0,0,0,0,0,0,0,0,0],"id":16,"left_children":[1,3,5,7,9,11,13,15,17,19,21,23,25,27,29,31,33,35,37,39,41,43,45,47,49,51,53,55,57,59,61,-1,-1,-1,-1,-1,-1,-1,-1,-1,-1,-1,-1,-1,-1,-1,-1,-1,-1,-1,-1,-1,-1,-1,-1,-1,-1,-1,-1,-1,-1,-1,-1],"loss_changes":[8.942237E3,2.9479272E3,1.4362524E3,2.946328E2,6.522665E2,3.2539355E2,7.075508E2,3.646631E1,4.12901E1,4.719921E2,4.673012E2,2.773452E2,1.3355737E2,7.4587695E2,9.532988E2,3.2871094E1,9.840161E1,3.629706E1,5.9352318E1,5.9375946E2,2.332378E2,3.788106E2,2.30664E2,1.5198584E2,2.1691272E2,1.2502246E2,9.193396E1,8.5390967E2,2.598542E2,4.0936823E2,4.412483E2,0E0,0E0,0E0,0E0,0E0,0E0,0E0,0E0,0E0,0E0,0E0,0E0,0E0,0E0,0E0,0E0,0E0,0E0,0E0,0E0,0E0,0E0,0E0,0E0,0E0,0E0,0E0,0E0,0E0,0E0,0E0,0E0],"parents":[2147483647,0,0,1,1,2,2,3,3,4,4,5,5,6,6,7,7,8,8,9,9,10,10,11,11,12,12,13,13,14,14,15,15,16,16,17,17,18,18,19,19,20,20,21,21,22,22,23,23,24,24,25,25,26,26,27,27,28,28,29,29,30,30],"right_children":[2,4,6,8,10,12,14,16,18,20,22,24,26,28,30,32,34,36,38,40,42,44,46,48,50,52,54,56,58,60,62,-1,-1,-1,-1,-1,-1,-1,-1,-1,-1,-1,-1,-1,-1,-1,-1,-1,-1,-1,-1,-1,-1,-1,-1,-1,-1,-1,-1,-1,-1,-1,-1],"split_conditions":[2.9194717E1,2.1E1,3.5E1,1.909756E1,4.2528734E0,9.75E0,1E0,1E0,3.34E1,2.3054054E1,3.8E0,1.7917595E0,5E0,3.9727272E1,4.5138462E1,1.7153847E1,9.59E1,3.125E0,3.4666668E1,2.3E1,3.888889E-1,1.475E1,1.1034483E-1,2.4285715E0,1.96E1,9.2E0,1.1E1,3.9E1,1.0986123E0,4.5E0,6.95E0,-8.691218E-3,-7.3596495E-3,-2.1197996E-3,8.0524154E-2,-3.8573467E-3,-7.235368E-3,2.5180224E-2,-9.923086E-4,-7.217407E-4,1.3230467E-2,-5.4959087E-3,-4.345516E-4,3.0424742E-3,1.6279947E-2,-8.4985355E-3,-2.8192197E-4,9.237605E-3,-4.179248E-3,6.273663E-3,9.984063E-2,1.0240509E-2,1.8365884E-2,4.5999987E-3,-2.3566121E-2,2.345666E-2,5.759675E-2,5.8322217E-2,6.609928E-5,-2.5064978E-3,1.0814835E-2,2.990423E-2,7.28647E-3],"split_indices":[17,17,17,17,49,93,4,4,82,17,97,12,97,17,17,17,69,78,82,17,54,48,20,52,42,47,14,17,12,47,100,0,0,0,0,0,0,0,0,0,0,0,0,0,0,0,0,0,0,0,0,0,0,0,0,0,0,0,0,0,0,0,0],"split_type":[0,0,0,0,0,0,0,0,0,0,0,0,0,0,0,0,0,0,0,0,0,0,0,0,0,0,0,0,0,0,0,0,0,0,0,0,0,0,0,0,0,0,0,0,0,0,0,0,0,0,0,0,0,0,0,0,0,0,0,0,0,0,0],"sum_hessian":[7.97475E5,6.17016E5,1.80459E5,2.55733E5,3.61283E5,1.18009E5,6.245E4,1.87343E5,6.839E4,1.69416E5,1.91867E5,9.5081E4,2.2928E4,2.2193E4,4.0257E4,1.85951E5,1.392E3,6.7145E4,1.245E3,5.6571E4,1.12845E5,1.38448E5,5.3419E4,1.3136E4,8.1945E4,2.1292E4,1.636E3,1.8334E4,3.859E3,2.8826E4,1.1431E4,9.6283E4,8.9668E4,1.356E3,3.6E1,5.7921E4,9.224E3,2.78E2,9.67E2,4.7488E4,9.083E3,8.1217E4,3.1628E4,1.32815E5,5.633E3,1.0674E4,4.2745E4,2.641E3,1.0495E4,8.1884E4,6.1E1,1.4175E4,7.117E3,1.261E3,3.75E2,1.627E4,2.064E3,2.01E2,3.658E3,7.97E3,2.0856E4,8.545E3,2.886E3],"tree_param":{"num_deleted":"0","num_feature":"101","num_nodes":"63","size_leaf_vector":"1"}},{"base_weights":[-1.3799372E-4,-5.477864E-2,1.8640488E-1,-1.3256529E-1,2.2968865E-4,1.2597221E-1,3.0083048E-1,-1.5178904E-1,-7.989361E-2,7.440048E-2,-2.3702037E-2,8.570076E-2,1.918637E-1,4.399251E-1,2.2417031E-1,-1.5298311E-1,7.874709E-3,-9.035489E-2,-2.1646647E-2,5.7834487E-2,3.0875573E-1,-9.999911E-2,-6.2421616E-3,-1.1497788E-1,1.0138014E-1,2.188664E-1,6.662715E-2,5.2034485E-1,5.4286163E-2,1.7949079E-1,7.1250147E-1,-8.04719E-3,-6.551216E-3,-1.5148395E-3,7.0310175E-2,-2.9835121E-3,-5.7093003E-3,3.7117663E-3,-5.8331313E-3,1.4371205E-3,8.679292E-3,3.765372E-2,9.627629E-3,-2.9534416E-3,-7.633157E-3,-5.480302E-4,1.7314754E-2,-1.3543483E-3,-1.8411076E-2,4.983889E-3,9.530194E-2,9.754716E-3,2.7687201E-2,1.1726863E-3,4.2822152E-2,2.2418931E-2,5.493919E-2,5.537587E-2,-2.4945356E-4,1.4068268E-2,1.1033334E-3,3.0196711E-2,6.202466E-2],"categories":[],"categories_nodes":[],"categories_segments":[],"categories_sizes":[],"default_left":[0,0,0,0,0,0,0,0,0,0,0,0,0,0,0,0,0,0,0,0,0,0,0,0,0,0,0,0,0,0,0,0,0,0,0,0,0,0,0,0,0,0,0,0,0,0,0,0,0,0,0,0,0,0,0,0,0,0,0,0,0,0,0],"id":17,"left_children":[1,3,5,7,9,11,13,15,17,19,21,23,25,27,29,31,33,35,37,39,41,43,45,47,49,51,53,55,57,59,61,-1,-1,-1,-1,-1,-1,-1,-1,-1,-1,-1,-1,-1,-1,-1,-1,-1,-1,-1,-1,-1,-1,-1,-1,-1,-1,-1,-1,-1,-1,-1,-1],"loss_changes":[8.123728E3,2.63772E3,1.2485205E3,2.5852148E2,6.40956E2,3.1350146E2,6.6523926E2,3.5680664E1,4.159305E1,3.419319E2,3.6366754E2,2.3077905E2,1.5152905E2,6.875039E2,8.776028E2,3.240918E1,7.431988E1,4.2302704E1,9.475112E1,2.7702814E2,2.9999597E2,1.0955597E2,3.69527E2,1.1825078E2,2.0860107E2,2.9332935E2,2.710476E2,7.6301904E2,2.390374E2,5.911384E2,1.9235828E2,0E0,0E0,0E0,0E0,0E0,0E0,0E0,0E0,0E0,0E0,0E0,0E0,0E0,0E0,0E0,0E0,0E0,0E0,0E0,0E0,0E0,0E0,0E0,0E0,0E0,0E0,0E0,0E0,0E0,0E0,0E0,0E0],"parents":[2147483647,0,0,1,1,2,2,3,3,4,4,5,5,6,6,7,7,8,8,9,9,10,10,11,11,12,12,13,13,14,14,15,15,16,16,17,17,18,18,19,19,20,20,21,21,22,22,23,23,24,24,25,25,26,26,27,27,28,28,29,29,30,30],"right_children":[2,4,6,8,10,12,14,16,18,20,22,24,26,28,30,32,34,36,38,40,42,44,46,48,50,52,54,56,58,60,62,-1,-1,-1,-1,-1,-1,-1,-1,-1,-1,-1,-1,-1,-1,-1,-1,-1,-1,-1,-1,-1,-1,-1,-1,-1,-1,-1,-1,-1,-1,-1,-1],"split_conditions":[2.9194717E1,2.1E1,3.5E1,1.909756E1,2.25E0,7E0,1E0,1E0,4.5E1,1.495E1,3E0,1.3862944E0,3.45E0,3.9727272E1,5.2E1,1.8082474E1,4.571429E0,2.6785715E0,2.5E0,8.666667E0,2.625E1,5.3E1,1.55E1,1.4813766E1,1.96E1,3.8797814E-1,1E0,3.9E1,1.0986123E0,1.3333334E0,3.276E3,-8.04719E-3,-6.551216E-3,-1.5148395E-3,7.0310175E-2,-2.9835121E-3,-5.7093003E-3,3.7117663E-3,-5.8331313E-3,1.4371205E-3,8.679292E-3,3.765372E-2,9.627629E-3,-2.9534416E-3,-7.633157E-3,-5.480302E-4,1.7314754E-2,-1.3543483E-3,-1.8411076E-2,4.983889E-3,9.530194E-2,9.754716E-3,2.7687201E-2,1.1726863E-3,4.2822152E-2,2.2418931E-2,5.493919E-2,5.537587E-2,-2.4945356E-4,1.4068268E-2,1.1033334E-3,3.0196711E-2,6.202466E-2],"split_indices":[17,17,17,17,97,93,4,4,14,94,5,12,51,17,17,17,86,58,86,47,90,9,48,43,42,18,53,17,12,87,21,0,0,0,0,0,0,0,0,0,0,0,0,0,0,0,0,0,0,0,0,0,0,0,0,0,0,0,0,0,0,0,0],"split_type":[0,0,0,0,0,0,0,0,0,0,0,0,0,0,0,0,0,0,0,0,0,0,0,0,0,0,0,0,0,0,0,0,0,0,0,0,0,0,0,0,0,0,0,0,0,0,0,0,0,0,0,0,0,0,0,0,0,0,0,0,0,0,0],"sum_hessian":[7.97004E5,6.16442E5,1.80562E5,2.55352E5,3.6109E5,1.1816E5,6.2402E4,1.87072E5,6.828E4,8.8087E4,2.73003E5,7.334E4,4.482E4,2.217E4,4.0232E4,1.85684E5,1.388E3,5.7882E4,1.0398E4,8.2273E4,5.814E3,5.0838E4,2.22165E5,5.314E3,6.8026E4,3.6869E4,7.951E3,1.8344E4,3.826E3,3.6861E4,3.371E3,1.36271E5,4.9413E4,1.352E3,3.6E1,2.5306E4,3.2576E4,5.175E3,5.223E3,6.575E4,1.6523E4,1.204E3,4.61E3,2.8608E4,2.223E4,2.19232E5,2.933E3,3.946E3,1.368E3,6.7963E4,6.3E1,3.4427E4,2.442E3,7.54E3,4.11E2,1.6316E4,2.028E3,2.03E2,3.623E3,2.2378E4,1.4483E4,2.798E3,5.73E2],"tree_param":{"num_deleted":"0","num_feature":"101","num_nodes":"63","size_leaf_vector":"1"}},{"base_weights":[-5.9169723E-4,-2.2293981E-2,1.3871555E-1,-4.2962775E-2,7.0721224E-2,6.740958E-2,1.9912876E-1,-7.071529E-2,-9.880415E-3,4.2605218E-1,6.0458917E-2,1.6169398E-1,-6.853096E-3,2.3180401E-1,1.3240355E-2,-7.2190344E-2,2.4778688E-1,-1.0690205E-2,1.9759231E0,3.1427908E-1,1.694498E0,2.8578445E-1,5.1189244E-2,1.4264269E-1,5.6975836E-1,-4.8262827E-2,1.2692231E-1,1.5882063E0,2.288051E-1,-1.1132959E-2,1.2090119E0,-2.0508324E-3,-4.282867E-3,4.894558E-3,5.020534E-2,2.6053705E-4,-2.9906267E-3,1.1130656E-1,8.996477E-2,-1.1704102E-3,2.5406182E-2,1.0216003E-3,9.5288076E-2,3.412499E-2,8.176123E-3,2.950761E-3,-7.084414E-3,6.7451075E-3,4.390442E-2,1.9136084E-2,5.7431813E-2,-2.6208942E-3,6.368233E-2,5.4768557E-3,1.1226373E-1,1.2706308E-1,1.6100299E-2,9.848728E-3,1.7585795E-2,-1.676732E-3,4.0045336E-2,7.045768E-2,-1.8099424E-3],"categories":[],"categories_nodes":[],"categories_segments":[],"categories_sizes":[],"default_left":[0,0,0,0,0,0,0,0,0,0,0,0,0,0,0,0,0,0,0,0,0,0,0,0,0,0,0,0,0,0,0,0,0,0,0,0,0,0,0,0,0,0,0,0,0,0,0,0,0,0,0,0,0,0,0,0,0,0,0,0,0,0,0],"id":18,"left_children":[1,3,5,7,9,11,13,15,17,19,21,23,25,27,29,31,33,35,37,39,41,43,45,47,49,51,53,55,57,59,61,-1,-1,-1,-1,-1,-1,-1,-1,-1,-1,-1,-1,-1,-1,-1,-1,-1,-1,-1,-1,-1,-1,-1,-1,-1,-1,-1,-1,-1,-1,-1,-1],"loss_changes":[2.4124617E3,1.327318E3,4.63292E2,5.1862463E2,4.5764355E2,3.4543695E2,3.5362207E2,1.4431873E2,4.1422943E2,4.9875098E2,2.5477231E2,1.6883417E2,1.5287468E2,2.0088525E2,2.5386888E2,1.2835168E2,1.6032217E2,2.0121262E2,2.322998E-1,2.1208154E2,1.0056409E2,2.3358923E2,1.7687943E2,1.1801285E2,1.04322235E2,1.15701385E2,2.397474E2,1.3043207E2,1.931875E2,1.5517436E2,4.3552322E1,0E0,0E0,0E0,0E0,0E0,0E0,0E0,0E0,0E0,0E0,0E0,0E0,0E0,0E0,0E0,0E0,0E0,0E0,0E0,0E0,0E0,0E0,0E0,0E0,0E0,0E0,0E0,0E0,0E0,0E0,0E0,0E0],"parents":[2147483647,0,0,1,1,2,2,3,3,4,4,5,5,6,6,7,7,8,8,9,9,10,10,11,11,12,12,13,13,14,14,15,15,16,16,17,17,18,18,19,19,20,20,21,21,22,22,23,23,24,24,25,25,26,26,27,27,28,28,29,29,30,30],"right_children":[2,4,6,8,10,12,14,16,18,20,22,24,26,28,30,32,34,36,38,40,42,44,46,48,50,52,54,56,58,60,62,-1,-1,-1,-1,-1,-1,-1,-1,-1,-1,-1,-1,-1,-1,-1,-1,-1,-1,-1,-1,-1,-1,-1,-1,-1,-1,-1,-1,-1,-1,-1,-1],"split_conditions":[9.6E0,7.6666665E0,5.8E0,2.34E1,2.2E0,2E0,4.4E0,3.115E1,1.96E1,3.5555556E0,3.8064516E0,2.4333334E1,3.551E3,8.5714287E-1,1.94E1,2.75E0,2.5555556E0,4.25E0,5.0625E-1,2.325E1,5E0,2.025E0,3.9736843E0,3.065E1,6E0,1.08E1,8.333333E0,6E1,1.425E1,5.489051E0,3.3E1,-2.0508324E-3,-4.282867E-3,4.894558E-3,5.020534E-2,2.6053705E-4,-2.9906267E-3,1.1130656E-1,8.996477E-2,-1.1704102E-3,2.5406182E-2,1.0216003E-3,9.5288076E-2,3.412499E-2,8.176123E-3,2.950761E-3,-7.084414E-3,6.7451075E-3,4.390442E-2,1.9136084E-2,5.7431813E-2,-2.6208942E-3,6.368233E-2,5.4768557E-3,1.1226373E-1,1.2706308E-1,1.6100299E-2,9.848728E-3,1.7585795E-2,-1.676732E-3,4.0045336E-2,7.045768E-2,-1.8099424E-3],"split_indices":[93,47,47,89,65,35,97,39,42,86,67,93,21,58,83,97,78,97,16,80,5,58,52,39,5,76,67,7,94,58,7,0,0,0,0,0,0,0,0,0,0,0,0,0,0,0,0,0,0,0,0,0,0,0,0,0,0,0,0,0,0,0,0],"split_type":[0,0,0,0,0,0,0,0,0,0,0,0,0,0,0,0,0,0,0,0,0,0,0,0,0,0,0,0,0,0,0,0,0,0,0,0,0,0,0,0,0,0,0,0,0,0,0,0,0,0,0,0,0,0,0,0,0,0,0,0,0,0,0],"sum_hessian":[7.97962E5,6.90407E5,1.07555E5,5.64886E5,1.25521E5,4.9332E4,5.8223E4,3.07186E5,2.577E5,3.522E3,1.21999E5,2.1736E4,2.7596E4,4.9518E4,8.705E3,3.05771E5,1.415E3,2.57596E5,1.04E2,3.238E3,2.84E2,4.819E3,1.1718E5,2.0768E4,9.68E2,2.1074E4,6.522E3,1.08E2,4.941E4,8.532E3,1.73E2,9.2247E4,2.13524E5,1.182E3,2.33E2,1.94602E5,6.2994E4,3.8E1,6.6E1,1.181E3,2.057E3,3.2E1,2.52E2,1.134E3,3.685E3,1.12612E5,4.568E3,2.0553E4,2.15E2,7.33E2,2.35E2,2.1009E4,6.5E1,6.47E3,5.2E1,6.1E1,4.7E1,3.9249E4,1.0161E4,8.304E3,2.28E2,1.49E2,2.4E1],"tree_param":{"num_deleted":"0","num_feature":"101","num_nodes":"63","size_leaf_vector":"1"}},{"base_weights":[6.695112E-5,-2.6450101E-2,9.7357616E-2,-5.4089006E-2,2.9063322E-2,7.4552074E-2,2.662471E-1,-5.803156E-2,1.3903688E-1,1.2422463E-1,7.3384084E-3,5.3314593E-2,2.6857188E-1,1.7457345E-1,4.309973E-1,-7.8250214E-2,-3.8281046E-2,3.8832885E-1,5.115022E-2,1.1610397E-1,6.2714314E-1,6.3196807E-3,9.6271984E-2,4.1792225E-2,2.002186E-1,7.158525E-1,2.4552633E-1,1.4062771E-1,5.449696E-1,5.0997037E-1,-9.703627E-2,-6.072541E-4,-4.2654597E-3,-1.6705253E-3,-8.181964E-3,9.287216E-3,3.8426645E-2,1.4591402E-3,6.054308E-2,4.221597E-3,1.0238521E-2,5.234131E-2,8.988152E-3,2.428771E-4,6.477853E-2,1.9514749E-3,3.5171464E-2,4.890504E-3,1.9407308E-2,6.646535E-3,6.1227884E-2,-1.3612225E-2,1.3239475E-2,1.0443202E-2,-2.9145787E-4,4.6854347E-2,1.0159486E-2,3.0889004E-2,8.883104E-3,-2.496353E-2,1.9849759E-2],"categories":[],"categories_nodes":[],"categories_segments":[],"categories_sizes":[],"default_left":[0,0,0,0,0,0,0,0,0,0,0,0,0,0,0,0,0,0,0,0,0,0,0,0,0,0,0,0,0,0,0,0,0,0,0,0,0,0,0,0,0,0,0,0,0,0,0,0,0,0,0,0,0,0,0,0,0,0,0,0,0],"id":19,"left_children":[1,3,5,7,9,11,13,15,17,19,21,23,25,27,29,31,33,35,37,39,41,43,-1,45,47,49,51,53,55,57,59,-1,-1,-1,-1,-1,-1,-1,-1,-1,-1,-1,-1,-1,-1,-1,-1,-1,-1,-1,-1,-1,-1,-1,-1,-1,-1,-1,-1,-1,-1],"loss_changes":[2.0581716E3,9.6189417E2,6.580676E2,3.1867627E2,4.3078064E2,6.202648E2,3.0686804E2,1.6377539E2,1.833839E2,1.5802338E2,3.312946E2,2.2965088E2,1.5282007E2,1.640882E2,3.0308618E2,9.456482E1,1.2665915E2,1.67827E2,1.5758719E2,1.0699005E2,1.1516023E2,3.19497E2,0E0,2.2989667E2,1.898269E2,2.1528265E2,1.4096265E2,1.1961586E2,1.4657907E2,2.2626721E2,1.8819415E2,0E0,0E0,0E0,0E0,0E0,0E0,0E0,0E0,0E0,0E0,0E0,0E0,0E0,0E0,0E0,0E0,0E0,0E0,0E0,0E0,0E0,0E0,0E0,0E0,0E0,0E0,0E0,0E0,0E0,0E0],"parents":[2147483647,0,0,1,1,2,2,3,3,4,4,5,5,6,6,7,7,8,8,9,9,10,10,11,11,12,12,13,13,14,14,15,15,16,16,17,17,18,18,19,19,20,20,21,21,23,23,24,24,25,25,26,26,27,27,28,28,29,29,30,30],"right_children":[2,4,6,8,10,12,14,16,18,20,22,24,26,28,30,32,34,36,38,40,42,44,-1,46,48,50,52,54,56,58,60,-1,-1,-1,-1,-1,-1,-1,-1,-1,-1,-1,-1,-1,-1,-1,-1,-1,-1,-1,-1,-1,-1,-1,-1,-1,-1,-1,-1,-1,-1],"split_conditions":[7.6E0,2.52E1,1.0888889E1,1.16E1,2.2E0,1.4375E1,1E0,2.18E1,2.05E0,1.85E1,1.96E1,6E0,1.28E1,1.2714286E1,3.5E0,1.3333334E0,1.4666667E1,5.2E0,1.709091E1,5.8E0,7E0,7.6E0,9.6271984E-2,1.7625E1,1.6111112E0,1.8E0,1.6666667E-1,2.6363637E0,2.8625E1,2.845E1,2.8333333E0,-6.072541E-4,-4.2654597E-3,-1.6705253E-3,-8.181964E-3,9.287216E-3,3.8426645E-2,1.4591402E-3,6.054308E-2,4.221597E-3,1.0238521E-2,5.234131E-2,8.988152E-3,2.428771E-4,6.477853E-2,1.9514749E-3,3.5171464E-2,4.890504E-3,1.9407308E-2,6.646535E-3,6.1227884E-2,-1.3612225E-2,1.3239475E-2,1.0443202E-2,-2.9145787E-4,4.6854347E-2,1.0159486E-2,3.0889004E-2,8.883104E-3,-2.496353E-2,1.9849759E-2],"split_indices":[47,89,23,23,97,49,4,89,51,91,42,24,73,84,51,50,91,47,43,47,65,50,0,25,63,50,10,51,81,39,77,0,0,0,0,0,0,0,0,0,0,0,0,0,0,0,0,0,0,0,0,0,0,0,0,0,0,0,0,0,0],"split_type":[0,0,0,0,0,0,0,0,0,0,0,0,0,0,0,0,0,0,0,0,0,0,0,0,0,0,0,0,0,0,0,0,0,0,0,0,0,0,0,0,0,0,0,0,0,0,0,0,0,0,0,0,0,0,0,0,0,0,0,0,0],"sum_hessian":[7.97779E5,6.26911E5,1.70868E5,4.18534E5,2.08377E5,1.50542E5,2.0326E4,4.10162E5,8.372E3,3.8728E4,1.69649E5,1.35691E5,1.4851E4,1.3061E4,7.265E3,2.02675E5,2.07487E5,2.181E3,6.191E3,3.8114E4,6.14E2,1.6956E5,8.9E1,1.25824E5,9.867E3,7.26E2,1.4125E4,1.1966E4,1.095E3,6.32E3,9.45E2,1.9556E4,1.83119E5,1.99729E5,7.758E3,1.424E3,7.57E2,6.077E3,1.14E2,2.8085E4,1.0029E4,3.16E2,2.98E2,1.69369E5,1.91E2,1.25302E5,5.22E2,6.388E3,3.479E3,3.39E2,3.87E2,5.06E2,1.3619E4,8.163E3,3.803E3,5.09E2,5.86E2,4.771E3,1.549E3,5.21E2,4.24E2],"tree_param":{"num_deleted":"0","num_feature":"101","num_nodes":"61","size_leaf_vector":"1"}},{"base_weights":[-5.2666306E-5,-4.5083318E-2,1.9469708E-1,-1.2288064E-1,5.5044703E-3,1.3489893E-1,2.7787676E-1,-1.410264E-1,-7.001149E-2,6.980868E-2,-1.5717667E-2,1.560814E-1,5.129143E-3,4.312418E-1,2.1762595E-1,-1.4891572E-1,-1.20619394E-1,-1.0781053E-2,-8.304348E-2,1.0166883E-1,-7.1086176E-2,-3.9548032E-2,2.6283596E-2,2.053442E-1,9.336751E-2,1.0096508E-1,-1.604117E-1,5.153058E-1,2.2491702E-1,6.8357396E-1,1.9783372E-1,-7.499985E-3,-3.2970172E-3,-4.5294194E-3,-6.7521655E-3,-3.521124E-3,6.4395554E-3,-4.380095E-3,6.4426675E-3,7.616197E-3,-2.2898742E-4,-8.770224E-3,5.0505465E-3,3.5818267E-4,-2.998575E-3,3.2948062E-3,-1.6606584E-3,1.0017689E-2,5.2730437E-2,2.4894602E-3,1.3498008E-2,2.7199332E-2,2.8112826E-3,-1.50203975E-2,8.8460995E-3,1.9024901E-2,3.807733E-2,1.2972129E-2,-3.6746766E-2,1.3151079E-2,5.1391657E-2,7.839865E-3,2.1118658E-2],"categories":[],"categories_nodes":[],"categories_segments":[],"categories_sizes":[],"default_left":[0,0,0,0,0,0,0,0,0,0,0,0,0,0,0,0,0,0,0,0,0,0,0,0,0,0,0,0,0,0,0,0,0,0,0,0,0,0,0,0,0,0,0,0,0,0,0,0,0,0,0,0,0,0,0,0,0,0,0,0,0,0,0],"id":20,"left_children":[1,3,5,7,9,11,13,15,17,19,21,23,25,27,29,31,33,35,37,39,41,43,45,47,49,51,53,55,57,59,61,-1,-1,-1,-1,-1,-1,-1,-1,-1,-1,-1,-1,-1,-1,-1,-1,-1,-1,-1,-1,-1,-1,-1,-1,-1,-1,-1,-1,-1,-1,-1,-1],"loss_changes":[7.0019653E3,2.5521821E3,7.457407E2,2.451062E2,5.3626965E2,2.3977856E2,5.793052E2,3.0581543E1,5.039032E1,4.377215E2,2.9572287E2,2.3163904E2,1.9424254E2,3.0656494E2,4.1500415E2,1.2307129E1,2.2943237E1,9.804663E1,5.170096E1,4.2803253E2,3.2287173E2,1.7984128E2,2.520671E2,1.7766296E2,2.5387122E2,1.5361761E2,2.1206052E2,4.166931E2,1.6988321E2,2.6512524E2,3.978595E2,0E0,0E0,0E0,0E0,0E0,0E0,0E0,0E0,0E0,0E0,0E0,0E0,0E0,0E0,0E0,0E0,0E0,0E0,0E0,0E0,0E0,0E0,0E0,0E0,0E0,0E0,0E0,0E0,0E0,0E0,0E0,0E0],"parents":[2147483647,0,0,1,1,2,2,3,3,4,4,5,5,6,6,7,7,8,8,9,9,10,10,11,11,12,12,13,13,14,14,15,15,16,16,17,17,18,18,19,19,20,20,21,21,22,22,23,23,24,24,25,25,26,26,27,27,28,28,29,29,30,30],"right_children":[2,4,6,8,10,12,14,16,18,20,22,24,26,28,30,32,34,36,38,40,42,44,46,48,50,52,54,56,58,60,62,-1,-1,-1,-1,-1,-1,-1,-1,-1,-1,-1,-1,-1,-1,-1,-1,-1,-1,-1,-1,-1,-1,-1,-1,-1,-1,-1,-1,-1,-1,-1,-1],"split_conditions":[3.0268656E1,2.1E1,3.5E1,1.923077E1,2.5294118E0,7.3488374E0,2.2727273E0,1.8082474E1,1.06E1,1E0,5.65E0,3E0,5.2380955E-1,2.8888888E0,2.1212122E-1,1E0,1.05E1,2.545E3,1.6333334E1,2.62E1,2.7142857E1,2.3054054E1,1.9E1,1.97E2,7.5E0,1.7560976E0,5E0,4E0,1.41E2,7.144737E0,9.878049E0,-7.499985E-3,-3.2970172E-3,-4.5294194E-3,-6.7521655E-3,-3.521124E-3,6.4395554E-3,-4.380095E-3,6.4426675E-3,7.616197E-3,-2.2898742E-4,-8.770224E-3,5.0505465E-3,3.5818267E-4,-2.998575E-3,3.2948062E-3,-1.6606584E-3,1.0017689E-2,5.2730437E-2,2.4894602E-3,1.3498008E-2,2.7199332E-2,2.8112826E-3,-1.50203975E-2,8.8460995E-3,1.9024901E-2,3.807733E-2,1.2972129E-2,-3.6746766E-2,1.3151079E-2,5.1391657E-2,7.839865E-3,2.1118658E-2],"split_indices":[17,17,17,17,52,10,98,17,73,4,94,51,61,51,55,13,71,21,84,17,17,17,9,14,47,58,8,5,14,67,49,0,0,0,0,0,0,0,0,0,0,0,0,0,0,0,0,0,0,0,0,0,0,0,0,0,0,0,0,0,0,0,0],"split_type":[0,0,0,0,0,0,0,0,0,0,0,0,0,0,0,0,0,0,0,0,0,0,0,0,0,0,0,0,0,0,0,0,0,0,0,0,0,0,0,0,0,0,0,0,0,0,0,0,0,0,0,0,0,0,0,0,0,0,0,0,0,0,0],"sum_hessian":[7.98426E5,6.48483E5,1.49943E5,2.55523E5,3.9296E5,8.7234E4,6.2709E4,1.90229E5,6.5294E4,9.7508E4,2.95452E5,7.4992E4,1.2242E4,1.7685E4,4.5024E4,1.37183E5,5.3046E4,1.1777E4,5.3517E4,7.9526E4,1.7982E4,1.88503E5,1.06949E5,4.1998E4,3.2994E4,7.754E3,4.488E3,1.2564E4,5.121E3,1.833E3,4.3191E4,1.35412E5,1.771E3,1.7216E4,3.583E4,8.252E3,3.525E3,5.2391E4,1.126E3,5.3852E4,2.5674E4,1.1196E4,6.786E3,5.7344E4,1.31159E5,6.4204E4,4.2745E4,4.1754E4,2.44E2,2.6465E4,6.529E3,7.1E2,7.044E3,3.172E3,1.316E3,8.121E3,4.443E3,4.944E3,1.77E2,8.26E2,1.007E3,3.6519E4,6.672E3],"tree_param":{"num_deleted":"0","num_feature":"101","num_nodes":"63","size_leaf_vector":"1"}},{"base_weights":[4.157251E-5,-3.8642555E-2,2.0859596E-1,-1.0644294E-1,1.6104985E-2,1.9647597E-1,6.2088853E-1,-1.3331601E-1,-6.0196575E-2,1.03696175E-1,-4.257495E-3,1.8144903E-1,5.128272E-1,5.675107E-1,1.4740385E0,-1.5495302E-1,-1.2638678E-1,-3.780718E-2,-9.315483E-2,2.8220303E-2,2.9031825E-1,-4.233669E-2,5.160536E-2,1.6479331E-1,4.6899858E-1,3.670249E-1,7.1171564E-1,4.0879065E-1,8.7449855E-1,2.0321007E0,1.1650246E-1,-7.7623553E-3,3.0042952E-2,-6.386974E-3,1.3597553E-3,-1.9616445E-3,3.9135307E-2,-7.1885707E-3,-3.3190686E-3,6.800085E-3,-3.3887594E-3,1.8203652E-2,-1.7077845E-2,-7.5511597E-3,-1.3166013E-3,2.195882E-3,2.112365E-2,1.1316275E-2,4.7593373E-3,2.448029E-2,-3.8460057E-2,2.0375399E-2,-3.5124768E-2,5.024865E-4,3.996641E-2,3.221042E-2,9.327801E-3,9.5279254E-2,3.3910554E-2,1.18350744E-1,5.7845738E-2,4.6853986E-2,-3.844906E-3],"categories":[],"categories_nodes":[],"categories_segments":[],"categories_sizes":[],"default_left":[0,0,0,0,0,0,0,0,0,0,0,0,0,0,0,0,0,0,0,0,0,0,0,0,0,0,0,0,0,0,0,0,0,0,0,0,0,0,0,0,0,0,0,0,0,0,0,0,0,0,0,0,0,0,0,0,0,0,0,0,0,0,0],"id":21,"left_children":[1,3,5,7,9,11,13,15,17,19,21,23,25,27,29,31,33,35,37,39,41,43,45,47,49,51,53,55,57,59,61,-1,-1,-1,-1,-1,-1,-1,-1,-1,-1,-1,-1,-1,-1,-1,-1,-1,-1,-1,-1,-1,-1,-1,-1,-1,-1,-1,-1,-1,-1,-1,-1],"loss_changes":[6.4328013E3,2.496597E3,6.232051E2,3.7339893E2,6.6370325E2,5.7597754E2,1.6117029E2,2.844458E1,8.14751E1,9.8861865E2,6.422599E2,5.539966E2,1.5897705E2,1.6293823E2,1.5788452E2,1.0293457E1,2.9919922E1,7.688918E1,6.0506714E1,5.171251E2,9.420831E2,3.1229E2,3.488671E2,4.6837866E2,1.6196619E2,1.3763974E2,1.427168E2,1.1557645E2,2.2957782E2,4.0289795E1,9.997485E0,0E0,0E0,0E0,0E0,0E0,0E0,0E0,0E0,0E0,0E0,0E0,0E0,0E0,0E0,0E0,0E0,0E0,0E0,0E0,0E0,0E0,0E0,0E0,0E0,0E0,0E0,0E0,0E0,0E0,0E0,0E0,0E0],"parents":[2147483647,0,0,1,1,2,2,3,3,4,4,5,5,6,6,7,7,8,8,9,9,10,10,11,11,12,12,13,13,14,14,15,15,16,16,17,17,18,18,19,19,20,20,21,21,22,22,23,23,24,24,25,25,26,26,27,27,28,28,29,29,30,30],"right_children":[2,4,6,8,10,12,14,16,18,20,22,24,26,28,30,32,34,36,38,40,42,44,46,48,50,52,54,56,58,60,62,-1,-1,-1,-1,-1,-1,-1,-1,-1,-1,-1,-1,-1,-1,-1,-1,-1,-1,-1,-1,-1,-1,-1,-1,-1,-1,-1,-1,-1,-1,-1,-1],"split_conditions":[3.109091E1,2.2E1,5.2E1,1.923077E1,2.3054054E1,1.425E1,1.6E1,1.01E1,1.2727273E1,2.3E1,5.65E0,1.4375E1,5.445026E-1,1.3166667E1,5.9E0,1.19E1,1E0,1.185E1,1.2E1,2.2027027E1,1E0,2.4142857E1,1.875E1,1E0,1E0,3.1538463E0,1.25E0,4.5762712E-1,2.56E1,1.4082569E1,2.6666667E0,-7.7623553E-3,3.0042952E-2,-6.386974E-3,1.3597553E-3,-1.9616445E-3,3.9135307E-2,-7.1885707E-3,-3.3190686E-3,6.800085E-3,-3.3887594E-3,1.8203652E-2,-1.7077845E-2,-7.5511597E-3,-1.3166013E-3,2.195882E-3,2.112365E-2,1.1316275E-2,4.7593373E-3,2.448029E-2,-3.8460057E-2,2.0375399E-2,-3.5124768E-2,5.024865E-4,3.996641E-2,3.221042E-2,9.327801E-3,9.5279254E-2,3.3910554E-2,1.18350744E-1,5.7845738E-2,4.6853986E-2,-3.844906E-3],"split_indices":[17,17,17,17,17,94,23,42,43,17,94,49,55,83,66,72,4,48,72,17,4,17,94,4,61,45,56,55,40,43,44,0,0,0,0,0,0,0,0,0,0,0,0,0,0,0,0,0,0,0,0,0,0,0,0,0,0,0,0,0,0,0,0],"split_type":[0,0,0,0,0,0,0,0,0,0,0,0,0,0,0,0,0,0,0,0,0,0,0,0,0,0,0,0,0,0,0,0,0,0,0,0,0,0,0,0,0,0,0,0,0,0,0,0,0,0,0,0,0,0,0,0,0,0,0,0,0,0,0],"sum_hessian":[7.97344E5,6.72588E5,1.24756E5,3.00475E5,3.72113E5,1.21195E5,3.561E3,1.90041E5,1.10434E5,7.0189E4,3.01924E5,1.15701E5,5.494E3,3.353E3,2.08E2,4.6089E4,1.43952E5,6.5764E4,4.467E4,4.9978E4,2.0211E4,1.79541E5,1.22383E5,1.09368E5,6.333E3,3.172E3,2.322E3,2.212E3,1.141E3,1.47E2,6.1E1,4.6072E4,1.7E1,1.42696E5,1.256E3,6.5651E4,1.13E2,1.5451E4,2.9219E4,2.3544E4,2.6434E4,1.8099E4,2.112E3,2.3043E4,1.56498E5,1.19899E5,2.484E3,5.8049E4,5.1319E4,6.23E3,1.03E2,3.057E3,1.15E2,2.58E2,2.064E3,1.073E3,1.139E3,1.81E2,9.6E2,1.05E2,4.2E1,1.1E1,5E1],"tree_param":{"num_deleted":"0","num_feature":"101","num_nodes":"63","size_leaf_vector":"1"}},{"base_weights":[-2.8115316E-4,-4.633468E-2,1.566215E-1,-1.2329444E-1,-7.7870246E-3,8.527718E-2,2.2813423E-1,-1.3446712E-1,-1.0105522E-1,-2.0718174E-2,7.145181E-2,5.886529E-2,1.5416808E-1,3.232975E-1,1.5216555E-1,-1.497181E-1,-1.2942883E-1,-4.192459E-2,-1.09344356E-1,-8.343058E-3,-9.998435E-2,1.2952004E-1,-8.615751E-3,6.616728E-2,-2.0060319E-1,8.3615355E-2,2.1996625E-1,1.5788959E-1,4.0991053E-1,6.625202E-2,3.6404136E-1,-7.499589E-3,1.1213988E-2,-6.529135E-3,3.7710357E-3,-2.9747847E-3,3.5956234E-2,-7.77528E-3,-4.9701855E-3,4.0982148E-4,-3.8087864E-3,-7.565677E-3,2.338508E-3,1.9628262E-2,4.7494937E-3,1.7686784E-3,-8.278593E-3,3.2610805E-3,8.232806E-2,-1.2379414E-2,1.1948287E-1,5.550537E-3,-1.0823747E-2,8.132661E-3,2.1667307E-2,2.3081251E-4,1.6988484E-2,2.2048961E-2,-3.1396062E-3,-2.193054E-3,8.577192E-3,1.9893104E-2,-2.8133681E-2],"categories":[],"categories_nodes":[],"categories_segments":[],"categories_sizes":[],"default_left":[0,0,0,0,0,0,0,0,0,0,0,0,0,0,0,0,0,0,0,0,0,0,0,0,0,0,0,0,0,0,0,0,0,0,0,0,0,0,0,0,0,0,0,0,0,0,0,0,0,0,0,0,0,0,0,0,0,0,0,0,0,0,0],"id":22,"left_children":[1,3,5,7,9,11,13,15,17,19,21,23,25,27,29,31,33,35,37,39,41,43,45,47,49,51,53,55,57,59,61,-1,-1,-1,-1,-1,-1,-1,-1,-1,-1,-1,-1,-1,-1,-1,-1,-1,-1,-1,-1,-1,-1,-1,-1,-1,-1,-1,-1,-1,-1,-1,-1],"loss_changes":[5.7646626E3,1.8296508E3,9.235488E2,5.1104248E1,4.2105344E2,1.6485986E2,6.5348E2,1.0479248E1,3.371826E1,3.4652866E2,2.6805472E2,1.2411743E2,1.1653186E2,5.7481494E2,9.150886E2,3.506958E0,2.4358154E1,1.1318824E2,2.7660278E1,3.4283627E2,3.5936932E2,3.0344037E2,1.6734682E2,9.49498E1,2.1859204E2,9.966131E1,1.5876715E2,3.8450436E2,3.8687207E2,4.1476117E2,4.5479443E2,0E0,0E0,0E0,0E0,0E0,0E0,0E0,0E0,0E0,0E0,0E0,0E0,0E0,0E0,0E0,0E0,0E0,0E0,0E0,0E0,0E0,0E0,0E0,0E0,0E0,0E0,0E0,0E0,0E0,0E0,0E0,0E0],"parents":[2147483647,0,0,1,1,2,2,3,3,4,4,5,5,6,6,7,7,8,8,9,9,10,10,11,11,12,12,13,13,14,14,15,15,16,16,17,17,18,18,19,19,20,20,21,21,22,22,23,23,24,24,25,25,26,26,27,27,28,28,29,29,30,30],"right_children":[2,4,6,8,10,12,14,16,18,20,22,24,26,28,30,32,34,36,38,40,42,44,46,48,50,52,54,56,58,60,62,-1,-1,-1,-1,-1,-1,-1,-1,-1,-1,-1,-1,-1,-1,-1,-1,-1,-1,-1,-1,-1,-1,-1,-1,-1,-1,-1,-1,-1,-1,-1,-1],"split_conditions":[2.9194717E1,1.9865168E1,3.3E1,1.8082474E1,8.477273E0,7.1E0,1E0,2.2E0,5.88E1,1E0,5.969697E0,1.6375E1,6.3228345E0,2.4E1,4.4E1,2.04E1,1E0,1.025E1,4.75E0,2.7E1,2.7142857E1,1.5E0,1E0,1.96E1,5.1E0,1.54E1,2.25E0,2.9E1,3.9727272E1,7.5E0,1.192E2,-7.499589E-3,1.1213988E-2,-6.529135E-3,3.7710357E-3,-2.9747847E-3,3.5956234E-2,-7.77528E-3,-4.9701855E-3,4.0982148E-4,-3.8087864E-3,-7.565677E-3,2.338508E-3,1.9628262E-2,4.7494937E-3,1.7686784E-3,-8.278593E-3,3.2610805E-3,8.232806E-2,-1.2379414E-2,1.1948287E-1,5.550537E-3,-1.0823747E-2,8.132661E-3,2.1667307E-2,2.3081251E-4,1.6988484E-2,2.2048961E-2,-3.1396062E-3,-2.193054E-3,8.577192E-3,1.9893104E-2,-2.8133681E-2],"split_indices":[17,17,17,17,49,23,4,51,68,4,67,32,49,7,17,76,4,71,100,17,17,57,4,42,51,42,62,8,17,93,68,0,0,0,0,0,0,0,0,0,0,0,0,0,0,0,0,0,0,0,0,0,0,0,0,0,0,0,0,0,0,0,0],"split_type":[0,0,0,0,0,0,0,0,0,0,0,0,0,0,0,0,0,0,0,0,0,0,0,0,0,0,0,0,0,0,0,0,0,0,0,0,0,0,0,0,0,0,0,0,0,0,0,0,0,0,0,0,0,0,0,0,0,0,0,0,0,0,0],"sum_hessian":[7.97775E5,6.1675E5,1.81025E5,2.05823E5,4.10927E5,9.0621E4,9.0404E4,1.36991E5,6.8832E4,3.53277E5,5.765E4,6.5509E4,2.5112E4,4.013E4,5.0274E4,3.4006E4,1.02985E5,8.465E3,6.0367E4,3.05573E5,4.7704E4,3.3416E4,2.4234E4,6.3717E4,1.792E3,1.212E4,1.2992E4,1.3793E4,2.6337E4,3.5771E4,1.4503E4,3.3982E4,2.4E1,1.02409E5,5.76E2,8.275E3,1.9E2,1.0692E4,4.9675E4,2.45671E5,5.9902E4,3.5343E4,1.2361E4,3.876E3,2.954E4,1.8929E4,5.305E3,6.368E4,3.7E1,1.761E3,3.1E1,1.1107E4,1.013E3,1.0243E4,2.749E3,7.486E3,6.307E3,2.4713E4,1.624E3,1.7485E4,1.8286E4,1.3993E4,5.1E2],"tree_param":{"num_deleted":"0","num_feature":"101","num_nodes":"63","size_leaf_vector":"1"}},{"base_weights":[1.7152258E-4,-4.346206E-2,1.4922191E-1,-9.7787015E-2,8.264416E-3,9.978923E-2,2.4259996E-1,-1.21206485E-1,-5.916437E-2,1.00152634E-1,-1.800558E-2,1.545158E-1,6.758749E-2,5.1312506E-1,2.1168676E-1,-1.3214259E-1,-1.0948323E-1,-3.737196E-2,-8.979153E-2,2.8890949E-2,2.7586025E-1,-6.627225E-2,3.637001E-2,1.15328155E-1,2.4910295E-1,8.515502E-3,1.0674906E-1,2.551392E-1,7.2508246E-1,2.6034412E-1,2.82957E-2,-6.6217408E-3,2.7989222E-2,-2.7082663E-3,-5.884723E-3,-1.9346325E-3,3.652676E-2,-4.0041385E-3,-1.1612471E-2,6.672161E-3,-3.2329168E-3,1.55461775E-2,9.6682954E-4,-3.5319738E-3,2.55684E-2,1.3689331E-2,1.3298212E-3,1.7034395E-3,8.121398E-3,8.575247E-3,1.9372538E-2,2.0180845E-4,4.44752E-2,5.223747E-3,7.9915226E-2,1.9814582E-3,2.7554307E-2,2.7505461E-2,6.0531516E-2,4.3088876E-5,1.5122242E-2,-3.4179722E-3,1.39186485E-2],"categories":[],"categories_nodes":[],"categories_segments":[],"categories_sizes":[],"default_left":[0,0,0,0,0,0,0,0,0,0,0,0,0,0,0,0,0,0,0,0,0,0,0,0,0,0,0,0,0,0,0,0,0,0,0,0,0,0,0,0,0,0,0,0,0,0,0,0,0,0,0,0,0,0,0,0,0,0,0,0,0,0,0],"id":23,"left_children":[1,3,5,7,9,11,13,15,17,19,21,23,25,27,29,31,33,35,37,39,41,43,45,47,49,51,53,55,57,59,61,-1,-1,-1,-1,-1,-1,-1,-1,-1,-1,-1,-1,-1,-1,-1,-1,-1,-1,-1,-1,-1,-1,-1,-1,-1,-1,-1,-1,-1,-1,-1,-1],"loss_changes":[5.192675E3,1.7355543E3,8.345293E2,2.7245825E2,7.637158E2,2.083125E2,5.2318774E2,2.4003906E1,7.588318E1,8.8071674E2,6.4573914E2,1.6226001E2,1.7217496E2,3.5061145E2,5.011604E2,1.9646606E1,4.1092285E1,6.734544E1,6.533301E1,4.8950497E2,1.8251465E2,3.288037E2,2.6842728E2,1.1849481E2,1.3758209E2,1.1701175E2,1.5148056E2,1.846246E2,2.983794E2,4.8489233E2,2.8475327E2,0E0,0E0,0E0,0E0,0E0,0E0,0E0,0E0,0E0,0E0,0E0,0E0,0E0,0E0,0E0,0E0,0E0,0E0,0E0,0E0,0E0,0E0,0E0,0E0,0E0,0E0,0E0,0E0,0E0,0E0,0E0,0E0],"parents":[2147483647,0,0,1,1,2,2,3,3,4,4,5,5,6,6,7,7,8,8,9,9,10,10,11,11,12,12,13,13,14,14,15,15,16,16,17,17,18,18,19,19,20,20,21,21,22,22,23,23,24,24,25,25,26,26,27,27,28,28,29,29,30,30],"right_children":[2,4,6,8,10,12,14,16,18,20,22,24,26,28,30,32,34,36,38,40,42,44,46,48,50,52,54,56,58,60,62,-1,-1,-1,-1,-1,-1,-1,-1,-1,-1,-1,-1,-1,-1,-1,-1,-1,-1,-1,-1,-1,-1,-1,-1,-1,-1,-1,-1,-1,-1,-1,-1],"split_conditions":[2.9194717E1,2.2E1,3.5E1,1.909756E1,2.3054054E1,2.8E0,1.4E0,1.7153847E1,1.2662337E1,2.3E1,4.5E0,3.2313953E1,2.6E0,3.9E1,1E0,1.38E1,1.8E1,1.185E1,4.133929E0,2.2027027E1,4.8E0,1.875E1,1.45E0,7.767647E1,1.3333334E0,1.72E1,3.5E0,4.05E0,5.25E0,2E0,8.5E0,-6.6217408E-3,2.7989222E-2,-2.7082663E-3,-5.884723E-3,-1.9346325E-3,3.652676E-2,-4.0041385E-3,-1.1612471E-2,6.672161E-3,-3.2329168E-3,1.55461775E-2,9.6682954E-4,-3.5319738E-3,2.55684E-2,1.3689331E-2,1.3298212E-3,1.7034395E-3,8.121398E-3,8.575247E-3,1.9372538E-2,2.0180845E-4,4.44752E-2,5.223747E-3,7.9915226E-2,1.9814582E-3,2.7554307E-2,2.7505461E-2,6.0531516E-2,4.3088876E-5,1.5122242E-2,-3.4179722E-3,1.39186485E-2],"split_indices":[17,17,17,17,17,97,50,17,43,17,48,17,95,17,1,95,17,48,52,17,97,94,57,70,75,76,45,66,65,5,65,0,0,0,0,0,0,0,0,0,0,0,0,0,0,0,0,0,0,0,0,0,0,0,0,0,0,0,0,0,0,0,0],"split_type":[0,0,0,0,0,0,0,0,0,0,0,0,0,0,0,0,0,0,0,0,0,0,0,0,0,0,0,0,0,0,0,0,0,0,0,0,0,0,0,0,0,0,0,0,0,0,0,0,0,0,0,0,0,0,0,0,0,0,0,0,0,0,0],"sum_hessian":[7.98427E5,6.17622E5,1.80805E5,3.01245E5,3.16377E5,1.18223E5,6.2582E4,1.87529E5,1.13716E5,7.034E4,2.46037E5,4.3792E4,7.4431E4,6.416E3,5.6166E4,9.7012E4,9.0517E4,6.6444E4,4.7272E4,5.0045E4,2.0295E4,1.30341E5,1.15696E5,3.0966E4,1.2826E4,2.9674E4,4.4757E4,2.895E3,3.521E3,4.4388E4,1.1778E4,9.6972E4,4E1,1.1702E4,7.8815E4,6.6331E4,1.13E2,4.4258E4,3.014E3,2.3633E4,2.6412E4,1.7854E4,2.441E3,1.29364E5,9.77E2,4.573E3,1.11123E5,1.1364E4,1.9602E4,8.219E3,4.607E3,2.9525E4,1.49E2,4.469E4,6.7E1,1.676E3,1.219E3,2.59E3,9.31E2,6.197E3,3.8191E4,8.495E3,3.283E3],"tree_param":{"num_deleted":"0","num_feature":"101","num_nodes":"63","size_leaf_vector":"1"}},{"base_weights":[4.4440437E-4,-3.2719888E-2,1.7953962E-1,-9.235113E-2,1.5467453E-2,3.2061726E-1,1.463813E-1,-1.1494907E-1,-5.515371E-2,8.284221E-2,-6.2321173E-3,2.4670583E-1,4.951394E-1,1.3227719E-1,4.4562915E-1,-1.21736795E-1,-9.621103E-2,-5.5756483E-2,1.0677413E0,5.3723793E-2,1.7861277E-1,-7.9965934E-2,1.1268652E-2,3.5276726E-1,6.284047E-2,7.123674E-1,3.263442E-1,1.2275547E-1,5.5159146E-1,3.2765612E-1,6.9997E-1,-6.1411913E-3,-1.9234347E-3,-3.4018606E-3,-5.6312974E-3,-1.7281646E-3,-4.356765E-3,3.2400254E-2,6.1990615E-2,8.1082955E-3,1.0955184E-3,2.442061E-2,7.812237E-3,-6.565768E-3,-1.7709524E-3,-9.344944E-5,4.614962E-3,8.007974E-3,2.2429211E-2,1.6610416E-2,-6.5433136E-3,2.0241573E-2,5.4659247E-2,2.764056E-3,2.6296614E-2,-3.3890426E-3,7.139237E-3,4.4121888E-2,1.5839418E-2,1.8174922E-2,-2.9528266E-2,-3.82671E-3,4.301177E-2],"categories":[],"categories_nodes":[],"categories_segments":[],"categories_sizes":[],"default_left":[0,0,0,0,0,0,0,0,0,0,0,0,0,0,0,0,0,0,0,0,0,0,0,0,0,0,0,0,0,0,0,0,0,0,0,0,0,0,0,0,0,0,0,0,0,0,0,0,0,0,0,0,0,0,0,0,0,0,0,0,0,0,0],"id":24,"left_children":[1,3,5,7,9,11,13,15,17,19,21,23,25,27,29,31,33,35,37,39,41,43,45,47,49,51,53,55,57,59,61,-1,-1,-1,-1,-1,-1,-1,-1,-1,-1,-1,-1,-1,-1,-1,-1,-1,-1,-1,-1,-1,-1,-1,-1,-1,-1,-1,-1,-1,-1,-1,-1],"loss_changes":[4.7414517E3,1.9354443E3,5.833667E2,2.5301953E2,5.446366E2,3.0596558E2,4.2613672E2,2.378418E1,7.6963776E1,2.5304608E2,3.6360464E2,3.2513538E2,2.5853296E2,3.8494653E2,1.3604218E2,1.2421265E1,2.300763E1,7.560394E1,3.4134903E0,2.400749E2,1.4647571E2,1.2361801E2,2.4242975E2,1.9502979E2,3.18456E2,3.6082495E2,2.1496405E2,3.599292E2,1.6592145E2,1.024469E2,1.7922302E2,0E0,0E0,0E0,0E0,0E0,0E0,0E0,0E0,0E0,0E0,0E0,0E0,0E0,0E0,0E0,0E0,0E0,0E0,0E0,0E0,0E0,0E0,0E0,0E0,0E0,0E0,0E0,0E0,0E0,0E0,0E0,0E0],"parents":[2147483647,0,0,1,1,2,2,3,3,4,4,5,5,6,6,7,7,8,8,9,9,10,10,11,11,12,12,13,13,14,14,15,15,16,16,17,17,18,18,19,19,20,20,21,21,22,22,23,23,24,24,25,25,26,26,27,27,28,28,29,29,30,30],"right_children":[2,4,6,8,10,12,14,16,18,20,22,24,26,28,30,32,34,36,38,40,42,44,46,48,50,52,54,56,58,60,62,-1,-1,-1,-1,-1,-1,-1,-1,-1,-1,-1,-1,-1,-1,-1,-1,-1,-1,-1,-1,-1,-1,-1,-1,-1,-1,-1,-1,-1,-1,-1,-1],"split_conditions":[3.109091E1,2.2E1,2.2307692E0,1.909756E1,2.25E0,3.9E1,1.425E1,1.8082474E1,2E0,8.4E0,3E0,1E0,1.6E0,5.2E1,5.445026E-1,1E0,1.9E1,1.2727273E1,3E0,2.3054054E1,1.2E0,1.1666667E1,8.387255E0,3.2313953E1,6.7E1,1.304E3,2.7E0,2E0,1.2727273E1,2.99E1,1.25E0,-6.1411913E-3,-1.9234347E-3,-3.4018606E-3,-5.6312974E-3,-1.7281646E-3,-4.356765E-3,3.2400254E-2,6.1990615E-2,8.1082955E-3,1.0955184E-3,2.442061E-2,7.812237E-3,-6.565768E-3,-1.7709524E-3,-9.344944E-5,4.614962E-3,8.007974E-3,2.2429211E-2,1.6610416E-2,-6.5433136E-3,2.0241573E-2,5.4659247E-2,2.764056E-3,2.6296614E-2,-3.3890426E-3,7.139237E-3,4.4121888E-2,1.5839418E-2,1.8174922E-2,-2.9528266E-2,-3.82671E-3,4.301177E-2],"split_indices":[17,17,52,17,97,17,94,17,53,47,5,4,50,17,55,13,17,43,5,17,50,42,49,17,7,21,57,5,73,39,56,0,0,0,0,0,0,0,0,0,0,0,0,0,0,0,0,0,0,0,0,0,0,0,0,0,0,0,0,0,0,0,0],"split_type":[0,0,0,0,0,0,0,0,0,0,0,0,0,0,0,0,0,0,0,0,0,0,0,0,0,0,0,0,0,0,0,0,0,0,0,0,0,0,0,0,0,0,0,0,0,0,0,0,0,0,0,0,0,0,0,0,0,0,0,0,0,0,0],"sum_hessian":[7.98278E5,6.73552E5,1.24726E5,3.01031E5,3.72521E5,2.3734E4,1.00992E5,1.87262E5,1.13769E5,9.0751E4,2.8177E5,1.6675E4,7.059E3,9.6448E4,4.544E3,